<?xml version="1.0"?>
<MethodSetup Method="BDT::BDTG">
  <GeneralInfo>
    <Info name="TMVA Release" value="4.2.1 [262657]"/>
    <Info name="ROOT Release" value="6.06/01 [394753]"/>
    <Info name="Creator" value="muell149"/>
    <Info name="Date" value="Tue Jul 12 15:37:43 2016"/>
    <Info name="Host" value="Linux vocms0315.cern.ch 2.6.32-573.26.1.el6.x86_64 #1 SMP Wed May 4 09:23:05 CEST 2016 x86_64 x86_64 x86_64 GNU/Linux"/>
    <Info name="Dir" value="/afs/cern.ch/work/m/muell149/CMSSW_8_0_13/src/ttH-13TeVMultiLeptons/simpleweights/reconstruction_bdt_weights"/>
    <Info name="Training events" value="50000"/>
    <Info name="TrainingTime" value="3.20681939e+01"/>
    <Info name="AnalysisType" value="Classification"/>
  </GeneralInfo>
  <Options>
    <Option name="V" modified="Yes">False</Option>
    <Option name="VerbosityLevel" modified="No">Default</Option>
    <Option name="VarTransform" modified="No">None</Option>
    <Option name="H" modified="Yes">False</Option>
    <Option name="CreateMVAPdfs" modified="No">False</Option>
    <Option name="IgnoreNegWeightsInTraining" modified="No">False</Option>
    <Option name="NTrees" modified="Yes">1000</Option>
    <Option name="MaxDepth" modified="Yes">3</Option>
    <Option name="MinNodeSize" modified="Yes">4.5%</Option>
    <Option name="nCuts" modified="Yes">20</Option>
    <Option name="BoostType" modified="Yes">Grad</Option>
    <Option name="AdaBoostR2Loss" modified="No">quadratic</Option>
    <Option name="UseBaggedBoost" modified="Yes">True</Option>
    <Option name="Shrinkage" modified="Yes">1.000000e-01</Option>
    <Option name="AdaBoostBeta" modified="No">5.000000e-01</Option>
    <Option name="UseRandomisedTrees" modified="No">False</Option>
    <Option name="UseNvars" modified="No">3</Option>
    <Option name="UsePoissonNvars" modified="No">True</Option>
    <Option name="BaggedSampleFraction" modified="Yes">5.000000e-01</Option>
    <Option name="UseYesNoLeaf" modified="No">True</Option>
    <Option name="NegWeightTreatment" modified="No">ignorenegweightsintraining</Option>
    <Option name="Css" modified="No">1.000000e+00</Option>
    <Option name="Cts_sb" modified="No">1.000000e+00</Option>
    <Option name="Ctb_ss" modified="No">1.000000e+00</Option>
    <Option name="Cbb" modified="No">1.000000e+00</Option>
    <Option name="NodePurityLimit" modified="No">5.000000e-01</Option>
    <Option name="SeparationType" modified="No">giniindex</Option>
    <Option name="DoBoostMonitor" modified="No">False</Option>
    <Option name="UseFisherCuts" modified="No">False</Option>
    <Option name="MinLinCorrForFisher" modified="No">8.000000e-01</Option>
    <Option name="UseExclusiveVars" modified="No">False</Option>
    <Option name="DoPreselection" modified="No">False</Option>
    <Option name="SigToBkgFraction" modified="No">1.000000e+00</Option>
    <Option name="PruneMethod" modified="No">nopruning</Option>
    <Option name="PruneStrength" modified="No">0.000000e+00</Option>
    <Option name="PruningValFraction" modified="No">5.000000e-01</Option>
    <Option name="nEventsMin" modified="No">0</Option>
    <Option name="UseBaggedGrad" modified="No">False</Option>
    <Option name="GradBaggingFraction" modified="No">5.000000e-01</Option>
    <Option name="UseNTrainEvents" modified="No">0</Option>
    <Option name="NNodesMax" modified="No">0</Option>
  </Options>
  <Variables NVar="8">
    <Variable VarIndex="0" Expression="bJet_fromLepTop_CSV" Label="bJet_fromLepTop_CSV" Title="b leptop csv" Unit="csv" Internal="bJet_fromLepTop_CSV" Type="D" Min="-2.00000003e-01" Max="9.99623001e-01"/>
    <Variable VarIndex="1" Expression="bJet_fromHadTop_CSV" Label="bJet_fromHadTop_CSV" Title="b hadtop csv" Unit="csv" Internal="bJet_fromHadTop_CSV" Type="D" Min="-2.00000003e-01" Max="9.99466479e-01"/>
    <Variable VarIndex="2" Expression="HadTop_pT" Label="HadTop_pT" Title="had top pt" Unit="pt" Internal="HadTop_pT" Type="D" Min="0.00000000e+00" Max="1.31251819e+03"/>
    <Variable VarIndex="3" Expression="W_fromHadTop_mass" Label="W_fromHadTop_mass" Title="w frm had top mass" Unit="mass" Internal="W_fromHadTop_mass" Type="D" Min="0.00000000e+00" Max="5.76508606e+02"/>
    <Variable VarIndex="4" Expression="HadTop_mass" Label="HadTop_mass" Title="had top mass" Unit="mass" Internal="HadTop_mass" Type="D" Min="0.00000000e+00" Max="1.45806555e+03"/>
    <Variable VarIndex="5" Expression="Higgs_mass" Label="Higgs_mass" Title="higgs mass" Unit="mass" Internal="Higgs_mass" Type="D" Min="-2.42256567e-01" Max="4.52144196e+02"/>
    <Variable VarIndex="6" Expression="LepTop_HadTop_dR" Label="LepTop_HadTop_dR" Title="leptop had top dR" Unit="dR" Internal="LepTop_HadTop_dR" Type="D" Min="1.01359412e-02" Max="7.98536777e+00"/>
    <Variable VarIndex="7" Expression="lep_fromW_fromHiggs_pT" Label="lep_fromW_fromHiggs_pT" Title="lep fromH pt" Unit="pt" Internal="lep_fromW_fromHiggs_pT" Type="D" Min="1.00596313e+01" Max="6.30060608e+02"/>
  </Variables>
  <Spectators NSpec="0"/>
  <Classes NClass="2">
    <Class Name="Signal" Index="0"/>
    <Class Name="Background" Index="1"/>
  </Classes>
  <Transformations NTransformations="0"/>
  <MVAPdfs/>
  <Weights NTrees="1000" AnalysisType="1">
    <BinaryTree type="DecisionTree" boostWeight="1.0000000000000000e+00" itree="0">
      <Node pos="s" depth="0" NCoef="0" IVar="2" Cut="1.5522415161132812e+02" cType="1" res="3.7681350950151682e-03" rms="4.9998581409454346e-01" purity="5.0376814603805542e-01" nType="0">
        <Node pos="l" depth="1" NCoef="0" IVar="5" Cut="1.9909179687500000e+01" cType="1" res="-1.1343674361705780e-01" rms="4.8696210980415344e-01" purity="3.8656324148178101e-01" nType="0">
          <Node pos="l" depth="2" NCoef="0" IVar="3" Cut="6.0177082061767578e+01" cType="1" res="1.0991168022155762e-01" rms="4.8776984214782715e-01" purity="6.0991168022155762e-01" nType="0">
            <Node pos="l" depth="3" NCoef="0" IVar="-1" Cut="0.0000000000000000e+00" cType="1" res="1.3152984902262688e-03" rms="4.9995282292366028e-01" purity="5.0686931610107422e-01" nType="-99"/>
            <Node pos="r" depth="3" NCoef="0" IVar="-1" Cut="0.0000000000000000e+00" cType="1" res="4.2173147201538086e-02" rms="4.3819034099578857e-01" purity="7.4080950021743774e-01" nType="-99"/>
          </Node>
          <Node pos="r" depth="2" NCoef="0" IVar="3" Cut="5.7037006378173828e+01" cType="1" res="-2.0274689793586731e-01" rms="4.5704889297485352e-01" purity="2.9725310206413269e-01" nType="0">
            <Node pos="l" depth="3" NCoef="0" IVar="-1" Cut="0.0000000000000000e+00" cType="1" res="-5.1598921418190002e-02" rms="4.3716880679130554e-01" purity="2.5734093785285950e-01" nType="-99"/>
            <Node pos="r" depth="3" NCoef="0" IVar="-1" Cut="0.0000000000000000e+00" cType="1" res="-3.8666960317641497e-03" rms="4.9960070848464966e-01" purity="4.8002189397811890e-01" nType="-99"/>
          </Node>
        </Node>
        <Node pos="r" depth="1" NCoef="0" IVar="3" Cut="6.5173812866210938e+01" cType="1" res="2.9155671596527100e-01" rms="4.0619537234306335e-01" purity="7.9155677556991577e-01" nType="0">
          <Node pos="l" depth="2" NCoef="0" IVar="5" Cut="4.2929485321044922e+01" cType="1" res="1.6847637295722961e-01" rms="4.7076079249382019e-01" purity="6.6847634315490723e-01" nType="0">
            <Node pos="l" depth="3" NCoef="0" IVar="-1" Cut="0.0000000000000000e+00" cType="1" res="5.2720587700605392e-02" rms="3.9350768923759460e-01" purity="8.0846673250198364e-01" nType="-99"/>
            <Node pos="r" depth="3" NCoef="0" IVar="-1" Cut="0.0000000000000000e+00" cType="1" res="1.0349398478865623e-02" rms="4.9695572257041931e-01" purity="5.5509090423583984e-01" nType="-99"/>
          </Node>
          <Node pos="r" depth="2" NCoef="0" IVar="2" Cut="2.4185234069824219e+02" cType="1" res="4.1295430064201355e-01" rms="2.8190198540687561e-01" purity="9.1295433044433594e-01" nType="0">
            <Node pos="l" depth="3" NCoef="0" IVar="-1" Cut="0.0000000000000000e+00" cType="1" res="6.0242224484682083e-02" rms="3.4823641180992126e-01" purity="8.5879158973693848e-01" nType="-99"/>
            <Node pos="r" depth="3" NCoef="0" IVar="-1" Cut="0.0000000000000000e+00" cType="1" res="7.5670324265956879e-02" rms="1.7633156478404999e-01" purity="9.6787512302398682e-01" nType="-99"/>
          </Node>
        </Node>
      </Node>
    </BinaryTree>
    <BinaryTree type="DecisionTree" boostWeight="1.0000000000000000e+00" itree="1">
      <Node pos="s" depth="0" NCoef="0" IVar="2" Cut="1.5210212707519531e+02" cType="1" res="2.8406402561813593e-03" rms="4.8929357528686523e-01" purity="5.0086003541946411e-01" nType="0">
        <Node pos="l" depth="1" NCoef="0" IVar="5" Cut="5.9955833435058594e+01" cType="1" res="-1.0575539618730545e-01" rms="4.8052760958671570e-01" purity="3.8146036863327026e-01" nType="0">
          <Node pos="l" depth="2" NCoef="0" IVar="3" Cut="6.2652832031250000e+01" cType="1" res="1.9249698147177696e-02" rms="4.9542871117591858e-01" purity="5.1537823677062988e-01" nType="0">
            <Node pos="l" depth="3" NCoef="0" IVar="-1" Cut="0.0000000000000000e+00" cType="1" res="-1.1271077208220959e-02" rms="4.9347907304763794e-01" purity="4.3016681075096130e-01" nType="-99"/>
            <Node pos="r" depth="3" NCoef="0" IVar="-1" Cut="0.0000000000000000e+00" cType="1" res="3.1100565567612648e-02" rms="4.6220374107360840e-01" purity="6.8830442428588867e-01" nType="-99"/>
          </Node>
          <Node pos="r" depth="2" NCoef="0" IVar="1" Cut="5.4250884056091309e-01" cType="1" res="-2.3639537394046783e-01" rms="4.2697885632514954e-01" purity="2.4150577187538147e-01" nType="0">
            <Node pos="l" depth="3" NCoef="0" IVar="-1" Cut="0.0000000000000000e+00" cType="1" res="-6.6298998892307281e-02" rms="3.8167461752891541e-01" purity="1.7812091112136841e-01" nType="-99"/>
            <Node pos="r" depth="3" NCoef="0" IVar="-1" Cut="0.0000000000000000e+00" cType="1" res="-3.8931947201490402e-02" rms="4.5354840159416199e-01" purity="2.9208606481552124e-01" nType="-99"/>
          </Node>
        </Node>
        <Node pos="r" depth="1" NCoef="0" IVar="5" Cut="7.6114501953125000e+01" cType="1" res="2.5727215409278870e-01" rms="4.0860819816589355e-01" purity="7.8060376644134521e-01" nType="0">
          <Node pos="l" depth="2" NCoef="0" IVar="3" Cut="6.4347450256347656e+01" cType="1" res="3.2724979519844055e-01" rms="3.5055401921272278e-01" purity="8.5324972867965698e-01" nType="0">
            <Node pos="l" depth="3" NCoef="0" IVar="-1" Cut="0.0000000000000000e+00" cType="1" res="4.1215773671865463e-02" rms="4.2913857102394104e-01" purity="7.5324672460556030e-01" nType="-99"/>
            <Node pos="r" depth="3" NCoef="0" IVar="-1" Cut="0.0000000000000000e+00" cType="1" res="6.6264584660530090e-02" rms="2.4257850646972656e-01" purity="9.3689388036727905e-01" nType="-99"/>
          </Node>
          <Node pos="r" depth="2" NCoef="0" IVar="-1" Cut="0.0000000000000000e+00" cType="1" res="2.8298125835135579e-04" rms="4.9470347166061401e-01" purity="5.1505792140960693e-01" nType="-99"/>
        </Node>
      </Node>
    </BinaryTree>
    <BinaryTree type="DecisionTree" boostWeight="1.0000000000000000e+00" itree="2">
      <Node pos="s" depth="0" NCoef="0" IVar="2" Cut="1.5522415161132812e+02" cType="1" res="6.0849147848784924e-03" rms="4.7977519035339355e-01" purity="5.0201940536499023e-01" nType="0">
        <Node pos="l" depth="1" NCoef="0" IVar="5" Cut="5.8472080230712891e+01" cType="1" res="-8.8946834206581116e-02" rms="4.7648748755455017e-01" purity="3.8706550002098083e-01" nType="0">
          <Node pos="l" depth="2" NCoef="0" IVar="3" Cut="6.0177082061767578e+01" cType="1" res="3.0855419114232063e-02" rms="4.9243363738059998e-01" purity="5.2934646606445312e-01" nType="0">
            <Node pos="l" depth="3" NCoef="0" IVar="-1" Cut="0.0000000000000000e+00" cType="1" res="-9.2771016061306000e-03" rms="4.9422943592071533e-01" purity="4.3513700366020203e-01" nType="-99"/>
            <Node pos="r" depth="3" NCoef="0" IVar="-1" Cut="0.0000000000000000e+00" cType="1" res="3.2072383910417557e-02" rms="4.5288261771202087e-01" purity="7.1031314134597778e-01" nType="-99"/>
          </Node>
          <Node pos="r" depth="2" NCoef="0" IVar="0" Cut="3.7121668457984924e-01" cType="1" res="-2.0847289264202118e-01" rms="4.2780771851539612e-01" purity="2.4511252343654633e-01" nType="0">
            <Node pos="l" depth="3" NCoef="0" IVar="-1" Cut="0.0000000000000000e+00" cType="1" res="-6.4220331609249115e-02" rms="3.7497624754905701e-01" purity="1.7055511474609375e-01" nType="-99"/>
            <Node pos="r" depth="3" NCoef="0" IVar="-1" Cut="0.0000000000000000e+00" cType="1" res="-3.5368476063013077e-02" rms="4.4738537073135376e-01" purity="2.8418833017349243e-01" nType="-99"/>
          </Node>
        </Node>
        <Node pos="r" depth="1" NCoef="0" IVar="3" Cut="6.5173812866210938e+01" cType="1" res="2.4360124766826630e-01" rms="3.9881867170333862e-01" purity="7.8932797908782959e-01" nType="0">
          <Node pos="l" depth="2" NCoef="0" IVar="5" Cut="6.4485565185546875e+01" cType="1" res="1.3250419497489929e-01" rms="4.6741980314254761e-01" purity="6.6237348318099976e-01" nType="0">
            <Node pos="l" depth="3" NCoef="0" IVar="-1" Cut="0.0000000000000000e+00" cType="1" res="4.0173254907131195e-02" rms="4.1849651932716370e-01" purity="7.7183663845062256e-01" nType="-99"/>
            <Node pos="r" depth="3" NCoef="0" IVar="-1" Cut="0.0000000000000000e+00" cType="1" res="-6.3149621710181236e-03" rms="4.9825158715248108e-01" purity="4.7758883237838745e-01" nType="-99"/>
          </Node>
          <Node pos="r" depth="2" NCoef="0" IVar="2" Cut="2.2780952453613281e+02" cType="1" res="3.5543131828308105e-01" rms="2.7259740233421326e-01" purity="9.1712003946304321e-01" nType="0">
            <Node pos="l" depth="3" NCoef="0" IVar="-1" Cut="0.0000000000000000e+00" cType="1" res="4.9381233751773834e-02" rms="3.5819166898727417e-01" purity="8.4571129083633423e-01" nType="-99"/>
            <Node pos="r" depth="3" NCoef="0" IVar="-1" Cut="0.0000000000000000e+00" cType="1" res="6.7105211317539215e-02" rms="1.5839678049087524e-01" purity="9.7383177280426025e-01" nType="-99"/>
          </Node>
        </Node>
      </Node>
    </BinaryTree>
    <BinaryTree type="DecisionTree" boostWeight="1.0000000000000000e+00" itree="3">
      <Node pos="s" depth="0" NCoef="0" IVar="2" Cut="1.1005657196044922e+02" cType="1" res="1.4595844550058246e-03" rms="4.7172924876213074e-01" purity="4.9580624699592590e-01" nType="0">
        <Node pos="l" depth="1" NCoef="0" IVar="5" Cut="1.4526857376098633e+01" cType="1" res="-1.3644358515739441e-01" rms="4.5578095316886902e-01" purity="3.2517451047897339e-01" nType="0">
          <Node pos="l" depth="2" NCoef="0" IVar="0" Cut="8.8537317514419556e-01" cType="1" res="2.4432960897684097e-02" rms="4.9182966351509094e-01" purity="5.3879415988922119e-01" nType="0">
            <Node pos="l" depth="3" NCoef="0" IVar="-1" Cut="0.0000000000000000e+00" cType="1" res="-1.5684753656387329e-02" rms="4.8787096142768860e-01" purity="4.3368998169898987e-01" nType="-99"/>
            <Node pos="r" depth="3" NCoef="0" IVar="-1" Cut="0.0000000000000000e+00" cType="1" res="2.4180769920349121e-02" rms="4.7221615910530090e-01" purity="6.4871191978454590e-01" nType="-99"/>
          </Node>
          <Node pos="r" depth="2" NCoef="0" IVar="1" Cut="5.4250872135162354e-01" cType="1" res="-1.8895371258258820e-01" rms="4.3055945634841919e-01" purity="2.5544899702072144e-01" nType="0">
            <Node pos="l" depth="3" NCoef="0" IVar="-1" Cut="0.0000000000000000e+00" cType="1" res="-5.9286829084157944e-02" rms="3.7943762540817261e-01" purity="1.7780025303363800e-01" nType="-99"/>
            <Node pos="r" depth="3" NCoef="0" IVar="-1" Cut="0.0000000000000000e+00" cType="1" res="-2.6574205607175827e-02" rms="4.5925307273864746e-01" purity="3.1944862008094788e-01" nType="-99"/>
          </Node>
        </Node>
        <Node pos="r" depth="1" NCoef="0" IVar="3" Cut="6.5005645751953125e+01" cType="1" res="1.6072894632816315e-01" rms="4.3849974870681763e-01" purity="6.9287496805191040e-01" nType="0">
          <Node pos="l" depth="2" NCoef="0" IVar="0" Cut="4.2830321192741394e-01" cType="1" res="6.5332375466823578e-02" rms="4.8003891110420227e-01" purity="5.6743419170379639e-01" nType="0">
            <Node pos="l" depth="3" NCoef="0" IVar="-1" Cut="0.0000000000000000e+00" cType="1" res="-2.0735794678330421e-02" rms="4.7609844803810120e-01" purity="3.9146047830581665e-01" nType="-99"/>
            <Node pos="r" depth="3" NCoef="0" IVar="-1" Cut="0.0000000000000000e+00" cType="1" res="2.6196926832199097e-02" rms="4.6164259314537048e-01" purity="6.4912927150726318e-01" nType="-99"/>
          </Node>
          <Node pos="r" depth="2" NCoef="0" IVar="4" Cut="1.4910536193847656e+02" cType="1" res="2.8793510794639587e-01" rms="3.3628490567207336e-01" purity="8.6014336347579956e-01" nType="0">
            <Node pos="l" depth="3" NCoef="0" IVar="-1" Cut="0.0000000000000000e+00" cType="1" res="3.2053276896476746e-02" rms="4.2625886201858521e-01" purity="7.4086177349090576e-01" nType="-99"/>
            <Node pos="r" depth="3" NCoef="0" IVar="-1" Cut="0.0000000000000000e+00" cType="1" res="5.6334953755140305e-02" rms="2.8155606985092163e-01" purity="9.0742051601409912e-01" nType="-99"/>
          </Node>
        </Node>
      </Node>
    </BinaryTree>
    <BinaryTree type="DecisionTree" boostWeight="1.0000000000000000e+00" itree="4">
      <Node pos="s" depth="0" NCoef="0" IVar="2" Cut="1.2500173187255859e+02" cType="1" res="1.2213351204991341e-02" rms="4.6415123343467712e-01" purity="5.0613772869110107e-01" nType="0">
        <Node pos="l" depth="1" NCoef="0" IVar="5" Cut="7.0857231140136719e+01" cType="1" res="-9.5530897378921509e-02" rms="4.6163153648376465e-01" purity="3.5631552338600159e-01" nType="0">
          <Node pos="l" depth="2" NCoef="0" IVar="7" Cut="3.1779497146606445e+01" cType="1" res="-1.5336249023675919e-02" rms="4.8578435182571411e-01" purity="4.6550244092941284e-01" nType="0">
            <Node pos="l" depth="3" NCoef="0" IVar="-1" Cut="0.0000000000000000e+00" cType="1" res="-2.8256256133317947e-02" rms="4.5732569694519043e-01" purity="3.3670786023139954e-01" nType="-99"/>
            <Node pos="r" depth="3" NCoef="0" IVar="-1" Cut="0.0000000000000000e+00" cType="1" res="1.8833467736840248e-02" rms="4.8412355780601501e-01" purity="5.8933079242706299e-01" nType="-99"/>
          </Node>
          <Node pos="r" depth="2" NCoef="0" IVar="0" Cut="3.7118473649024963e-01" cType="1" res="-2.0474652945995331e-01" rms="4.0156379342079163e-01" purity="2.0761582255363464e-01" nType="0">
            <Node pos="l" depth="3" NCoef="0" IVar="-1" Cut="0.0000000000000000e+00" cType="1" res="-6.1758700758218765e-02" rms="3.5355228185653687e-01" purity="1.4563107490539551e-01" nType="-99"/>
            <Node pos="r" depth="3" NCoef="0" IVar="-1" Cut="0.0000000000000000e+00" cType="1" res="-3.7879426032304764e-02" rms="4.2115834355354309e-01" purity="2.4070565402507782e-01" nType="-99"/>
          </Node>
        </Node>
        <Node pos="r" depth="1" NCoef="0" IVar="5" Cut="6.6503105163574219e+01" cType="1" res="1.7923600971698761e-01" rms="4.1612517833709717e-01" purity="7.3838871717453003e-01" nType="0">
          <Node pos="l" depth="2" NCoef="0" IVar="3" Cut="5.4905582427978516e+01" cType="1" res="2.4873742461204529e-01" rms="3.6415514349937439e-01" purity="8.2761746644973755e-01" nType="0">
            <Node pos="l" depth="3" NCoef="0" IVar="-1" Cut="0.0000000000000000e+00" cType="1" res="3.1772073358297348e-02" rms="4.4027578830718994e-01" purity="7.2026801109313965e-01" nType="-99"/>
            <Node pos="r" depth="3" NCoef="0" IVar="-1" Cut="0.0000000000000000e+00" cType="1" res="5.2610810846090317e-02" rms="2.8091645240783691e-01" purity="9.0970218181610107e-01" nType="-99"/>
          </Node>
          <Node pos="r" depth="2" NCoef="0" IVar="3" Cut="3.4411983489990234e+01" cType="1" res="1.3041789643466473e-02" rms="4.8057913780212402e-01" purity="5.2502167224884033e-01" nType="0">
            <Node pos="l" depth="3" NCoef="0" IVar="-1" Cut="0.0000000000000000e+00" cType="1" res="-9.5386290922760963e-03" rms="4.8880568146705627e-01" purity="4.3411239981651306e-01" nType="-99"/>
            <Node pos="r" depth="3" NCoef="0" IVar="-1" Cut="0.0000000000000000e+00" cType="1" res="1.8202051520347595e-02" rms="4.5548802614212036e-01" purity="6.5145230293273926e-01" nType="-99"/>
          </Node>
        </Node>
      </Node>
    </BinaryTree>
    <BinaryTree type="DecisionTree" boostWeight="1.0000000000000000e+00" itree="5">
      <Node pos="s" depth="0" NCoef="0" IVar="2" Cut="1.7826315307617188e+02" cType="1" res="3.6385045386850834e-03" rms="4.5769879221916199e-01" purity="4.9585247039794922e-01" nType="0">
        <Node pos="l" depth="1" NCoef="0" IVar="5" Cut="7.3135292053222656e+01" cType="1" res="-6.1446707695722580e-02" rms="4.6266698837280273e-01" purity="3.9818620681762695e-01" nType="0">
          <Node pos="l" depth="2" NCoef="0" IVar="1" Cut="5.4252475500106812e-01" cType="1" res="1.1462412774562836e-02" rms="4.7938603162765503e-01" purity="5.0682520866394043e-01" nType="0">
            <Node pos="l" depth="3" NCoef="0" IVar="-1" Cut="0.0000000000000000e+00" cType="1" res="-2.2852746769785881e-02" rms="4.6482470631599426e-01" purity="3.7559431791305542e-01" nType="-99"/>
            <Node pos="r" depth="3" NCoef="0" IVar="-1" Cut="0.0000000000000000e+00" cType="1" res="1.6149863600730896e-02" rms="4.7283631563186646e-01" purity="5.8637058734893799e-01" nType="-99"/>
          </Node>
          <Node pos="r" depth="2" NCoef="0" IVar="3" Cut="5.0719890594482422e+01" cType="1" res="-1.7948332428932190e-01" rms="4.0745943784713745e-01" purity="2.2230449318885803e-01" nType="0">
            <Node pos="l" depth="3" NCoef="0" IVar="-1" Cut="0.0000000000000000e+00" cType="1" res="-4.6621453016996384e-02" rms="3.9006361365318298e-01" purity="1.9212025403976440e-01" nType="-99"/>
            <Node pos="r" depth="3" NCoef="0" IVar="-1" Cut="0.0000000000000000e+00" cType="1" res="-1.3617450371384621e-02" rms="4.6684733033180237e-01" purity="3.6947789788246155e-01" nType="-99"/>
          </Node>
        </Node>
        <Node pos="r" depth="1" NCoef="0" IVar="3" Cut="5.4905582427978516e+01" cType="1" res="2.1841409802436829e-01" rms="3.6645856499671936e-01" purity="8.1814265251159668e-01" nType="0">
          <Node pos="l" depth="2" NCoef="0" IVar="1" Cut="8.8520646095275879e-01" cType="1" res="1.3029944896697998e-01" rms="4.5165887475013733e-01" purity="6.8659180402755737e-01" nType="0">
            <Node pos="l" depth="3" NCoef="0" IVar="-1" Cut="0.0000000000000000e+00" cType="1" res="8.2849580794572830e-03" rms="4.8052555322647095e-01" purity="6.0041123628616333e-01" nType="-99"/>
            <Node pos="r" depth="3" NCoef="0" IVar="-1" Cut="0.0000000000000000e+00" cType="1" res="3.7266299128532410e-02" rms="4.0694907307624817e-01" purity="7.6673042774200439e-01" nType="-99"/>
          </Node>
          <Node pos="r" depth="2" NCoef="0" IVar="5" Cut="3.2977481842041016e+01" cType="1" res="2.8614985942840576e-01" rms="2.6486277580261230e-01" purity="9.1926884651184082e-01" nType="0">
            <Node pos="l" depth="3" NCoef="0" IVar="-1" Cut="0.0000000000000000e+00" cType="1" res="5.5413410067558289e-02" rms="2.0368497073650360e-01" purity="9.5581549406051636e-01" nType="-99"/>
            <Node pos="r" depth="3" NCoef="0" IVar="-1" Cut="0.0000000000000000e+00" cType="1" res="4.4282954186201096e-02" rms="3.2902634143829346e-01" purity="8.6752527952194214e-01" nType="-99"/>
          </Node>
        </Node>
      </Node>
    </BinaryTree>
    <BinaryTree type="DecisionTree" boostWeight="1.0000000000000000e+00" itree="6">
      <Node pos="s" depth="0" NCoef="0" IVar="2" Cut="1.2500173187255859e+02" cType="1" res="9.0224575251340866e-03" rms="4.5186561346054077e-01" purity="5.0148969888687134e-01" nType="0">
        <Node pos="l" depth="1" NCoef="0" IVar="5" Cut="3.9949527740478516e+01" cType="1" res="-8.3692818880081177e-02" rms="4.5317775011062622e-01" purity="3.4958717226982117e-01" nType="0">
          <Node pos="l" depth="2" NCoef="0" IVar="1" Cut="8.8521248102188110e-01" cType="1" res="2.1249229088425636e-02" rms="4.8578828573226929e-01" purity="5.2621543407440186e-01" nType="0">
            <Node pos="l" depth="3" NCoef="0" IVar="-1" Cut="0.0000000000000000e+00" cType="1" res="-1.3713960535824299e-02" rms="4.8323968052864075e-01" purity="4.2869630455970764e-01" nType="-99"/>
            <Node pos="r" depth="3" NCoef="0" IVar="-1" Cut="0.0000000000000000e+00" cType="1" res="2.3648418486118317e-02" rms="4.6645429730415344e-01" purity="6.4319413900375366e-01" nType="-99"/>
          </Node>
          <Node pos="r" depth="2" NCoef="0" IVar="1" Cut="5.4250872135162354e-01" cType="1" res="-1.3989168405532837e-01" rms="4.2416545748710632e-01" purity="2.5499874353408813e-01" nType="0">
            <Node pos="l" depth="3" NCoef="0" IVar="-1" Cut="0.0000000000000000e+00" cType="1" res="-4.7263782471418381e-02" rms="3.7868377566337585e-01" purity="1.8005166947841644e-01" nType="-99"/>
            <Node pos="r" depth="3" NCoef="0" IVar="-1" Cut="0.0000000000000000e+00" cType="1" res="-1.9570825621485710e-02" rms="4.5123422145843506e-01" purity="3.1495520472526550e-01" nType="-99"/>
          </Node>
        </Node>
        <Node pos="r" depth="1" NCoef="0" IVar="5" Cut="7.2344215393066406e+01" cType="1" res="1.4854571223258972e-01" rms="4.1230174899101257e-01" purity="7.3008131980895996e-01" nType="0">
          <Node pos="l" depth="2" NCoef="0" IVar="2" Cut="2.3811651611328125e+02" cType="1" res="2.1006628870964050e-01" rms="3.6781668663024902e-01" purity="8.1669175624847412e-01" nType="0">
            <Node pos="l" depth="3" NCoef="0" IVar="-1" Cut="0.0000000000000000e+00" cType="1" res="3.0225383117794991e-02" rms="4.1573524475097656e-01" purity="7.5184464454650879e-01" nType="-99"/>
            <Node pos="r" depth="3" NCoef="0" IVar="-1" Cut="0.0000000000000000e+00" cType="1" res="5.3200438618659973e-02" rms="2.2798983752727509e-01" purity="9.4109994173049927e-01" nType="-99"/>
          </Node>
          <Node pos="r" depth="2" NCoef="0" IVar="0" Cut="5.9965860843658447e-01" cType="1" res="-3.3910382539033890e-02" rms="4.7791296243667603e-01" purity="4.7321429848670959e-01" nType="0">
            <Node pos="l" depth="3" NCoef="0" IVar="-1" Cut="0.0000000000000000e+00" cType="1" res="-2.3538455367088318e-02" rms="4.6544605493545532e-01" purity="3.8297873735427856e-01" nType="-99"/>
            <Node pos="r" depth="3" NCoef="0" IVar="-1" Cut="0.0000000000000000e+00" cType="1" res="6.1147953383624554e-03" rms="4.7802007198333740e-01" purity="5.4726064205169678e-01" nType="-99"/>
          </Node>
        </Node>
      </Node>
    </BinaryTree>
    <BinaryTree type="DecisionTree" boostWeight="1.0000000000000000e+00" itree="7">
      <Node pos="s" depth="0" NCoef="0" IVar="2" Cut="1.1884210205078125e+02" cType="1" res="1.4773860573768616e-02" rms="4.4768509268760681e-01" purity="5.0579059123992920e-01" nType="0">
        <Node pos="l" depth="1" NCoef="0" IVar="0" Cut="5.4251742362976074e-01" cType="1" res="-6.9355726242065430e-02" rms="4.5244035124778748e-01" purity="3.5286551713943481e-01" nType="0">
          <Node pos="l" depth="2" NCoef="0" IVar="3" Cut="5.4454887390136719e+01" cType="1" res="-1.7524589598178864e-01" rms="4.1702461242675781e-01" purity="2.4713960289955139e-01" nType="0">
            <Node pos="l" depth="3" NCoef="0" IVar="-1" Cut="0.0000000000000000e+00" cType="1" res="-5.1616214215755463e-02" rms="3.7988904118537903e-01" purity="1.7999999225139618e-01" nType="-99"/>
            <Node pos="r" depth="3" NCoef="0" IVar="-1" Cut="0.0000000000000000e+00" cType="1" res="-3.6720028147101402e-03" rms="4.8989373445510864e-01" purity="4.6967557072639465e-01" nType="-99"/>
          </Node>
          <Node pos="r" depth="2" NCoef="0" IVar="1" Cut="7.1386265754699707e-01" cType="1" res="-1.2400599196553230e-02" rms="4.6042361855506897e-01" purity="4.0973228216171265e-01" nType="0">
            <Node pos="l" depth="3" NCoef="0" IVar="-1" Cut="0.0000000000000000e+00" cType="1" res="-3.6176063120365143e-02" rms="4.0941202640533447e-01" purity="2.4009446799755096e-01" nType="-99"/>
            <Node pos="r" depth="3" NCoef="0" IVar="-1" Cut="0.0000000000000000e+00" cType="1" res="5.0932873040437698e-02" rms="4.1173902153968811e-01" purity="7.5429713726043701e-01" nType="-99"/>
          </Node>
        </Node>
        <Node pos="r" depth="1" NCoef="0" IVar="5" Cut="7.5013114929199219e+01" cType="1" res="1.2999753654003143e-01" rms="4.1423353552818298e-01" purity="7.1523648500442505e-01" nType="0">
          <Node pos="l" depth="2" NCoef="0" IVar="2" Cut="2.2636892700195312e+02" cType="1" res="1.8234317004680634e-01" rms="3.7822851538658142e-01" purity="7.9868209362030029e-01" nType="0">
            <Node pos="l" depth="3" NCoef="0" IVar="-1" Cut="0.0000000000000000e+00" cType="1" res="2.5325601920485497e-02" rms="4.2937111854553223e-01" purity="7.2390246391296387e-01" nType="-99"/>
            <Node pos="r" depth="3" NCoef="0" IVar="-1" Cut="0.0000000000000000e+00" cType="1" res="4.9019981175661087e-02" rms="2.4466694891452789e-01" purity="9.3058937788009644e-01" nType="-99"/>
          </Node>
          <Node pos="r" depth="2" NCoef="0" IVar="0" Cut="5.9965860843658447e-01" cType="1" res="-3.0879132449626923e-02" rms="4.7431817650794983e-01" purity="4.5877853035926819e-01" nType="0">
            <Node pos="l" depth="3" NCoef="0" IVar="-1" Cut="0.0000000000000000e+00" cType="1" res="-2.2784180939197540e-02" rms="4.5914936065673828e-01" purity="3.6105033755302429e-01" nType="-99"/>
            <Node pos="r" depth="3" NCoef="0" IVar="-1" Cut="0.0000000000000000e+00" cType="1" res="5.7587013579905033e-03" rms="4.7706463932991028e-01" purity="5.3471237421035767e-01" nType="-99"/>
          </Node>
        </Node>
      </Node>
    </BinaryTree>
    <BinaryTree type="DecisionTree" boostWeight="1.0000000000000000e+00" itree="8">
      <Node pos="s" depth="0" NCoef="0" IVar="3" Cut="5.1898143768310547e+01" cType="1" res="1.0385653004050255e-02" rms="4.4001296162605286e-01" purity="5.0121653079986572e-01" nType="0">
        <Node pos="l" depth="1" NCoef="0" IVar="1" Cut="3.7116414308547974e-01" cType="1" res="-6.1250574886798859e-02" rms="4.4458198547363281e-01" purity="3.7821885943412781e-01" nType="0">
          <Node pos="l" depth="2" NCoef="0" IVar="7" Cut="2.7313653945922852e+01" cType="1" res="-1.7483524978160858e-01" rms="4.0115779638290405e-01" purity="2.1951220929622650e-01" nType="0">
            <Node pos="l" depth="3" NCoef="0" IVar="-1" Cut="0.0000000000000000e+00" cType="1" res="-5.4857831448316574e-02" rms="3.6458930373191833e-01" purity="1.6294297575950623e-01" nType="-99"/>
            <Node pos="r" depth="3" NCoef="0" IVar="-1" Cut="0.0000000000000000e+00" cType="1" res="-3.1606346368789673e-02" rms="4.2095348238945007e-01" purity="2.5922921299934387e-01" nType="-99"/>
          </Node>
          <Node pos="r" depth="2" NCoef="0" IVar="0" Cut="7.1392714977264404e-01" cType="1" res="-6.6989045590162277e-03" rms="4.5400369167327881e-01" purity="4.5444139838218689e-01" nType="0">
            <Node pos="l" depth="3" NCoef="0" IVar="-1" Cut="0.0000000000000000e+00" cType="1" res="-3.6811340600252151e-02" rms="4.1275027394294739e-01" purity="2.6429185271263123e-01" nType="-99"/>
            <Node pos="r" depth="3" NCoef="0" IVar="-1" Cut="0.0000000000000000e+00" cType="1" res="3.8204703480005264e-02" rms="4.1808846592903137e-01" purity="7.1418255567550659e-01" nType="-99"/>
          </Node>
        </Node>
        <Node pos="r" depth="1" NCoef="0" IVar="4" Cut="1.3908462524414062e+02" cType="1" res="1.4398470520973206e-01" rms="3.9831450581550598e-01" purity="7.3060280084609985e-01" nType="0">
          <Node pos="l" depth="2" NCoef="0" IVar="2" Cut="1.1336930084228516e+02" cType="1" res="1.5850018709897995e-02" rms="4.5501294732093811e-01" purity="5.4779410362243652e-01" nType="0">
            <Node pos="l" depth="3" NCoef="0" IVar="-1" Cut="0.0000000000000000e+00" cType="1" res="-1.7524281516671181e-02" rms="4.6342054009437561e-01" purity="3.6168909072875977e-01" nType="-99"/>
            <Node pos="r" depth="3" NCoef="0" IVar="-1" Cut="0.0000000000000000e+00" cType="1" res="2.2074453532695770e-02" rms="4.2381694912910461e-01" purity="7.3435580730438232e-01" nType="-99"/>
          </Node>
          <Node pos="r" depth="2" NCoef="0" IVar="0" Cut="4.8549884557723999e-01" cType="1" res="2.0258519053459167e-01" rms="3.5437938570976257e-01" purity="8.1420767307281494e-01" nType="0">
            <Node pos="l" depth="3" NCoef="0" IVar="-1" Cut="0.0000000000000000e+00" cType="1" res="2.1912179887294769e-02" rms="4.1921058297157288e-01" purity="7.0358127355575562e-01" nType="-99"/>
            <Node pos="r" depth="3" NCoef="0" IVar="-1" Cut="0.0000000000000000e+00" cType="1" res="4.7660030424594879e-02" rms="2.9437041282653809e-01" purity="8.8243287801742554e-01" nType="-99"/>
          </Node>
        </Node>
      </Node>
    </BinaryTree>
    <BinaryTree type="DecisionTree" boostWeight="1.0000000000000000e+00" itree="9">
      <Node pos="s" depth="0" NCoef="0" IVar="2" Cut="1.1884210205078125e+02" cType="1" res="9.6727982163429260e-03" rms="4.3353691697120667e-01" purity="4.9868258833885193e-01" nType="0">
        <Node pos="l" depth="1" NCoef="0" IVar="5" Cut="5.9992996215820312e+01" cType="1" res="-6.3264340162277222e-02" rms="4.3791550397872925e-01" purity="3.4554618597030640e-01" nType="0">
          <Node pos="l" depth="2" NCoef="0" IVar="0" Cut="3.1412413716316223e-01" cType="1" res="-1.8249049317091703e-03" rms="4.6794673800468445e-01" purity="4.7616028785705566e-01" nType="0">
            <Node pos="l" depth="3" NCoef="0" IVar="-1" Cut="0.0000000000000000e+00" cType="1" res="-2.9400233179330826e-02" rms="4.5283681154251099e-01" purity="3.2490739226341248e-01" nType="-99"/>
            <Node pos="r" depth="3" NCoef="0" IVar="-1" Cut="0.0000000000000000e+00" cType="1" res="9.2776883393526077e-03" rms="4.6340376138687134e-01" purity="5.3057384490966797e-01" nType="-99"/>
          </Node>
          <Node pos="r" depth="2" NCoef="0" IVar="2" Cut="7.3561767578125000e+01" cType="1" res="-1.2255700677633286e-01" rms="3.9794200658798218e-01" purity="2.1949590742588043e-01" nType="0">
            <Node pos="l" depth="3" NCoef="0" IVar="-1" Cut="0.0000000000000000e+00" cType="1" res="-3.8160737603902817e-02" rms="3.7403130531311035e-01" purity="1.8260385096073151e-01" nType="-99"/>
            <Node pos="r" depth="3" NCoef="0" IVar="-1" Cut="0.0000000000000000e+00" cType="1" res="-1.7703605815768242e-02" rms="4.2689713835716248e-01" purity="2.7454242110252380e-01" nType="-99"/>
          </Node>
        </Node>
        <Node pos="r" depth="1" NCoef="0" IVar="5" Cut="6.4384376525878906e+01" cType="1" res="1.1260139197111130e-01" rms="4.0554642677307129e-01" purity="7.1478801965713501e-01" nType="0">
          <Node pos="l" depth="2" NCoef="0" IVar="1" Cut="2.5693830847740173e-01" cType="1" res="1.6722708940505981e-01" rms="3.6447164416313171e-01" purity="8.1301569938659668e-01" nType="0">
            <Node pos="l" depth="3" NCoef="0" IVar="-1" Cut="0.0000000000000000e+00" cType="1" res="1.2386455200612545e-02" rms="4.3147331476211548e-01" purity="6.9282889366149902e-01" nType="-99"/>
            <Node pos="r" depth="3" NCoef="0" IVar="-1" Cut="0.0000000000000000e+00" cType="1" res="3.7040088325738907e-02" rms="3.3977398276329041e-01" purity="8.4416157007217407e-01" nType="-99"/>
          </Node>
          <Node pos="r" depth="2" NCoef="0" IVar="0" Cut="4.2830321192741394e-01" cType="1" res="-7.6631945557892323e-03" rms="4.6159300208091736e-01" purity="4.9852880835533142e-01" nType="0">
            <Node pos="l" depth="3" NCoef="0" IVar="-1" Cut="0.0000000000000000e+00" cType="1" res="-1.9729264080524445e-02" rms="4.5268842577934265e-01" purity="3.7352553009986877e-01" nType="-99"/>
            <Node pos="r" depth="3" NCoef="0" IVar="-1" Cut="0.0000000000000000e+00" cType="1" res="9.1395499184727669e-03" rms="4.5891425013542175e-01" purity="5.7859390974044800e-01" nType="-99"/>
          </Node>
        </Node>
      </Node>
    </BinaryTree>
    <BinaryTree type="DecisionTree" boostWeight="1.0000000000000000e+00" itree="10">
      <Node pos="s" depth="0" NCoef="0" IVar="3" Cut="6.5173812866210938e+01" cType="1" res="1.3874888420104980e-02" rms="4.2970108985900879e-01" purity="5.0398081541061401e-01" nType="0">
        <Node pos="l" depth="1" NCoef="0" IVar="1" Cut="3.1404867768287659e-01" cType="1" res="-4.2991098016500473e-02" rms="4.3663039803504944e-01" purity="3.9230096340179443e-01" nType="0">
          <Node pos="l" depth="2" NCoef="0" IVar="7" Cut="3.4287807464599609e+01" cType="1" res="-1.5517057478427887e-01" rms="3.9837357401847839e-01" purity="2.2013078629970551e-01" nType="0">
            <Node pos="l" depth="3" NCoef="0" IVar="-1" Cut="0.0000000000000000e+00" cType="1" res="-4.7469951212406158e-02" rms="3.6649957299232483e-01" purity="1.7367303371429443e-01" nType="-99"/>
            <Node pos="r" depth="3" NCoef="0" IVar="-1" Cut="0.0000000000000000e+00" cType="1" res="-2.4912383407354355e-02" rms="4.3142157793045044e-01" purity="2.8010234236717224e-01" nType="-99"/>
          </Node>
          <Node pos="r" depth="2" NCoef="0" IVar="0" Cut="7.1392714977264404e-01" cType="1" res="5.8154189027845860e-03" rms="4.4349434971809387e-01" purity="4.6720799803733826e-01" nType="0">
            <Node pos="l" depth="3" NCoef="0" IVar="-1" Cut="0.0000000000000000e+00" cType="1" res="-2.8857193887233734e-02" rms="4.1819280385971069e-01" purity="2.8143787384033203e-01" nType="-99"/>
            <Node pos="r" depth="3" NCoef="0" IVar="-1" Cut="0.0000000000000000e+00" cType="1" res="3.1949520111083984e-02" rms="4.1802445054054260e-01" purity="6.9805449247360229e-01" nType="-99"/>
          </Node>
        </Node>
        <Node pos="r" depth="1" NCoef="0" IVar="2" Cut="7.9612533569335938e+01" cType="1" res="1.3975808024406433e-01" rms="3.8516113162040710e-01" purity="7.5120437145233154e-01" nType="0">
          <Node pos="l" depth="2" NCoef="0" IVar="-1" Cut="0.0000000000000000e+00" cType="1" res="2.0601863507181406e-03" rms="4.6638461947441101e-01" purity="4.9987432360649109e-01" nType="-99"/>
          <Node pos="r" depth="2" NCoef="0" IVar="2" Cut="2.2164257812500000e+02" cType="1" res="1.7478445172309875e-01" rms="3.5195302963256836e-01" purity="8.1922054290771484e-01" nType="0">
            <Node pos="l" depth="3" NCoef="0" IVar="-1" Cut="0.0000000000000000e+00" cType="1" res="2.7634562924504280e-02" rms="4.0723419189453125e-01" purity="7.4665701389312744e-01" nType="-99"/>
            <Node pos="r" depth="3" NCoef="0" IVar="-1" Cut="0.0000000000000000e+00" cType="1" res="4.7817237675189972e-02" rms="1.9664976000785828e-01" purity="9.5767402648925781e-01" nType="-99"/>
          </Node>
        </Node>
      </Node>
    </BinaryTree>
    <BinaryTree type="DecisionTree" boostWeight="1.0000000000000000e+00" itree="11">
      <Node pos="s" depth="0" NCoef="0" IVar="3" Cut="6.4347450256347656e+01" cType="1" res="6.2528396956622601e-03" rms="4.2398682236671448e-01" purity="4.9355262517929077e-01" nType="0">
        <Node pos="l" depth="1" NCoef="0" IVar="1" Cut="8.8520646095275879e-01" cType="1" res="-4.7488838434219360e-02" rms="4.3073901534080505e-01" purity="3.7930530309677124e-01" nType="0">
          <Node pos="l" depth="2" NCoef="0" IVar="7" Cut="2.9338966369628906e+01" cType="1" res="-1.1037220060825348e-01" rms="4.1626507043838501e-01" purity="2.8891012072563171e-01" nType="0">
            <Node pos="l" depth="3" NCoef="0" IVar="-1" Cut="0.0000000000000000e+00" cType="1" res="-3.8318898528814316e-02" rms="3.8560578227043152e-01" purity="2.2424241900444031e-01" nType="-99"/>
            <Node pos="r" depth="3" NCoef="0" IVar="-1" Cut="0.0000000000000000e+00" cType="1" res="-1.5769636258482933e-02" rms="4.3582901358604431e-01" purity="3.4215113520622253e-01" nType="-99"/>
          </Node>
          <Node pos="r" depth="2" NCoef="0" IVar="0" Cut="6.5677708387374878e-01" cType="1" res="3.2917622476816177e-02" rms="4.3553462624549866e-01" purity="4.9489000439643860e-01" nType="0">
            <Node pos="l" depth="3" NCoef="0" IVar="-1" Cut="0.0000000000000000e+00" cType="1" res="-2.9162766411900520e-02" rms="4.1438144445419312e-01" purity="2.6784247159957886e-01" nType="-99"/>
            <Node pos="r" depth="3" NCoef="0" IVar="-1" Cut="0.0000000000000000e+00" cType="1" res="4.9855660647153854e-02" rms="3.4269118309020996e-01" purity="8.4676390886306763e-01" nType="-99"/>
          </Node>
        </Node>
        <Node pos="r" depth="1" NCoef="0" IVar="4" Cut="1.3078671264648438e+02" cType="1" res="1.2422342598438263e-01" rms="3.8319587707519531e-01" purity="7.4434155225753784e-01" nType="0">
          <Node pos="l" depth="2" NCoef="0" IVar="-1" Cut="0.0000000000000000e+00" cType="1" res="1.1567404726520181e-03" rms="4.4083055853843689e-01" purity="5.5523312091827393e-01" nType="-99"/>
          <Node pos="r" depth="2" NCoef="0" IVar="0" Cut="6.5676230192184448e-01" cType="1" res="1.6550303995609283e-01" rms="3.5172480344772339e-01" purity="8.1015580892562866e-01" nType="0">
            <Node pos="l" depth="3" NCoef="0" IVar="-1" Cut="0.0000000000000000e+00" cType="1" res="1.8735563382506371e-02" rms="4.1211158037185669e-01" purity="7.0735961198806763e-01" nType="-99"/>
            <Node pos="r" depth="3" NCoef="0" IVar="-1" Cut="0.0000000000000000e+00" cType="1" res="4.2742889374494553e-02" rms="2.9141700267791748e-01" purity="8.8265681266784668e-01" nType="-99"/>
          </Node>
        </Node>
      </Node>
    </BinaryTree>
    <BinaryTree type="DecisionTree" boostWeight="1.0000000000000000e+00" itree="12">
      <Node pos="s" depth="0" NCoef="0" IVar="2" Cut="1.7826315307617188e+02" cType="1" res="1.0527044534683228e-02" rms="4.2116293311119080e-01" purity="4.9818524718284607e-01" nType="0">
        <Node pos="l" depth="1" NCoef="0" IVar="5" Cut="5.8509830474853516e+01" cType="1" res="-2.9482070356607437e-02" rms="4.3425947427749634e-01" purity="4.0170344710350037e-01" nType="0">
          <Node pos="l" depth="2" NCoef="0" IVar="0" Cut="3.1406626105308533e-01" cType="1" res="2.5442762300372124e-02" rms="4.5180124044418335e-01" purity="5.3962522745132446e-01" nType="0">
            <Node pos="l" depth="3" NCoef="0" IVar="-1" Cut="0.0000000000000000e+00" cType="1" res="-1.8155477941036224e-02" rms="4.5840996503829956e-01" purity="3.8964843750000000e-01" nType="-99"/>
            <Node pos="r" depth="3" NCoef="0" IVar="-1" Cut="0.0000000000000000e+00" cType="1" res="1.2737058103084564e-02" rms="4.4280567765235901e-01" purity="5.9261602163314819e-01" nType="-99"/>
          </Node>
          <Node pos="r" depth="2" NCoef="0" IVar="0" Cut="8.8523221015930176e-01" cType="1" res="-8.6359784007072449e-02" rms="4.0758621692657471e-01" purity="2.5887787342071533e-01" nType="0">
            <Node pos="l" depth="3" NCoef="0" IVar="-1" Cut="0.0000000000000000e+00" cType="1" res="-2.8694419190287590e-02" rms="3.9886441826820374e-01" purity="2.2041872143745422e-01" nType="-99"/>
            <Node pos="r" depth="3" NCoef="0" IVar="-1" Cut="0.0000000000000000e+00" cType="1" res="-1.1641967110335827e-02" rms="4.1556024551391602e-01" purity="3.0806258320808411e-01" nType="-99"/>
          </Node>
        </Node>
        <Node pos="r" depth="1" NCoef="0" IVar="5" Cut="7.5013114929199219e+01" cType="1" res="1.4459989964962006e-01" rms="3.4131574630737305e-01" purity="8.2150101661682129e-01" nType="0">
          <Node pos="l" depth="2" NCoef="0" IVar="2" Cut="2.2921789550781250e+02" cType="1" res="1.7417868971824646e-01" rms="2.9751551151275635e-01" purity="8.8344734907150269e-01" nType="0">
            <Node pos="l" depth="3" NCoef="0" IVar="-1" Cut="0.0000000000000000e+00" cType="1" res="2.6748612523078918e-02" rms="3.7002807855606079e-01" purity="8.1096148490905762e-01" nType="-99"/>
            <Node pos="r" depth="3" NCoef="0" IVar="-1" Cut="0.0000000000000000e+00" cType="1" res="4.2760122567415237e-02" rms="2.3540487885475159e-01" purity="9.3031990528106689e-01" nType="-99"/>
          </Node>
          <Node pos="r" depth="2" NCoef="0" IVar="-1" Cut="0.0000000000000000e+00" cType="1" res="5.9732114896178246e-03" rms="4.5621961355209351e-01" purity="5.8224731683731079e-01" nType="-99"/>
        </Node>
      </Node>
    </BinaryTree>
    <BinaryTree type="DecisionTree" boostWeight="1.0000000000000000e+00" itree="13">
      <Node pos="s" depth="0" NCoef="0" IVar="3" Cut="4.3449207305908203e+01" cType="1" res="1.4753242954611778e-02" rms="4.1877689957618713e-01" purity="5.0328004360198975e-01" nType="0">
        <Node pos="l" depth="1" NCoef="0" IVar="4" Cut="1.5883982849121094e+02" cType="1" res="-3.5615459084510803e-02" rms="4.2682254314422607e-01" purity="3.7807783484458923e-01" nType="0">
          <Node pos="l" depth="2" NCoef="0" IVar="1" Cut="5.4251182079315186e-01" cType="1" res="-1.2705061584711075e-02" rms="4.3163019418716431e-01" purity="4.0053865313529968e-01" nType="0">
            <Node pos="l" depth="3" NCoef="0" IVar="-1" Cut="0.0000000000000000e+00" cType="1" res="-2.4643018841743469e-02" rms="4.1593974828720093e-01" purity="2.4839286506175995e-01" nType="-99"/>
            <Node pos="r" depth="3" NCoef="0" IVar="-1" Cut="0.0000000000000000e+00" cType="1" res="8.6901821196079254e-03" rms="4.3234696984291077e-01" purity="4.9463495612144470e-01" nType="-99"/>
          </Node>
          <Node pos="r" depth="2" NCoef="0" IVar="-1" Cut="0.0000000000000000e+00" cType="1" res="-5.6290619075298309e-02" rms="3.2395309209823608e-01" purity="1.8754707276821136e-01" nType="-99"/>
        </Node>
        <Node pos="r" depth="1" NCoef="0" IVar="4" Cut="1.4189399719238281e+02" cType="1" res="1.0188858211040497e-01" rms="3.8938811421394348e-01" purity="7.1987360715866089e-01" nType="0">
          <Node pos="l" depth="2" NCoef="0" IVar="5" Cut="8.5236663818359375e+00" cType="1" res="1.1011010501533747e-03" rms="4.4752860069274902e-01" purity="5.3648304939270020e-01" nType="0">
            <Node pos="l" depth="3" NCoef="0" IVar="-1" Cut="0.0000000000000000e+00" cType="1" res="1.5478927642107010e-02" rms="4.3477901816368103e-01" purity="6.9321149587631226e-01" nType="-99"/>
            <Node pos="r" depth="3" NCoef="0" IVar="-1" Cut="0.0000000000000000e+00" cType="1" res="-1.1694254353642464e-02" rms="4.4834712147712708e-01" purity="4.2539903521537781e-01" nType="-99"/>
          </Node>
          <Node pos="r" depth="2" NCoef="0" IVar="0" Cut="8.2824826240539551e-01" cType="1" res="1.5342652797698975e-01" rms="3.4480541944503784e-01" purity="8.1365084648132324e-01" nType="0">
            <Node pos="l" depth="3" NCoef="0" IVar="-1" Cut="0.0000000000000000e+00" cType="1" res="1.9858082756400108e-02" rms="3.9699479937553406e-01" purity="7.2771012783050537e-01" nType="-99"/>
            <Node pos="r" depth="3" NCoef="0" IVar="-1" Cut="0.0000000000000000e+00" cType="1" res="4.2671229690313339e-02" rms="2.7510449290275574e-01" purity="8.9593493938446045e-01" nType="-99"/>
          </Node>
        </Node>
      </Node>
    </BinaryTree>
    <BinaryTree type="DecisionTree" boostWeight="1.0000000000000000e+00" itree="14">
      <Node pos="s" depth="0" NCoef="0" IVar="2" Cut="1.2500173187255859e+02" cType="1" res="1.2128052301704884e-02" rms="4.1489198803901672e-01" purity="5.0150913000106812e-01" nType="0">
        <Node pos="l" depth="1" NCoef="0" IVar="3" Cut="5.1898143768310547e+01" cType="1" res="-4.2717132717370987e-02" rms="4.2436611652374268e-01" purity="3.5025379061698914e-01" nType="0">
          <Node pos="l" depth="2" NCoef="0" IVar="3" Cut="2.4713282585144043e+00" cType="1" res="-7.3392026126384735e-02" rms="4.0854132175445557e-01" purity="2.7973210811614990e-01" nType="0">
            <Node pos="l" depth="3" NCoef="0" IVar="-1" Cut="0.0000000000000000e+00" cType="1" res="9.7510311752557755e-03" rms="4.4710889458656311e-01" purity="3.9054626226425171e-01" nType="-99"/>
            <Node pos="r" depth="3" NCoef="0" IVar="-1" Cut="0.0000000000000000e+00" cType="1" res="-2.4430245161056519e-02" rms="3.9405575394630432e-01" purity="2.5374761223793030e-01" nType="-99"/>
          </Node>
          <Node pos="r" depth="2" NCoef="0" IVar="4" Cut="1.4096673583984375e+02" cType="1" res="4.7219302505254745e-02" rms="4.5594266057014465e-01" purity="5.5701798200607300e-01" nType="0">
            <Node pos="l" depth="3" NCoef="0" IVar="-1" Cut="0.0000000000000000e+00" cType="1" res="-6.7616887390613556e-03" rms="4.7111225128173828e-01" purity="4.1295543313026428e-01" nType="-99"/>
            <Node pos="r" depth="3" NCoef="0" IVar="-1" Cut="0.0000000000000000e+00" cType="1" res="2.0325697958469391e-02" rms="4.3503332138061523e-01" purity="6.6409629583358765e-01" nType="-99"/>
          </Node>
        </Node>
        <Node pos="r" depth="1" NCoef="0" IVar="5" Cut="7.2770881652832031e+01" cType="1" res="9.7097992897033691e-02" rms="3.8462537527084351e-01" purity="7.3584419488906860e-01" nType="0">
          <Node pos="l" depth="2" NCoef="0" IVar="7" Cut="3.1746608734130859e+01" cType="1" res="1.3029593229293823e-01" rms="3.5166224837303162e-01" purity="8.1591814756393433e-01" nType="0">
            <Node pos="l" depth="3" NCoef="0" IVar="-1" Cut="0.0000000000000000e+00" cType="1" res="1.3839236460626125e-02" rms="3.9772102236747742e-01" purity="7.3248410224914551e-01" nType="-99"/>
            <Node pos="r" depth="3" NCoef="0" IVar="-1" Cut="0.0000000000000000e+00" cType="1" res="3.5239595919847488e-02" rms="3.1456699967384338e-01" purity="8.6595129966735840e-01" nType="-99"/>
          </Node>
          <Node pos="r" depth="2" NCoef="0" IVar="1" Cut="8.8516515493392944e-01" cType="1" res="-1.3098028721287847e-03" rms="4.5489519834518433e-01" purity="4.9848333001136780e-01" nType="0">
            <Node pos="l" depth="3" NCoef="0" IVar="-1" Cut="0.0000000000000000e+00" cType="1" res="-9.8958993330597878e-03" rms="4.6250528097152710e-01" purity="4.4834306836128235e-01" nType="-99"/>
            <Node pos="r" depth="3" NCoef="0" IVar="-1" Cut="0.0000000000000000e+00" cType="1" res="9.8195383325219154e-03" rms="4.4115152955055237e-01" purity="5.5252099037170410e-01" nType="-99"/>
          </Node>
        </Node>
      </Node>
    </BinaryTree>
    <BinaryTree type="DecisionTree" boostWeight="1.0000000000000000e+00" itree="15">
      <Node pos="s" depth="0" NCoef="0" IVar="2" Cut="2.0280282592773438e+02" cType="1" res="8.2901297137141228e-03" rms="4.1292110085487366e-01" purity="4.9601188302040100e-01" nType="0">
        <Node pos="l" depth="1" NCoef="0" IVar="5" Cut="1.0970779418945312e+01" cType="1" res="-1.9850648939609528e-02" rms="4.2637300491333008e-01" purity="4.1954290866851807e-01" nType="0">
          <Node pos="l" depth="2" NCoef="0" IVar="0" Cut="5.4251116514205933e-01" cType="1" res="6.5812125802040100e-02" rms="4.3151432275772095e-01" purity="6.4608997106552124e-01" nType="0">
            <Node pos="l" depth="3" NCoef="0" IVar="-1" Cut="0.0000000000000000e+00" cType="1" res="-7.8341523185372353e-03" rms="4.6076512336730957e-01" purity="4.9707603454589844e-01" nType="-99"/>
            <Node pos="r" depth="3" NCoef="0" IVar="-1" Cut="0.0000000000000000e+00" cType="1" res="2.0982796326279640e-02" rms="4.1214606165885925e-01" purity="7.0520007610321045e-01" nType="-99"/>
          </Node>
          <Node pos="r" depth="2" NCoef="0" IVar="7" Cut="2.8860082626342773e+01" cType="1" res="-5.5988419800996780e-02" rms="4.1896498203277588e-01" purity="3.2397162914276123e-01" nType="0">
            <Node pos="l" depth="3" NCoef="0" IVar="-1" Cut="0.0000000000000000e+00" cType="1" res="-2.7996258810162544e-02" rms="3.9849677681922913e-01" purity="2.5341346859931946e-01" nType="-99"/>
            <Node pos="r" depth="3" NCoef="0" IVar="-1" Cut="0.0000000000000000e+00" cType="1" res="-2.0582869183272123e-03" rms="4.2908304929733276e-01" purity="3.8097751140594482e-01" nType="-99"/>
          </Node>
        </Node>
        <Node pos="r" depth="1" NCoef="0" IVar="1" Cut="9.4231748580932617e-01" cType="1" res="1.3915428519248962e-01" rms="3.1175777316093445e-01" purity="8.5161846876144409e-01" nType="0">
          <Node pos="l" depth="2" NCoef="0" IVar="3" Cut="6.9792396545410156e+01" cType="1" res="1.0597275942564011e-01" rms="3.4528878331184387e-01" purity="8.0584353208541870e-01" nType="0">
            <Node pos="l" depth="3" NCoef="0" IVar="-1" Cut="0.0000000000000000e+00" cType="1" res="9.6669262275099754e-03" rms="4.2308062314987183e-01" purity="6.6599190235137939e-01" nType="-99"/>
            <Node pos="r" depth="3" NCoef="0" IVar="-1" Cut="0.0000000000000000e+00" cType="1" res="3.7131953984498978e-02" rms="2.4820020794868469e-01" purity="9.2768961191177368e-01" nType="-99"/>
          </Node>
          <Node pos="r" depth="2" NCoef="0" IVar="-1" Cut="0.0000000000000000e+00" cType="1" res="4.2209867388010025e-02" rms="2.4226319789886475e-01" purity="9.2257124185562134e-01" nType="-99"/>
        </Node>
      </Node>
    </BinaryTree>
    <BinaryTree type="DecisionTree" boostWeight="1.0000000000000000e+00" itree="16">
      <Node pos="s" depth="0" NCoef="0" IVar="2" Cut="1.8750259399414062e+02" cType="1" res="1.4669692143797874e-02" rms="4.1082459688186646e-01" purity="5.0397765636444092e-01" nType="0">
        <Node pos="l" depth="1" NCoef="0" IVar="5" Cut="8.0036468505859375e+01" cType="1" res="-1.5476874075829983e-02" rms="4.2616778612136841e-01" purity="4.1505023837089539e-01" nType="0">
          <Node pos="l" depth="2" NCoef="0" IVar="7" Cut="3.1754123687744141e+01" cType="1" res="2.2000534459948540e-02" rms="4.3836769461631775e-01" purity="5.0761592388153076e-01" nType="0">
            <Node pos="l" depth="3" NCoef="0" IVar="-1" Cut="0.0000000000000000e+00" cType="1" res="-1.1418243870139122e-02" rms="4.2610386013984680e-01" purity="3.9277389645576477e-01" nType="-99"/>
            <Node pos="r" depth="3" NCoef="0" IVar="-1" Cut="0.0000000000000000e+00" cType="1" res="1.7678890377283096e-02" rms="4.3879684805870056e-01" purity="6.1082339286804199e-01" nType="-99"/>
          </Node>
          <Node pos="r" depth="2" NCoef="0" IVar="4" Cut="2.7604282379150391e+01" cType="1" res="-9.7812615334987640e-02" rms="3.8546383380889893e-01" purity="2.1168865263462067e-01" nType="0">
            <Node pos="l" depth="3" NCoef="0" IVar="-1" Cut="0.0000000000000000e+00" cType="1" res="-8.5182553157210350e-03" rms="4.1501399874687195e-01" purity="2.4512195587158203e-01" nType="-99"/>
            <Node pos="r" depth="3" NCoef="0" IVar="-1" Cut="0.0000000000000000e+00" cType="1" res="-3.3790353685617447e-02" rms="3.6550551652908325e-01" purity="1.9512687623500824e-01" nType="-99"/>
          </Node>
        </Node>
        <Node pos="r" depth="1" NCoef="0" IVar="2" Cut="2.9465328979492188e+02" cType="1" res="1.2822693586349487e-01" rms="3.2262054085731506e-01" purity="8.3895277976989746e-01" nType="0">
          <Node pos="l" depth="2" NCoef="0" IVar="5" Cut="8.1269702911376953e+00" cType="1" res="9.5162853598594666e-02" rms="3.6255264282226562e-01" purity="7.8762120008468628e-01" nType="0">
            <Node pos="l" depth="3" NCoef="0" IVar="-1" Cut="0.0000000000000000e+00" cType="1" res="3.4939516335725784e-02" rms="2.7481982111930847e-01" purity="9.0850722789764404e-01" nType="-99"/>
            <Node pos="r" depth="3" NCoef="0" IVar="-1" Cut="0.0000000000000000e+00" cType="1" res="1.0423693805932999e-02" rms="4.1486769914627075e-01" purity="6.8970745801925659e-01" nType="-99"/>
          </Node>
          <Node pos="r" depth="2" NCoef="0" IVar="-1" Cut="0.0000000000000000e+00" cType="1" res="4.4376276433467865e-02" rms="2.0968590676784515e-01" purity="9.3979305028915405e-01" nType="-99"/>
        </Node>
      </Node>
    </BinaryTree>
    <BinaryTree type="DecisionTree" boostWeight="1.0000000000000000e+00" itree="17">
      <Node pos="s" depth="0" NCoef="0" IVar="2" Cut="1.2500173187255859e+02" cType="1" res="1.2934682890772820e-02" rms="4.0794193744659424e-01" purity="5.0265055894851685e-01" nType="0">
        <Node pos="l" depth="1" NCoef="0" IVar="0" Cut="8.8525098562240601e-01" cType="1" res="-3.2247543334960938e-02" rms="4.1952148079872131e-01" purity="3.4966200590133667e-01" nType="0">
          <Node pos="l" depth="2" NCoef="0" IVar="3" Cut="5.4454887390136719e+01" cType="1" res="-7.5873874127864838e-02" rms="4.1334637999534607e-01" purity="2.8464704751968384e-01" nType="0">
            <Node pos="l" depth="3" NCoef="0" IVar="-1" Cut="0.0000000000000000e+00" cType="1" res="-2.5353539735078812e-02" rms="3.9379176497459412e-01" purity="2.2202625870704651e-01" nType="-99"/>
            <Node pos="r" depth="3" NCoef="0" IVar="-1" Cut="0.0000000000000000e+00" cType="1" res="1.0124549735337496e-03" rms="4.6665418148040771e-01" purity="5.0412088632583618e-01" nType="-99"/>
          </Node>
          <Node pos="r" depth="2" NCoef="0" IVar="1" Cut="7.1385735273361206e-01" cType="1" res="1.8655885010957718e-02" rms="4.2093622684478760e-01" purity="4.2552179098129272e-01" nType="0">
            <Node pos="l" depth="3" NCoef="0" IVar="-1" Cut="0.0000000000000000e+00" cType="1" res="-2.4622976779937744e-02" rms="3.9896717667579651e-01" purity="2.4195203185081482e-01" nType="-99"/>
            <Node pos="r" depth="3" NCoef="0" IVar="-1" Cut="0.0000000000000000e+00" cType="1" res="5.0234597176313400e-02" rms="3.4551039338111877e-01" purity="8.3912038803100586e-01" nType="-99"/>
          </Node>
        </Node>
        <Node pos="r" depth="1" NCoef="0" IVar="1" Cut="3.7117210030555725e-01" cType="1" res="8.2237608730792999e-02" rms="3.7919077277183533e-01" purity="7.3731267452239990e-01" nType="0">
          <Node pos="l" depth="2" NCoef="0" IVar="3" Cut="6.1273052215576172e+01" cType="1" res="-5.2017983980476856e-03" rms="4.3122851848602295e-01" purity="6.1461037397384644e-01" nType="0">
            <Node pos="l" depth="3" NCoef="0" IVar="-1" Cut="0.0000000000000000e+00" cType="1" res="-2.4132344871759415e-02" rms="4.6286904811859131e-01" purity="3.8551148772239685e-01" nType="-99"/>
            <Node pos="r" depth="3" NCoef="0" IVar="-1" Cut="0.0000000000000000e+00" cType="1" res="1.8370719626545906e-02" rms="3.8198465108871460e-01" purity="7.9900377988815308e-01" nType="-99"/>
          </Node>
          <Node pos="r" depth="2" NCoef="0" IVar="0" Cut="3.7118473649024963e-01" cType="1" res="1.1273224651813507e-01" rms="3.5423383116722107e-01" purity="7.8010529279708862e-01" nType="0">
            <Node pos="l" depth="3" NCoef="0" IVar="-1" Cut="0.0000000000000000e+00" cType="1" res="-3.1168824061751366e-03" rms="4.3166840076446533e-01" purity="5.7703632116317749e-01" nType="-99"/>
            <Node pos="r" depth="3" NCoef="0" IVar="-1" Cut="0.0000000000000000e+00" cType="1" res="3.8883738219738007e-02" rms="2.8326177597045898e-01" purity="8.8760930299758911e-01" nType="-99"/>
          </Node>
        </Node>
      </Node>
    </BinaryTree>
    <BinaryTree type="DecisionTree" boostWeight="1.0000000000000000e+00" itree="18">
      <Node pos="s" depth="0" NCoef="0" IVar="3" Cut="6.5173812866210938e+01" cType="1" res="8.8781937956809998e-03" rms="4.0657201409339905e-01" purity="4.9519243836402893e-01" nType="0">
        <Node pos="l" depth="1" NCoef="0" IVar="4" Cut="1.6148609924316406e+02" cType="1" res="-2.4154396727681160e-02" rms="4.1568481922149658e-01" purity="3.8497564196586609e-01" nType="0">
          <Node pos="l" depth="2" NCoef="0" IVar="4" Cut="9.2269515991210938e+01" cType="1" res="-6.3356198370456696e-03" rms="4.2098358273506165e-01" purity="4.0272593498229980e-01" nType="0">
            <Node pos="l" depth="3" NCoef="0" IVar="-1" Cut="0.0000000000000000e+00" cType="1" res="-1.3769162818789482e-02" rms="4.1751447319984436e-01" purity="3.0766978859901428e-01" nType="-99"/>
            <Node pos="r" depth="3" NCoef="0" IVar="-1" Cut="0.0000000000000000e+00" cType="1" res="1.2123410589993000e-02" rms="4.1704097390174866e-01" purity="5.2093189954757690e-01" nType="-99"/>
          </Node>
          <Node pos="r" depth="2" NCoef="0" IVar="-1" Cut="0.0000000000000000e+00" cType="1" res="-4.3843951076269150e-02" rms="3.3369842171669006e-01" purity="2.3741006851196289e-01" nType="-99"/>
        </Node>
        <Node pos="r" depth="1" NCoef="0" IVar="3" Cut="8.3800193786621094e+01" cType="1" res="8.3769179880619049e-02" rms="3.7447312474250793e-01" purity="7.4507439136505127e-01" nType="0">
          <Node pos="l" depth="2" NCoef="0" IVar="4" Cut="1.4113583374023438e+02" cType="1" res="1.3762150704860687e-01" rms="3.5860380530357361e-01" purity="7.9586416482925415e-01" nType="0">
            <Node pos="l" depth="3" NCoef="0" IVar="-1" Cut="0.0000000000000000e+00" cType="1" res="1.6337281093001366e-02" rms="4.4086611270904541e-01" purity="6.4447361230850220e-01" nType="-99"/>
            <Node pos="r" depth="3" NCoef="0" IVar="-1" Cut="0.0000000000000000e+00" cType="1" res="3.6755293607711792e-02" rms="3.0410602688789368e-01" purity="8.7287288904190063e-01" nType="-99"/>
          </Node>
          <Node pos="r" depth="2" NCoef="0" IVar="4" Cut="1.5474676513671875e+02" cType="1" res="3.1002180650830269e-02" rms="3.8210356235504150e-01" purity="6.9530826807022095e-01" nType="0">
            <Node pos="l" depth="3" NCoef="0" IVar="-1" Cut="0.0000000000000000e+00" cType="1" res="-2.1173277869820595e-02" rms="4.2931005358695984e-01" purity="4.8280334472656250e-01" nType="-99"/>
            <Node pos="r" depth="3" NCoef="0" IVar="-1" Cut="0.0000000000000000e+00" cType="1" res="2.1630812436342239e-02" rms="3.3957239985466003e-01" purity="8.0185455083847046e-01" nType="-99"/>
          </Node>
        </Node>
      </Node>
    </BinaryTree>
    <BinaryTree type="DecisionTree" boostWeight="1.0000000000000000e+00" itree="19">
      <Node pos="s" depth="0" NCoef="0" IVar="5" Cut="7.3113067626953125e+01" cType="1" res="9.1672167181968689e-03" rms="4.0206634998321533e-01" purity="4.9921235442161560e-01" nType="0">
        <Node pos="l" depth="1" NCoef="0" IVar="7" Cut="3.5786373138427734e+01" cType="1" res="4.7140840440988541e-02" rms="4.0095469355583191e-01" purity="6.1782443523406982e-01" nType="0">
          <Node pos="l" depth="2" NCoef="0" IVar="7" Cut="1.7424961090087891e+01" cType="1" res="-1.1669087223708630e-02" rms="4.0775322914123535e-01" purity="5.0717186927795410e-01" nType="0">
            <Node pos="l" depth="3" NCoef="0" IVar="-1" Cut="0.0000000000000000e+00" cType="1" res="-3.4666903316974640e-02" rms="3.9610236883163452e-01" purity="3.3347108960151672e-01" nType="-99"/>
            <Node pos="r" depth="3" NCoef="0" IVar="-1" Cut="0.0000000000000000e+00" cType="1" res="6.7150657996535301e-03" rms="4.0237388014793396e-01" purity="5.6184160709381104e-01" nType="-99"/>
          </Node>
          <Node pos="r" depth="2" NCoef="0" IVar="0" Cut="8.8522982597351074e-01" cType="1" res="1.0789807140827179e-01" rms="3.8447368144989014e-01" purity="7.3214101791381836e-01" nType="0">
            <Node pos="l" depth="3" NCoef="0" IVar="-1" Cut="0.0000000000000000e+00" cType="1" res="1.4439962804317474e-02" rms="4.1911432147026062e-01" purity="6.6397517919540405e-01" nType="-99"/>
            <Node pos="r" depth="3" NCoef="0" IVar="-1" Cut="0.0000000000000000e+00" cType="1" res="3.1801391392946243e-02" rms="3.4276008605957031e-01" purity="7.9858732223510742e-01" nType="-99"/>
          </Node>
        </Node>
        <Node pos="r" depth="1" NCoef="0" IVar="0" Cut="3.7121668457984924e-01" cType="1" res="-6.4473882317543030e-02" rms="3.9391508698463440e-01" purity="2.6919141411781311e-01" nType="0">
          <Node pos="l" depth="2" NCoef="0" IVar="0" Cut="-1.7280896008014679e-01" cType="1" res="-1.1031509935855865e-01" rms="3.7282758951187134e-01" purity="1.9379636645317078e-01" nType="0">
            <Node pos="l" depth="3" NCoef="0" IVar="-1" Cut="0.0000000000000000e+00" cType="1" res="-1.4031642116606236e-02" rms="4.0882730484008789e-01" purity="2.6212081313133240e-01" nType="-99"/>
            <Node pos="r" depth="3" NCoef="0" IVar="-1" Cut="0.0000000000000000e+00" cType="1" res="-4.9937408417463303e-02" rms="3.1802609562873840e-01" purity="1.1973018199205399e-01" nType="-99"/>
          </Node>
          <Node pos="r" depth="2" NCoef="0" IVar="1" Cut="8.2803475856781006e-01" cType="1" res="-3.8530316203832626e-02" rms="4.0305995941162109e-01" purity="3.1186076998710632e-01" nType="0">
            <Node pos="l" depth="3" NCoef="0" IVar="-1" Cut="0.0000000000000000e+00" cType="1" res="-3.0442824587225914e-02" rms="3.6726209521293640e-01" purity="1.9618612527847290e-01" nType="-99"/>
            <Node pos="r" depth="3" NCoef="0" IVar="-1" Cut="0.0000000000000000e+00" cType="1" res="3.1829636543989182e-02" rms="4.3071252107620239e-01" purity="6.3509988784790039e-01" nType="-99"/>
          </Node>
        </Node>
      </Node>
    </BinaryTree>
    <BinaryTree type="DecisionTree" boostWeight="1.0000000000000000e+00" itree="20">
      <Node pos="s" depth="0" NCoef="0" IVar="2" Cut="1.7826315307617188e+02" cType="1" res="8.8058449327945709e-03" rms="4.0234765410423279e-01" purity="4.9957412481307983e-01" nType="0">
        <Node pos="l" depth="1" NCoef="0" IVar="1" Cut="6.5675932168960571e-01" cType="1" res="-1.6068955883383751e-02" rms="4.1825693845748901e-01" purity="4.0366196632385254e-01" nType="0">
          <Node pos="l" depth="2" NCoef="0" IVar="0" Cut="8.2813251018524170e-01" cType="1" res="-6.5482400357723236e-02" rms="4.1672372817993164e-01" purity="2.9839867353439331e-01" nType="0">
            <Node pos="l" depth="3" NCoef="0" IVar="-1" Cut="0.0000000000000000e+00" cType="1" res="2.8788510710000992e-02" rms="4.7777301073074341e-01" purity="5.1229232549667358e-01" nType="-99"/>
            <Node pos="r" depth="3" NCoef="0" IVar="-1" Cut="0.0000000000000000e+00" cType="1" res="-2.5786312296986580e-02" rms="3.9438495039939880e-01" purity="2.5931772589683533e-01" nType="-99"/>
          </Node>
          <Node pos="r" depth="2" NCoef="0" IVar="0" Cut="8.2813251018524170e-01" cType="1" res="2.0184069871902466e-02" rms="4.1565901041030884e-01" purity="4.8089018464088440e-01" nType="0">
            <Node pos="l" depth="3" NCoef="0" IVar="-1" Cut="0.0000000000000000e+00" cType="1" res="-1.7097871750593185e-02" rms="4.1309750080108643e-01" purity="3.1693685054779053e-01" nType="-99"/>
            <Node pos="r" depth="3" NCoef="0" IVar="-1" Cut="0.0000000000000000e+00" cType="1" res="3.9831642061471939e-02" rms="3.5337758064270020e-01" purity="8.1931465864181519e-01" nType="-99"/>
          </Node>
        </Node>
        <Node pos="r" depth="1" NCoef="0" IVar="5" Cut="6.4455970764160156e+01" cType="1" res="9.1579817235469818e-02" rms="3.3095350861549377e-01" purity="8.1873375177383423e-01" nType="0">
          <Node pos="l" depth="2" NCoef="0" IVar="2" Cut="2.8017321777343750e+02" cType="1" res="1.1558159440755844e-01" rms="2.8496798872947693e-01" purity="8.9252245426177979e-01" nType="0">
            <Node pos="l" depth="3" NCoef="0" IVar="-1" Cut="0.0000000000000000e+00" cType="1" res="2.2899860516190529e-02" rms="3.2729730010032654e-01" purity="8.5259032249450684e-01" nType="-99"/>
            <Node pos="r" depth="3" NCoef="0" IVar="-1" Cut="0.0000000000000000e+00" cType="1" res="3.9921943098306656e-02" rms="1.9742277264595032e-01" purity="9.5499867200851440e-01" nType="-99"/>
          </Node>
          <Node pos="r" depth="2" NCoef="0" IVar="-1" Cut="0.0000000000000000e+00" cType="1" res="5.9176031500101089e-03" rms="4.2267289757728577e-01" purity="6.2427747249603271e-01" nType="-99"/>
        </Node>
      </Node>
    </BinaryTree>
    <BinaryTree type="DecisionTree" boostWeight="1.0000000000000000e+00" itree="21">
      <Node pos="s" depth="0" NCoef="0" IVar="3" Cut="5.4905582427978516e+01" cType="1" res="1.1121371760964394e-02" rms="3.9825463294982910e-01" purity="5.0079572200775146e-01" nType="0">
        <Node pos="l" depth="1" NCoef="0" IVar="0" Cut="3.7118473649024963e-01" cType="1" res="-2.2352393716573715e-02" rms="4.0696486830711365e-01" purity="3.7838587164878845e-01" nType="0">
          <Node pos="l" depth="2" NCoef="0" IVar="4" Cut="1.4482560729980469e+02" cType="1" res="-9.9607408046722412e-02" rms="3.9141115546226501e-01" purity="2.2927303612232208e-01" nType="0">
            <Node pos="l" depth="3" NCoef="0" IVar="-1" Cut="0.0000000000000000e+00" cType="1" res="-1.9033063203096390e-02" rms="4.1045519709587097e-01" purity="2.5793859362602234e-01" nType="-99"/>
            <Node pos="r" depth="3" NCoef="0" IVar="-1" Cut="0.0000000000000000e+00" cType="1" res="-5.1497742533683777e-02" rms="3.0557844042778015e-01" purity="1.3426573574542999e-01" nType="-99"/>
          </Node>
          <Node pos="r" depth="2" NCoef="0" IVar="1" Cut="6.5674620866775513e-01" cType="1" res="1.2409828603267670e-02" rms="4.0904036164283752e-01" purity="4.4548171758651733e-01" nType="0">
            <Node pos="l" depth="3" NCoef="0" IVar="-1" Cut="0.0000000000000000e+00" cType="1" res="-2.4016331881284714e-02" rms="3.9149180054664612e-01" purity="2.3569349944591522e-01" nType="-99"/>
            <Node pos="r" depth="3" NCoef="0" IVar="-1" Cut="0.0000000000000000e+00" cType="1" res="2.9006289318203926e-02" rms="3.9285385608673096e-01" purity="7.1681857109069824e-01" nType="-99"/>
          </Node>
        </Node>
        <Node pos="r" depth="1" NCoef="0" IVar="5" Cut="7.6111228942871094e+01" cType="1" res="7.5846865773200989e-02" rms="3.7240973114967346e-01" purity="7.3748964071273804e-01" nType="0">
          <Node pos="l" depth="2" NCoef="0" IVar="7" Cut="3.3623165130615234e+01" cType="1" res="9.5935046672821045e-02" rms="3.5496050119400024e-01" purity="7.9678636789321899e-01" nType="0">
            <Node pos="l" depth="3" NCoef="0" IVar="-1" Cut="0.0000000000000000e+00" cType="1" res="1.3438472524285316e-02" rms="3.9290514588356018e-01" purity="7.1432679891586304e-01" nType="-99"/>
            <Node pos="r" depth="3" NCoef="0" IVar="-1" Cut="0.0000000000000000e+00" cType="1" res="2.8722215443849564e-02" rms="3.2356947660446167e-01" purity="8.5434848070144653e-01" nType="-99"/>
          </Node>
          <Node pos="r" depth="2" NCoef="0" IVar="-1" Cut="0.0000000000000000e+00" cType="1" res="-3.9249002002179623e-03" rms="4.3262499570846558e-01" purity="4.6134802699089050e-01" nType="-99"/>
        </Node>
      </Node>
    </BinaryTree>
    <BinaryTree type="DecisionTree" boostWeight="1.0000000000000000e+00" itree="22">
      <Node pos="s" depth="0" NCoef="0" IVar="2" Cut="1.0140141296386719e+02" cType="1" res="1.2692337855696678e-02" rms="3.9649039506912231e-01" purity="5.0432419776916504e-01" nType="0">
        <Node pos="l" depth="1" NCoef="0" IVar="0" Cut="8.8537317514419556e-01" cType="1" res="-3.2187756150960922e-02" rms="4.0585026144981384e-01" purity="3.2913374900817871e-01" nType="0">
          <Node pos="l" depth="2" NCoef="0" IVar="1" Cut="4.2828056216239929e-01" cType="1" res="-6.6576905548572540e-02" rms="4.0477898716926575e-01" purity="2.6916310191154480e-01" nType="0">
            <Node pos="l" depth="3" NCoef="0" IVar="-1" Cut="0.0000000000000000e+00" cType="1" res="8.5670477710664272e-04" rms="4.3254584074020386e-01" purity="3.0079680681228638e-01" nType="-99"/>
            <Node pos="r" depth="3" NCoef="0" IVar="-1" Cut="0.0000000000000000e+00" cType="1" res="-2.1079394966363907e-02" rms="3.9625304937362671e-01" purity="2.6177927851676941e-01" nType="-99"/>
          </Node>
          <Node pos="r" depth="2" NCoef="0" IVar="1" Cut="5.4252201318740845e-01" cType="1" res="8.5004428401589394e-03" rms="4.0334492921829224e-01" purity="4.0008920431137085e-01" nType="0">
            <Node pos="l" depth="3" NCoef="0" IVar="-1" Cut="0.0000000000000000e+00" cType="1" res="-2.2579595446586609e-02" rms="3.8563346862792969e-01" purity="2.1092969179153442e-01" nType="-99"/>
            <Node pos="r" depth="3" NCoef="0" IVar="-1" Cut="0.0000000000000000e+00" cType="1" res="3.6100313067436218e-02" rms="3.7723240256309509e-01" purity="7.8287255764007568e-01" nType="-99"/>
          </Node>
        </Node>
        <Node pos="r" depth="1" NCoef="0" IVar="0" Cut="4.8542168736457825e-01" cType="1" res="5.6197706609964371e-02" rms="3.8220363855361938e-01" purity="6.7414838075637817e-01" nType="0">
          <Node pos="l" depth="2" NCoef="0" IVar="0" Cut="-6.9467045366764069e-02" cType="1" res="-8.1439148634672165e-03" rms="4.2311021685600281e-01" purity="5.2480739355087280e-01" nType="0">
            <Node pos="l" depth="3" NCoef="0" IVar="-1" Cut="0.0000000000000000e+00" cType="1" res="1.1847246438264847e-02" rms="4.1639780998229980e-01" purity="5.9609121084213257e-01" nType="-99"/>
            <Node pos="r" depth="3" NCoef="0" IVar="-1" Cut="0.0000000000000000e+00" cType="1" res="-1.6287900507450104e-02" rms="4.2118406295776367e-01" purity="4.5220816135406494e-01" nType="-99"/>
          </Node>
          <Node pos="r" depth="2" NCoef="0" IVar="1" Cut="7.1387660503387451e-01" cType="1" res="8.6661480367183685e-02" rms="3.5720321536064148e-01" purity="7.4485677480697632e-01" nType="0">
            <Node pos="l" depth="3" NCoef="0" IVar="-1" Cut="0.0000000000000000e+00" cType="1" res="-1.3654534704983234e-03" rms="4.1875675320625305e-01" purity="5.6367367506027222e-01" nType="-99"/>
            <Node pos="r" depth="3" NCoef="0" IVar="-1" Cut="0.0000000000000000e+00" cType="1" res="3.9504528045654297e-02" rms="2.6434981822967529e-01" purity="9.0809917449951172e-01" nType="-99"/>
          </Node>
        </Node>
      </Node>
    </BinaryTree>
    <BinaryTree type="DecisionTree" boostWeight="1.0000000000000000e+00" itree="23">
      <Node pos="s" depth="0" NCoef="0" IVar="5" Cut="6.4412078857421875e+01" cType="1" res="1.3866042718291283e-02" rms="3.9317029714584351e-01" purity="5.0475555658340454e-01" nType="0">
        <Node pos="l" depth="1" NCoef="0" IVar="1" Cut="3.7117290496826172e-01" cType="1" res="4.5123696327209473e-02" rms="3.9207795262336731e-01" purity="6.3659638166427612e-01" nType="0">
          <Node pos="l" depth="2" NCoef="0" IVar="1" Cut="-9.1262951493263245e-02" cType="1" res="-1.8994338810443878e-02" rms="4.3053171038627625e-01" purity="4.7494173049926758e-01" nType="0">
            <Node pos="l" depth="3" NCoef="0" IVar="-1" Cut="0.0000000000000000e+00" cType="1" res="9.5599405467510223e-03" rms="4.2327839136123657e-01" purity="5.4820144176483154e-01" nType="-99"/>
            <Node pos="r" depth="3" NCoef="0" IVar="-1" Cut="0.0000000000000000e+00" cType="1" res="-1.7351644113659859e-02" rms="4.2959415912628174e-01" purity="4.0931692719459534e-01" nType="-99"/>
          </Node>
          <Node pos="r" depth="2" NCoef="0" IVar="0" Cut="7.1387773752212524e-01" cType="1" res="7.0868931710720062e-02" rms="3.7243822216987610e-01" purity="7.0150530338287354e-01" nType="0">
            <Node pos="l" depth="3" NCoef="0" IVar="-1" Cut="0.0000000000000000e+00" cType="1" res="-4.9513136036694050e-03" rms="4.2705139517784119e-01" purity="5.0951683521270752e-01" nType="-99"/>
            <Node pos="r" depth="3" NCoef="0" IVar="-1" Cut="0.0000000000000000e+00" cType="1" res="3.5891719162464142e-02" rms="2.8864309191703796e-01" purity="8.7833386659622192e-01" nType="-99"/>
          </Node>
        </Node>
        <Node pos="r" depth="1" NCoef="0" IVar="2" Cut="2.0062779235839844e+02" cType="1" res="-3.2751277089118958e-02" rms="3.9016893506050110e-01" purity="3.0812966823577881e-01" nType="0">
          <Node pos="l" depth="2" NCoef="0" IVar="4" Cut="1.7299381256103516e+01" cType="1" res="-4.6624921262264252e-02" rms="3.8638436794281006e-01" purity="2.5541576743125916e-01" nType="0">
            <Node pos="l" depth="3" NCoef="0" IVar="-1" Cut="0.0000000000000000e+00" cType="1" res="2.8820210136473179e-03" rms="4.0430346131324768e-01" purity="2.6328670978546143e-01" nType="-99"/>
            <Node pos="r" depth="3" NCoef="0" IVar="-1" Cut="0.0000000000000000e+00" cType="1" res="-1.8079578876495361e-02" rms="3.7738606333732605e-01" purity="2.5249642133712769e-01" nType="-99"/>
          </Node>
          <Node pos="r" depth="2" NCoef="0" IVar="-1" Cut="0.0000000000000000e+00" cType="1" res="1.4137492515146732e-02" rms="4.0252810716629028e-01" purity="6.8527919054031372e-01" nType="-99"/>
        </Node>
      </Node>
    </BinaryTree>
    <BinaryTree type="DecisionTree" boostWeight="1.0000000000000000e+00" itree="24">
      <Node pos="s" depth="0" NCoef="0" IVar="3" Cut="5.2004516601562500e+01" cType="1" res="1.2325523421168327e-02" rms="3.9337062835693359e-01" purity="5.0145334005355835e-01" nType="0">
        <Node pos="l" depth="1" NCoef="0" IVar="4" Cut="1.6855380249023438e+02" cType="1" res="-1.5488659031689167e-02" rms="4.0314400196075439e-01" purity="3.8014119863510132e-01" nType="0">
          <Node pos="l" depth="2" NCoef="0" IVar="4" Cut="8.8279998779296875e+01" cType="1" res="-1.9344605971127748e-03" rms="4.0843126177787781e-01" purity="3.9780208468437195e-01" nType="0">
            <Node pos="l" depth="3" NCoef="0" IVar="-1" Cut="0.0000000000000000e+00" cType="1" res="-1.1640264652669430e-02" rms="4.0566214919090271e-01" purity="2.9829904437065125e-01" nType="-99"/>
            <Node pos="r" depth="3" NCoef="0" IVar="-1" Cut="0.0000000000000000e+00" cType="1" res="1.0735319927334785e-02" rms="4.0619328618049622e-01" purity="5.1059269905090332e-01" nType="-99"/>
          </Node>
          <Node pos="r" depth="2" NCoef="0" IVar="-1" Cut="0.0000000000000000e+00" cType="1" res="-4.7068677842617035e-02" rms="3.0105134844779968e-01" purity="1.8495684862136841e-01" nType="-99"/>
        </Node>
        <Node pos="r" depth="1" NCoef="0" IVar="3" Cut="9.4115707397460938e+01" cType="1" res="6.4691089093685150e-02" rms="3.6862683296203613e-01" purity="7.2984689474105835e-01" nType="0">
          <Node pos="l" depth="2" NCoef="0" IVar="2" Cut="9.1176910400390625e+01" cType="1" res="9.0436764061450958e-02" rms="3.5778933763504028e-01" purity="7.5952392816543579e-01" nType="0">
            <Node pos="l" depth="3" NCoef="0" IVar="-1" Cut="0.0000000000000000e+00" cType="1" res="5.8975741267204285e-03" rms="4.3956643342971802e-01" purity="5.2808487415313721e-01" nType="-99"/>
            <Node pos="r" depth="3" NCoef="0" IVar="-1" Cut="0.0000000000000000e+00" cType="1" res="2.8170878067612648e-02" rms="3.1764876842498779e-01" purity="8.4837424755096436e-01" nType="-99"/>
          </Node>
          <Node pos="r" depth="2" NCoef="0" IVar="-1" Cut="0.0000000000000000e+00" cType="1" res="-7.2576720267534256e-03" rms="3.9162787795066833e-01" purity="6.2150055170059204e-01" nType="-99"/>
        </Node>
      </Node>
    </BinaryTree>
    <BinaryTree type="DecisionTree" boostWeight="1.0000000000000000e+00" itree="25">
      <Node pos="s" depth="0" NCoef="0" IVar="2" Cut="2.5000346374511719e+02" cType="1" res="1.2802137993276119e-02" rms="3.8969823718070984e-01" purity="5.0490772724151611e-01" nType="0">
        <Node pos="l" depth="1" NCoef="0" IVar="1" Cut="8.8522696495056152e-01" cType="1" res="2.6176124811172485e-04" rms="4.0172973275184631e-01" purity="4.5543360710144043e-01" nType="0">
          <Node pos="l" depth="2" NCoef="0" IVar="7" Cut="2.8890428543090820e+01" cType="1" res="-3.1065797433257103e-02" rms="4.1139790415763855e-01" purity="3.7621164321899414e-01" nType="0">
            <Node pos="l" depth="3" NCoef="0" IVar="-1" Cut="0.0000000000000000e+00" cType="1" res="-1.9161581993103027e-02" rms="3.9034497737884521e-01" purity="2.8695654869079590e-01" nType="-99"/>
            <Node pos="r" depth="3" NCoef="0" IVar="-1" Cut="0.0000000000000000e+00" cType="1" res="-1.1669815285131335e-04" rms="4.2375203967094421e-01" purity="4.4238656759262085e-01" nType="-99"/>
          </Node>
          <Node pos="r" depth="2" NCoef="0" IVar="0" Cut="5.9965324401855469e-01" cType="1" res="3.9850246161222458e-02" rms="3.8554483652114868e-01" purity="5.5554616451263428e-01" nType="0">
            <Node pos="l" depth="3" NCoef="0" IVar="-1" Cut="0.0000000000000000e+00" cType="1" res="-1.5011988580226898e-02" rms="4.0473559498786926e-01" purity="3.2768654823303223e-01" nType="-99"/>
            <Node pos="r" depth="3" NCoef="0" IVar="-1" Cut="0.0000000000000000e+00" cType="1" res="3.7794549018144608e-02" rms="3.1002509593963623e-01" purity="8.6693501472473145e-01" nType="-99"/>
          </Node>
        </Node>
        <Node pos="r" depth="1" NCoef="0" IVar="5" Cut="1.6246290206909180e+01" cType="1" res="1.1425358057022095e-01" rms="2.5152882933616638e-01" purity="9.0515273809432983e-01" nType="0">
          <Node pos="l" depth="2" NCoef="0" IVar="-1" Cut="0.0000000000000000e+00" cType="1" res="3.9261460304260254e-02" rms="1.7416530847549438e-01" purity="9.6806269884109497e-01" nType="-99"/>
          <Node pos="r" depth="2" NCoef="0" IVar="-1" Cut="0.0000000000000000e+00" cType="1" res="2.6141136884689331e-02" rms="3.1087744235992432e-01" purity="8.4110426902770996e-01" nType="-99"/>
        </Node>
      </Node>
    </BinaryTree>
    <BinaryTree type="DecisionTree" boostWeight="1.0000000000000000e+00" itree="26">
      <Node pos="s" depth="0" NCoef="0" IVar="3" Cut="6.4347450256347656e+01" cType="1" res="6.8268338218331337e-03" rms="3.8872796297073364e-01" purity="4.9942910671234131e-01" nType="0">
        <Node pos="l" depth="1" NCoef="0" IVar="4" Cut="1.5883982849121094e+02" cType="1" res="-1.6436692327260971e-02" rms="3.9769852161407471e-01" purity="3.8863286375999451e-01" nType="0">
          <Node pos="l" depth="2" NCoef="0" IVar="4" Cut="9.0743965148925781e+01" cType="1" res="-1.7256825231015682e-03" rms="4.0365996956825256e-01" purity="4.0696713328361511e-01" nType="0">
            <Node pos="l" depth="3" NCoef="0" IVar="-1" Cut="0.0000000000000000e+00" cType="1" res="-9.5945019274950027e-03" rms="4.0273496508598328e-01" purity="3.0992045998573303e-01" nType="-99"/>
            <Node pos="r" depth="3" NCoef="0" IVar="-1" Cut="0.0000000000000000e+00" cType="1" res="9.5448540523648262e-03" rms="4.0068578720092773e-01" purity="5.2559161186218262e-01" nType="-99"/>
          </Node>
          <Node pos="r" depth="2" NCoef="0" IVar="-1" Cut="0.0000000000000000e+00" cType="1" res="-3.6437194794416428e-02" rms="3.2590070366859436e-01" purity="2.4598586559295654e-01" nType="-99"/>
        </Node>
        <Node pos="r" depth="1" NCoef="0" IVar="2" Cut="6.0442852020263672e+01" cType="1" res="5.8291692286729813e-02" rms="3.6284545063972473e-01" purity="7.4453854560852051e-01" nType="0">
          <Node pos="l" depth="2" NCoef="0" IVar="-1" Cut="0.0000000000000000e+00" cType="1" res="-7.3064188472926617e-03" rms="4.2745998501777649e-01" purity="4.7021275758743286e-01" nType="-99"/>
          <Node pos="r" depth="2" NCoef="0" IVar="3" Cut="8.2746788024902344e+01" cType="1" res="7.4713572859764099e-02" rms="3.4745186567306519e-01" purity="7.9375278949737549e-01" nType="0">
            <Node pos="l" depth="3" NCoef="0" IVar="-1" Cut="0.0000000000000000e+00" cType="1" res="2.6310084387660027e-02" rms="3.3556655049324036e-01" purity="8.2648783922195435e-01" nType="-99"/>
            <Node pos="r" depth="3" NCoef="0" IVar="-1" Cut="0.0000000000000000e+00" cType="1" res="1.2126781046390533e-02" rms="3.5475584864616394e-01" purity="7.6638245582580566e-01" nType="-99"/>
          </Node>
        </Node>
      </Node>
    </BinaryTree>
    <BinaryTree type="DecisionTree" boostWeight="1.0000000000000000e+00" itree="27">
      <Node pos="s" depth="0" NCoef="0" IVar="2" Cut="1.1005657196044922e+02" cType="1" res="6.3717085868120193e-03" rms="3.8717424869537354e-01" purity="5.0024032592773438e-01" nType="0">
        <Node pos="l" depth="1" NCoef="0" IVar="0" Cut="8.8537317514419556e-01" cType="1" res="-2.7948943898081779e-02" rms="3.9619714021682739e-01" purity="3.3051943778991699e-01" nType="0">
          <Node pos="l" depth="2" NCoef="0" IVar="7" Cut="3.1789409637451172e+01" cType="1" res="-6.0090493410825729e-02" rms="3.9811164140701294e-01" purity="2.6246505975723267e-01" nType="0">
            <Node pos="l" depth="3" NCoef="0" IVar="-1" Cut="0.0000000000000000e+00" cType="1" res="-2.7453543618321419e-02" rms="3.6780080199241638e-01" purity="1.9774532318115234e-01" nType="-99"/>
            <Node pos="r" depth="3" NCoef="0" IVar="-1" Cut="0.0000000000000000e+00" cType="1" res="-5.4639494046568871e-03" rms="4.2357504367828369e-01" purity="3.2884955406188965e-01" nType="-99"/>
          </Node>
          <Node pos="r" depth="2" NCoef="0" IVar="1" Cut="5.9963905811309814e-01" cType="1" res="8.1404037773609161e-03" rms="3.9089930057525635e-01" purity="4.0693265199661255e-01" nType="0">
            <Node pos="l" depth="3" NCoef="0" IVar="-1" Cut="0.0000000000000000e+00" cType="1" res="-2.0498560741543770e-02" rms="3.8043594360351562e-01" purity="2.1031048893928528e-01" nType="-99"/>
            <Node pos="r" depth="3" NCoef="0" IVar="-1" Cut="0.0000000000000000e+00" cType="1" res="3.3513639122247696e-02" rms="3.6165744066238403e-01" purity="8.0586373805999756e-01" nType="-99"/>
          </Node>
        </Node>
        <Node pos="r" depth="1" NCoef="0" IVar="6" Cut="1.6468892097473145e+00" cType="1" res="4.6346578747034073e-02" rms="3.7242609262466431e-01" purity="6.9792228937149048e-01" nType="0">
          <Node pos="l" depth="2" NCoef="0" IVar="-1" Cut="0.0000000000000000e+00" cType="1" res="-1.2679898180067539e-02" rms="4.0585753321647644e-01" purity="5.4171633720397949e-01" nType="-99"/>
          <Node pos="r" depth="2" NCoef="0" IVar="1" Cut="3.7117290496826172e-01" cType="1" res="5.9778898954391479e-02" rms="3.6556875705718994e-01" purity="7.1930968761444092e-01" nType="0">
            <Node pos="l" depth="3" NCoef="0" IVar="-1" Cut="0.0000000000000000e+00" cType="1" res="2.9301131144165993e-03" rms="4.1421759128570557e-01" purity="5.9683185815811157e-01" nType="-99"/>
            <Node pos="r" depth="3" NCoef="0" IVar="-1" Cut="0.0000000000000000e+00" cType="1" res="1.9101219251751900e-02" rms="3.4503781795501709e-01" purity="7.6294821500778198e-01" nType="-99"/>
          </Node>
        </Node>
      </Node>
    </BinaryTree>
    <BinaryTree type="DecisionTree" boostWeight="1.0000000000000000e+00" itree="28">
      <Node pos="s" depth="0" NCoef="0" IVar="5" Cut="4.3756160736083984e+01" cType="1" res="5.9972591698169708e-03" rms="3.8761565089225769e-01" purity="4.9884751439094543e-01" nType="0">
        <Node pos="l" depth="1" NCoef="0" IVar="1" Cut="8.8522344827651978e-01" cType="1" res="4.3592963367700577e-02" rms="3.7886798381805420e-01" purity="6.8353104591369629e-01" nType="0">
          <Node pos="l" depth="2" NCoef="0" IVar="2" Cut="1.1005657196044922e+02" cType="1" res="1.1336063966155052e-02" rms="4.1752713918685913e-01" purity="5.9427314996719360e-01" nType="0">
            <Node pos="l" depth="3" NCoef="0" IVar="-1" Cut="0.0000000000000000e+00" cType="1" res="-5.9993136674165726e-03" rms="4.5600292086601257e-01" purity="4.1131716966629028e-01" nType="-99"/>
            <Node pos="r" depth="3" NCoef="0" IVar="-1" Cut="0.0000000000000000e+00" cType="1" res="1.1403455398976803e-02" rms="3.7546011805534363e-01" purity="7.6175272464752197e-01" nType="-99"/>
          </Node>
          <Node pos="r" depth="2" NCoef="0" IVar="0" Cut="3.7118473649024963e-01" cType="1" res="7.7620714902877808e-02" rms="3.2985943555831909e-01" purity="7.7768903970718384e-01" nType="0">
            <Node pos="l" depth="3" NCoef="0" IVar="-1" Cut="0.0000000000000000e+00" cType="1" res="-6.6109364852309227e-03" rms="4.1698107123374939e-01" purity="5.2668637037277222e-01" nType="-99"/>
            <Node pos="r" depth="3" NCoef="0" IVar="-1" Cut="0.0000000000000000e+00" cType="1" res="3.5576749593019485e-02" rms="2.5318777561187744e-01" purity="9.1394406557083130e-01" nType="-99"/>
          </Node>
        </Node>
        <Node pos="r" depth="1" NCoef="0" IVar="2" Cut="2.0280282592773438e+02" cType="1" res="-2.2673366591334343e-02" rms="3.9173871278762817e-01" purity="3.5800710320472717e-01" nType="0">
          <Node pos="l" depth="2" NCoef="0" IVar="4" Cut="3.4598762512207031e+01" cType="1" res="-3.4009598195552826e-02" rms="3.9393436908721924e-01" purity="2.9646623134613037e-01" nType="0">
            <Node pos="l" depth="3" NCoef="0" IVar="-1" Cut="0.0000000000000000e+00" cType="1" res="7.0342239923775196e-03" rms="4.1175913810729980e-01" purity="2.9808446764945984e-01" nType="-99"/>
            <Node pos="r" depth="3" NCoef="0" IVar="-1" Cut="0.0000000000000000e+00" cType="1" res="-1.5770457684993744e-02" rms="3.8300338387489319e-01" purity="2.9575380682945251e-01" nType="-99"/>
          </Node>
          <Node pos="r" depth="2" NCoef="0" IVar="-1" Cut="0.0000000000000000e+00" cType="1" res="1.2210850603878498e-02" rms="3.6891502141952515e-01" purity="7.5597876310348511e-01" nType="-99"/>
        </Node>
      </Node>
    </BinaryTree>
    <BinaryTree type="DecisionTree" boostWeight="1.0000000000000000e+00" itree="29">
      <Node pos="s" depth="0" NCoef="0" IVar="3" Cut="5.4905582427978516e+01" cType="1" res="8.6709987372159958e-03" rms="3.8715648651123047e-01" purity="5.0287365913391113e-01" nType="0">
        <Node pos="l" depth="1" NCoef="0" IVar="4" Cut="1.5883982849121094e+02" cType="1" res="-1.5036270022392273e-02" rms="3.9682126045227051e-01" purity="3.7741422653198242e-01" nType="0">
          <Node pos="l" depth="2" NCoef="0" IVar="4" Cut="9.0743965148925781e+01" cType="1" res="-2.2384419571608305e-03" rms="4.0355649590492249e-01" purity="3.9723387360572815e-01" nType="0">
            <Node pos="l" depth="3" NCoef="0" IVar="-1" Cut="0.0000000000000000e+00" cType="1" res="-1.0609014891088009e-02" rms="3.9823973178863525e-01" purity="2.9700550436973572e-01" nType="-99"/>
            <Node pos="r" depth="3" NCoef="0" IVar="-1" Cut="0.0000000000000000e+00" cType="1" res="1.0484339669346809e-02" rms="4.0537488460540771e-01" purity="5.2300614118576050e-01" nType="-99"/>
          </Node>
          <Node pos="r" depth="2" NCoef="0" IVar="-1" Cut="0.0000000000000000e+00" cType="1" res="-3.4932345151901245e-02" rms="3.1820097565650940e-01" purity="2.1572253108024597e-01" nType="-99"/>
        </Node>
        <Node pos="r" depth="1" NCoef="0" IVar="2" Cut="9.6213554382324219e+01" cType="1" res="5.3140651434659958e-02" rms="3.6420544981956482e-01" purity="7.3820799589157104e-01" nType="0">
          <Node pos="l" depth="2" NCoef="0" IVar="3" Cut="8.0892333984375000e+01" cType="1" res="6.5843653865158558e-03" rms="4.3500474095344543e-01" purity="5.1235634088516235e-01" nType="0">
            <Node pos="l" depth="3" NCoef="0" IVar="-1" Cut="0.0000000000000000e+00" cType="1" res="1.2982124462723732e-02" rms="4.2925032973289490e-01" purity="5.7364869117736816e-01" nType="-99"/>
            <Node pos="r" depth="3" NCoef="0" IVar="-1" Cut="0.0000000000000000e+00" cType="1" res="-9.0025765821337700e-03" rms="4.3455159664154053e-01" purity="4.5888593792915344e-01" nType="-99"/>
          </Node>
          <Node pos="r" depth="2" NCoef="0" IVar="2" Cut="2.2527943420410156e+02" cType="1" res="7.3175340890884399e-02" rms="3.2705006003379822e-01" purity="8.3539932966232300e-01" nType="0">
            <Node pos="l" depth="3" NCoef="0" IVar="-1" Cut="0.0000000000000000e+00" cType="1" res="1.4284516684710979e-02" rms="3.8480848073959351e-01" purity="7.6301145553588867e-01" nType="-99"/>
            <Node pos="r" depth="3" NCoef="0" IVar="-1" Cut="0.0000000000000000e+00" cType="1" res="3.3123884350061417e-02" rms="1.9733981788158417e-01" purity="9.5391213893890381e-01" nType="-99"/>
          </Node>
        </Node>
      </Node>
    </BinaryTree>
    <BinaryTree type="DecisionTree" boostWeight="1.0000000000000000e+00" itree="30">
      <Node pos="s" depth="0" NCoef="0" IVar="3" Cut="5.4905582427978516e+01" cType="1" res="7.4367998167872429e-03" rms="3.8367161154747009e-01" purity="4.9878486990928650e-01" nType="0">
        <Node pos="l" depth="1" NCoef="0" IVar="4" Cut="1.5883982849121094e+02" cType="1" res="-1.3587608002126217e-02" rms="3.9266473054885864e-01" purity="3.7641197443008423e-01" nType="0">
          <Node pos="l" depth="2" NCoef="0" IVar="1" Cut="9.4232833385467529e-01" cType="1" res="-1.5597735764458776e-03" rms="4.0052488446235657e-01" purity="3.9768493175506592e-01" nType="0">
            <Node pos="l" depth="3" NCoef="0" IVar="-1" Cut="0.0000000000000000e+00" cType="1" res="-7.0560900494456291e-03" rms="4.0400692820549011e-01" purity="3.2923051714897156e-01" nType="-99"/>
            <Node pos="r" depth="3" NCoef="0" IVar="-1" Cut="0.0000000000000000e+00" cType="1" res="1.1435534805059433e-02" rms="3.8902351260185242e-01" purity="5.3106915950775146e-01" nType="-99"/>
          </Node>
          <Node pos="r" depth="2" NCoef="0" IVar="-1" Cut="0.0000000000000000e+00" cType="1" res="-3.2767269760370255e-02" rms="3.0680164694786072e-01" purity="2.0680272579193115e-01" nType="-99"/>
        </Node>
        <Node pos="r" depth="1" NCoef="0" IVar="2" Cut="6.2505874633789062e+01" cType="1" res="4.8014122992753983e-02" rms="3.6225619912147522e-01" purity="7.3496556282043457e-01" nType="0">
          <Node pos="l" depth="2" NCoef="0" IVar="-1" Cut="0.0000000000000000e+00" cType="1" res="-5.3139757364988327e-03" rms="4.2707744240760803e-01" purity="4.5951035618782043e-01" nType="-99"/>
          <Node pos="r" depth="2" NCoef="0" IVar="6" Cut="2.2265357971191406e+00" cType="1" res="6.1239760369062424e-02" rms="3.4740522503852844e-01" purity="7.8564417362213135e-01" nType="0">
            <Node pos="l" depth="3" NCoef="0" IVar="-1" Cut="0.0000000000000000e+00" cType="1" res="4.4047716073691845e-03" rms="3.9104160666465759e-01" purity="7.0113891363143921e-01" nType="-99"/>
            <Node pos="r" depth="3" NCoef="0" IVar="-1" Cut="0.0000000000000000e+00" cType="1" res="2.0352186635136604e-02" rms="3.2997497916221619e-01" purity="8.1434208154678345e-01" nType="-99"/>
          </Node>
        </Node>
      </Node>
    </BinaryTree>
    <BinaryTree type="DecisionTree" boostWeight="1.0000000000000000e+00" itree="31">
      <Node pos="s" depth="0" NCoef="0" IVar="2" Cut="2.3768420410156250e+02" cType="1" res="5.7895807549357414e-03" rms="3.8498532772064209e-01" purity="4.9498671293258667e-01" nType="0">
        <Node pos="l" depth="1" NCoef="0" IVar="5" Cut="6.4455970764160156e+01" cType="1" res="-5.7835299521684647e-03" rms="3.9755666255950928e-01" purity="4.3805128335952759e-01" nType="0">
          <Node pos="l" depth="2" NCoef="0" IVar="7" Cut="3.5830707550048828e+01" cType="1" res="1.9763251766562462e-02" rms="4.0551024675369263e-01" purity="5.7389098405838013e-01" nType="0">
            <Node pos="l" depth="3" NCoef="0" IVar="-1" Cut="0.0000000000000000e+00" cType="1" res="-4.1785393841564655e-03" rms="4.0371924638748169e-01" purity="4.8218291997909546e-01" nType="-99"/>
            <Node pos="r" depth="3" NCoef="0" IVar="-1" Cut="0.0000000000000000e+00" cType="1" res="1.4518557116389275e-02" rms="4.0323039889335632e-01" purity="6.8218934535980225e-01" nType="-99"/>
          </Node>
          <Node pos="r" depth="2" NCoef="0" IVar="4" Cut="2.3069442749023438e+01" cType="1" res="-3.9270192384719849e-02" rms="3.8432025909423828e-01" purity="2.5999289751052856e-01" nType="0">
            <Node pos="l" depth="3" NCoef="0" IVar="-1" Cut="0.0000000000000000e+00" cType="1" res="2.6027939748018980e-03" rms="4.0077099204063416e-01" purity="2.5640633702278137e-01" nType="-99"/>
            <Node pos="r" depth="3" NCoef="0" IVar="-1" Cut="0.0000000000000000e+00" cType="1" res="-1.6423085704445839e-02" rms="3.7573391199111938e-01" purity="2.6144480705261230e-01" nType="-99"/>
          </Node>
        </Node>
        <Node pos="r" depth="1" NCoef="0" IVar="7" Cut="4.7250511169433594e+01" cType="1" res="8.6648181080818176e-02" rms="2.6834079623222351e-01" purity="8.9278072118759155e-01" nType="0">
          <Node pos="l" depth="2" NCoef="0" IVar="-1" Cut="0.0000000000000000e+00" cType="1" res="1.9800217822194099e-02" rms="2.9256170988082886e-01" purity="8.6019319295883179e-01" nType="-99"/>
          <Node pos="r" depth="2" NCoef="0" IVar="-1" Cut="0.0000000000000000e+00" cType="1" res="3.4442164003849030e-02" rms="2.3653537034988403e-01" purity="9.2893403768539429e-01" nType="-99"/>
        </Node>
      </Node>
    </BinaryTree>
    <BinaryTree type="DecisionTree" boostWeight="1.0000000000000000e+00" itree="32">
      <Node pos="s" depth="0" NCoef="0" IVar="2" Cut="1.0348277282714844e+02" cType="1" res="5.8833751827478409e-03" rms="3.8252833485603333e-01" purity="5.0057572126388550e-01" nType="0">
        <Node pos="l" depth="1" NCoef="0" IVar="0" Cut="3.1409502029418945e-01" cType="1" res="-2.4355953559279442e-02" rms="3.9320048689842224e-01" purity="3.2183676958084106e-01" nType="0">
          <Node pos="l" depth="2" NCoef="0" IVar="7" Cut="3.3059757232666016e+01" cType="1" res="-6.4294219017028809e-02" rms="3.8023748993873596e-01" purity="2.1423682570457458e-01" nType="0">
            <Node pos="l" depth="3" NCoef="0" IVar="-1" Cut="0.0000000000000000e+00" cType="1" res="-3.0796136707067490e-02" rms="3.4043359756469727e-01" purity="1.5350684523582458e-01" nType="-99"/>
            <Node pos="r" depth="3" NCoef="0" IVar="-1" Cut="0.0000000000000000e+00" cType="1" res="-7.3585896752774715e-03" rms="4.1550710797309875e-01" purity="2.7930057048797607e-01" nType="-99"/>
          </Node>
          <Node pos="r" depth="2" NCoef="0" IVar="1" Cut="6.5674620866775513e-01" cType="1" res="-7.8075136989355087e-03" rms="3.9727342128753662e-01" purity="3.6642086505889893e-01" nType="0">
            <Node pos="l" depth="3" NCoef="0" IVar="-1" Cut="0.0000000000000000e+00" cType="1" res="-1.7936265096068382e-02" rms="3.8031056523323059e-01" purity="2.1068426966667175e-01" nType="-99"/>
            <Node pos="r" depth="3" NCoef="0" IVar="-1" Cut="0.0000000000000000e+00" cType="1" res="1.7610209062695503e-02" rms="4.0923023223876953e-01" purity="6.3157898187637329e-01" nType="-99"/>
          </Node>
        </Node>
        <Node pos="r" depth="1" NCoef="0" IVar="5" Cut="8.5976371765136719e+01" cType="1" res="3.6041066050529480e-02" rms="3.6912077665328979e-01" purity="6.7883211374282837e-01" nType="0">
          <Node pos="l" depth="2" NCoef="0" IVar="0" Cut="8.8524371385574341e-01" cType="1" res="5.1525644958019257e-02" rms="3.5591116547584534e-01" purity="7.4575018882751465e-01" nType="0">
            <Node pos="l" depth="3" NCoef="0" IVar="-1" Cut="0.0000000000000000e+00" cType="1" res="6.1121722683310509e-03" rms="3.8828474283218384e-01" purity="6.7783248424530029e-01" nType="-99"/>
            <Node pos="r" depth="3" NCoef="0" IVar="-1" Cut="0.0000000000000000e+00" cType="1" res="2.1396942436695099e-02" rms="3.1797626614570618e-01" purity="8.1370133161544800e-01" nType="-99"/>
          </Node>
          <Node pos="r" depth="2" NCoef="0" IVar="7" Cut="3.5862422943115234e+01" cType="1" res="-3.0716128647327423e-02" rms="4.1478908061981201e-01" purity="3.9033457636833191e-01" nType="0">
            <Node pos="l" depth="3" NCoef="0" IVar="-1" Cut="0.0000000000000000e+00" cType="1" res="-9.0051960432901978e-04" rms="4.1748881340026855e-01" purity="4.0748661756515503e-01" nType="-99"/>
            <Node pos="r" depth="3" NCoef="0" IVar="-1" Cut="0.0000000000000000e+00" cType="1" res="-1.3789279386401176e-02" rms="4.1037002205848694e-01" purity="3.7341773509979248e-01" nType="-99"/>
          </Node>
        </Node>
      </Node>
    </BinaryTree>
    <BinaryTree type="DecisionTree" boostWeight="1.0000000000000000e+00" itree="33">
      <Node pos="s" depth="0" NCoef="0" IVar="1" Cut="8.8523155450820923e-01" cType="1" res="3.0109195504337549e-03" rms="3.8203087449073792e-01" purity="4.9871891736984253e-01" nType="0">
