<?xml version="1.0"?>
<MethodSetup Method="BDT::BDTG">
  <GeneralInfo>
    <Info name="TMVA Release" value="4.2.1 [262657]"/>
    <Info name="ROOT Release" value="6.06/01 [394753]"/>
    <Info name="Creator" value="muell149"/>
    <Info name="Date" value="Fri Aug 12 18:58:08 2016"/>
    <Info name="Host" value="Linux vocms0315.cern.ch 2.6.32-573.26.1.el6.x86_64 #1 SMP Wed May 4 09:23:05 CEST 2016 x86_64 x86_64 x86_64 GNU/Linux"/>
    <Info name="Dir" value="/afs/cern.ch/work/m/muell149/CMSSW_8_0_13/src/ttH-13TeVMultiLeptons/simpleweights/reconstruction_bdt_weights"/>
    <Info name="Training events" value="43000"/>
    <Info name="TrainingTime" value="2.87022431e+01"/>
    <Info name="AnalysisType" value="Classification"/>
  </GeneralInfo>
  <Options>
    <Option name="V" modified="Yes">False</Option>
    <Option name="VerbosityLevel" modified="No">Default</Option>
    <Option name="VarTransform" modified="No">None</Option>
    <Option name="H" modified="Yes">False</Option>
    <Option name="CreateMVAPdfs" modified="No">False</Option>
    <Option name="IgnoreNegWeightsInTraining" modified="No">False</Option>
    <Option name="NTrees" modified="Yes">1000</Option>
    <Option name="MaxDepth" modified="Yes">3</Option>
    <Option name="MinNodeSize" modified="Yes">4.5%</Option>
    <Option name="nCuts" modified="Yes">20</Option>
    <Option name="BoostType" modified="Yes">Grad</Option>
    <Option name="AdaBoostR2Loss" modified="No">quadratic</Option>
    <Option name="UseBaggedBoost" modified="Yes">True</Option>
    <Option name="Shrinkage" modified="Yes">1.000000e-01</Option>
    <Option name="AdaBoostBeta" modified="No">5.000000e-01</Option>
    <Option name="UseRandomisedTrees" modified="No">False</Option>
    <Option name="UseNvars" modified="No">3</Option>
    <Option name="UsePoissonNvars" modified="No">True</Option>
    <Option name="BaggedSampleFraction" modified="Yes">5.000000e-01</Option>
    <Option name="UseYesNoLeaf" modified="No">True</Option>
    <Option name="NegWeightTreatment" modified="No">ignorenegweightsintraining</Option>
    <Option name="Css" modified="No">1.000000e+00</Option>
    <Option name="Cts_sb" modified="No">1.000000e+00</Option>
    <Option name="Ctb_ss" modified="No">1.000000e+00</Option>
    <Option name="Cbb" modified="No">1.000000e+00</Option>
    <Option name="NodePurityLimit" modified="No">5.000000e-01</Option>
    <Option name="SeparationType" modified="No">giniindex</Option>
    <Option name="DoBoostMonitor" modified="No">False</Option>
    <Option name="UseFisherCuts" modified="No">False</Option>
    <Option name="MinLinCorrForFisher" modified="No">8.000000e-01</Option>
    <Option name="UseExclusiveVars" modified="No">False</Option>
    <Option name="DoPreselection" modified="No">False</Option>
    <Option name="SigToBkgFraction" modified="No">1.000000e+00</Option>
    <Option name="PruneMethod" modified="No">nopruning</Option>
    <Option name="PruneStrength" modified="No">0.000000e+00</Option>
    <Option name="PruningValFraction" modified="No">5.000000e-01</Option>
    <Option name="nEventsMin" modified="No">0</Option>
    <Option name="UseBaggedGrad" modified="No">False</Option>
    <Option name="GradBaggingFraction" modified="No">5.000000e-01</Option>
    <Option name="UseNTrainEvents" modified="No">0</Option>
    <Option name="NNodesMax" modified="No">0</Option>
  </Options>
  <Variables NVar="9">
    <Variable VarIndex="0" Expression="b_from_leptop_bdt.csv" Label="b_from_leptop_bdt.csv" Title="b leptop csv" Unit="csv" Internal="b_from_leptop_bdt.csv" Type="D" Min="-1.00000000e+01" Max="9.99612987e-01"/>
    <Variable VarIndex="1" Expression="b_from_hadtop_bdt.csv" Label="b_from_hadtop_bdt.csv" Title="b hadtop csv" Unit="csv" Internal="b_from_hadtop_bdt.csv" Type="D" Min="-1.00000000e+01" Max="9.99627769e-01"/>
    <Variable VarIndex="2" Expression="hadTop_tlv_bdt.Pt()" Label="hadTop_tlv_bdt.Pt()" Title="had top pt" Unit="pt" Internal="hadTop_tlv_bdt.Pt__" Type="D" Min="0.00000000e+00" Max="1.24784204e+03"/>
    <Variable VarIndex="3" Expression="w_from_hadtop_tlv_bdt.M()" Label="w_from_hadtop_tlv_bdt.M()" Title="w frm had top mass" Unit="mass" Internal="w_from_hadtop_tlv_bdt.M__" Type="D" Min="0.00000000e+00" Max="2.14455688e+02"/>
    <Variable VarIndex="4" Expression="hadTop_tlv_bdt.M()" Label="hadTop_tlv_bdt.M()" Title="had top mass" Unit="mass" Internal="hadTop_tlv_bdt.M__" Type="D" Min="0.00000000e+00" Max="3.62804962e+02"/>
    <Variable VarIndex="5" Expression="higgs_tlv_bdt.M()" Label="higgs_tlv_bdt.M()" Title="higgs mass" Unit="mass" Internal="higgs_tlv_bdt.M__" Type="D" Min="-2.09939033e-01" Max="3.44183624e+02"/>
    <Variable VarIndex="6" Expression="lep_from_higgs_bdt.obj.pt()" Label="lep_from_higgs_bdt.obj.pt()" Title="lep from higgs pt" Unit="pt" Internal="lep_from_higgs_bdt.obj.pt__" Type="D" Min="1.00410805e+01" Max="5.12660583e+02"/>
    <Variable VarIndex="7" Expression="lep_from_leptop_bdt.obj.pt()" Label="lep_from_leptop_bdt.obj.pt()" Title="lep from top pt" Unit="pt" Internal="lep_from_leptop_bdt.obj.pt__" Type="D" Min="1.00095482e+01" Max="4.90454926e+02"/>
    <Variable VarIndex="8" Expression="lep_from_leptop_bdt.obj.pt()/lep_from_higgs_bdt.obj.pt()" Label="lep_from_leptop_bdt.obj.pt()/lep_from_higgs_bdt.obj.pt()" Title="lep pt ratio" Unit="pt" Internal="lep_from_leptop_bdt.obj.pt___D_lep_from_higgs_bdt.obj.pt__" Type="D" Min="5.17500155e-02" Max="2.67526627e+01"/>
  </Variables>
  <Spectators NSpec="0"/>
  <Classes NClass="2">
    <Class Name="Signal" Index="0"/>
    <Class Name="Background" Index="1"/>
  </Classes>
  <Transformations NTransformations="0"/>
  <MVAPdfs/>
  <Weights NTrees="1000" AnalysisType="1">
    <BinaryTree type="DecisionTree" boostWeight="1.0000000000000000e+00" itree="0">
      <Node pos="s" depth="0" NCoef="0" IVar="5" Cut="6.5462516784667969e+01" cType="1" res="1.2156265438534319e-04" rms="5.0000000000000000e-01" purity="5.0012159347534180e-01" nType="0">
        <Node pos="l" depth="1" NCoef="0" IVar="2" Cut="1.1884210205078125e+02" cType="1" res="1.2887583673000336e-01" rms="4.8310559988021851e-01" purity="6.2887585163116455e-01" nType="0">
          <Node pos="l" depth="2" NCoef="0" IVar="1" Cut="4.7566375136375427e-01" cType="1" res="-1.2356431223452091e-02" rms="4.9984729290008545e-01" purity="4.8764359951019287e-01" nType="0">
            <Node pos="l" depth="3" NCoef="0" IVar="-1" Cut="0.0000000000000000e+00" cType="1" res="-4.5805275440216064e-02" rms="4.4727388024330139e-01" purity="2.7651381492614746e-01" nType="-99"/>
            <Node pos="r" depth="3" NCoef="0" IVar="-1" Cut="0.0000000000000000e+00" cType="1" res="1.3692012988030910e-02" rms="4.9242472648620605e-01" purity="5.8670574426651001e-01" nType="-99"/>
          </Node>
          <Node pos="r" depth="2" NCoef="0" IVar="0" Cut="4.7570568323135376e-01" cType="1" res="2.6391425728797913e-01" rms="4.2467549443244934e-01" purity="7.6391428709030151e-01" nType="0">
            <Node pos="l" depth="3" NCoef="0" IVar="-1" Cut="0.0000000000000000e+00" cType="1" res="1.2127494439482689e-02" rms="4.9415925145149231e-01" purity="5.7620131969451904e-01" nType="-99"/>
            <Node pos="r" depth="3" NCoef="0" IVar="-1" Cut="0.0000000000000000e+00" cType="1" res="4.3507441878318787e-02" rms="3.8093584775924683e-01" purity="8.2386392354965210e-01" nType="-99"/>
          </Node>
        </Node>
        <Node pos="r" depth="1" NCoef="0" IVar="2" Cut="1.8041239929199219e+02" cType="1" res="-1.6513748466968536e-01" rms="4.7194239497184753e-01" purity="3.3486253023147583e-01" nType="0">
          <Node pos="l" depth="2" NCoef="0" IVar="1" Cut="4.7565925121307373e-01" cType="1" res="-2.1819508075714111e-01" rms="4.4987878203392029e-01" purity="2.8180491924285889e-01" nType="0">
            <Node pos="l" depth="3" NCoef="0" IVar="-1" Cut="0.0000000000000000e+00" cType="1" res="-6.8837411701679230e-02" rms="3.9351797103881836e-01" purity="1.9154641032218933e-01" nType="-99"/>
            <Node pos="r" depth="3" NCoef="0" IVar="-1" Cut="0.0000000000000000e+00" cType="1" res="-3.0915914103388786e-02" rms="4.7369772195816040e-01" purity="3.3996731042861938e-01" nType="-99"/>
          </Node>
          <Node pos="r" depth="2" NCoef="0" IVar="-1" Cut="0.0000000000000000e+00" cType="1" res="1.1571582406759262e-02" rms="4.9471464753150940e-01" purity="5.7250809669494629e-01" nType="-99"/>
        </Node>
      </Node>
    </BinaryTree>
    <BinaryTree type="DecisionTree" boostWeight="1.0000000000000000e+00" itree="1">
      <Node pos="s" depth="0" NCoef="0" IVar="2" Cut="1.3793373107910156e+02" cType="1" res="9.2816370306536555e-04" rms="4.9178630113601685e-01" purity="4.9754017591476440e-01" nType="0">
        <Node pos="l" depth="1" NCoef="0" IVar="5" Cut="7.1870536804199219e+01" cType="1" res="-1.0791426897048950e-01" rms="4.7995781898498535e-01" purity="3.8077625632286072e-01" nType="0">
          <Node pos="l" depth="2" NCoef="0" IVar="1" Cut="4.7583597898483276e-01" cType="1" res="-1.3114698231220245e-02" rms="4.9522238969802856e-01" purity="4.8458966612815857e-01" nType="0">
            <Node pos="l" depth="3" NCoef="0" IVar="-1" Cut="0.0000000000000000e+00" cType="1" res="-4.1205674409866333e-02" rms="4.4694381952285767e-01" purity="2.7865627408027649e-01" nType="-99"/>
            <Node pos="r" depth="3" NCoef="0" IVar="-1" Cut="0.0000000000000000e+00" cType="1" res="1.2117513455450535e-02" rms="4.9201428890228271e-01" purity="5.8279460668563843e-01" nType="-99"/>
          </Node>
          <Node pos="r" depth="2" NCoef="0" IVar="0" Cut="4.7565925121307373e-01" cType="1" res="-2.3313689231872559e-01" rms="4.2795434594154358e-01" purity="2.4364706873893738e-01" nType="0">
            <Node pos="l" depth="3" NCoef="0" IVar="-1" Cut="0.0000000000000000e+00" cType="1" res="-7.5013443827629089e-02" rms="3.6728030443191528e-01" purity="1.5945205092430115e-01" nType="-99"/>
            <Node pos="r" depth="3" NCoef="0" IVar="-1" Cut="0.0000000000000000e+00" cType="1" res="-3.7656325846910477e-02" rms="4.4922220706939697e-01" purity="2.8785568475723267e-01" nType="-99"/>
          </Node>
        </Node>
        <Node pos="r" depth="1" NCoef="0" IVar="5" Cut="8.4454330444335938e+01" cType="1" res="1.8481467664241791e-01" rms="4.5546033978462219e-01" purity="6.9480967521667480e-01" nType="0">
          <Node pos="l" depth="2" NCoef="0" IVar="0" Cut="4.7565490007400513e-01" cType="1" res="2.5196796655654907e-01" rms="4.2036762833595276e-01" purity="7.6617848873138428e-01" nType="0">
            <Node pos="l" depth="3" NCoef="0" IVar="-1" Cut="0.0000000000000000e+00" cType="1" res="9.9753411486744881e-03" rms="4.9456903338432312e-01" purity="5.6599706411361694e-01" nType="-99"/>
            <Node pos="r" depth="3" NCoef="0" IVar="-1" Cut="0.0000000000000000e+00" cType="1" res="4.1902001947164536e-02" rms="3.7394341826438904e-01" purity="8.3013755083084106e-01" nType="-99"/>
          </Node>
          <Node pos="r" depth="2" NCoef="0" IVar="-1" Cut="0.0000000000000000e+00" cType="1" res="-1.1899235658347607e-02" rms="4.9238130450248718e-01" purity="4.2779007554054260e-01" nType="-99"/>
        </Node>
      </Node>
    </BinaryTree>
    <BinaryTree type="DecisionTree" boostWeight="1.0000000000000000e+00" itree="2">
      <Node pos="s" depth="0" NCoef="0" IVar="5" Cut="7.5847427368164062e+01" cType="1" res="6.4667304977774620e-03" rms="4.8492649197578430e-01" purity="4.9983078241348267e-01" nType="0">
        <Node pos="l" depth="1" NCoef="0" IVar="2" Cut="1.7057096862792969e+02" cType="1" res="9.9209174513816833e-02" rms="4.7752472758293152e-01" purity="6.0833150148391724e-01" nType="0">
          <Node pos="l" depth="2" NCoef="0" IVar="0" Cut="4.7582188248634338e-01" cType="1" res="1.7783284187316895e-02" rms="4.9194782972335815e-01" purity="5.1643294095993042e-01" nType="0">
            <Node pos="l" depth="3" NCoef="0" IVar="-1" Cut="0.0000000000000000e+00" cType="1" res="-3.5328745841979980e-02" rms="4.6981582045555115e-01" purity="3.2500883936882019e-01" nType="-99"/>
            <Node pos="r" depth="3" NCoef="0" IVar="-1" Cut="0.0000000000000000e+00" cType="1" res="1.4333548955619335e-02" rms="4.7976198792457581e-01" purity="5.8667337894439697e-01" nType="-99"/>
          </Node>
          <Node pos="r" depth="2" NCoef="0" IVar="3" Cut="6.2521755218505859e+01" cType="1" res="2.8723502159118652e-01" rms="3.8089019060134888e-01" purity="8.2054060697555542e-01" nType="0">
            <Node pos="l" depth="3" NCoef="0" IVar="-1" Cut="0.0000000000000000e+00" cType="1" res="2.8496194630861282e-02" rms="4.3922674655914307e-01" purity="7.3182207345962524e-01" nType="-99"/>
            <Node pos="r" depth="3" NCoef="0" IVar="-1" Cut="0.0000000000000000e+00" cType="1" res="4.7912571579217911e-02" rms="2.8903785347938538e-01" purity="9.0680289268493652e-01" nType="-99"/>
          </Node>
        </Node>
        <Node pos="r" depth="1" NCoef="0" IVar="2" Cut="1.8041239929199219e+02" cType="1" res="-1.6825135052204132e-01" rms="4.4927072525024414e-01" purity="2.9542553424835205e-01" nType="0">
          <Node pos="l" depth="2" NCoef="0" IVar="1" Cut="4.7565925121307373e-01" cType="1" res="-2.0809715986251831e-01" rms="4.2800319194793701e-01" purity="2.4713619053363800e-01" nType="0">
            <Node pos="l" depth="3" NCoef="0" IVar="-1" Cut="0.0000000000000000e+00" cType="1" res="-6.6046506166458130e-02" rms="3.7063246965408325e-01" purity="1.6402877867221832e-01" nType="-99"/>
            <Node pos="r" depth="3" NCoef="0" IVar="-1" Cut="0.0000000000000000e+00" cType="1" res="-3.1702395528554916e-02" rms="4.5521551370620728e-01" purity="3.0237931013107300e-01" nType="-99"/>
          </Node>
          <Node pos="r" depth="2" NCoef="0" IVar="-1" Cut="0.0000000000000000e+00" cType="1" res="4.3729878962039948e-03" rms="4.9734142422676086e-01" purity="5.3150117397308350e-01" nType="-99"/>
        </Node>
      </Node>
    </BinaryTree>
    <BinaryTree type="DecisionTree" boostWeight="1.0000000000000000e+00" itree="3">
      <Node pos="s" depth="0" NCoef="0" IVar="5" Cut="7.2307426452636719e+01" cType="1" res="1.0302181355655193e-02" rms="4.7801843285560608e-01" purity="5.0175684690475464e-01" nType="0">
        <Node pos="l" depth="1" NCoef="0" IVar="0" Cut="4.7567400336265564e-01" cType="1" res="1.0310689359903336e-01" rms="4.7040051221847534e-01" purity="6.2069475650787354e-01" nType="0">
          <Node pos="l" depth="2" NCoef="0" IVar="3" Cut="6.1460124969482422e+01" cType="1" res="-9.9299892783164978e-02" rms="4.8638668656349182e-01" purity="4.0148812532424927e-01" nType="0">
            <Node pos="l" depth="3" NCoef="0" IVar="-1" Cut="0.0000000000000000e+00" cType="1" res="-4.1848380118608475e-02" rms="4.5206496119499207e-01" purity="2.9074683785438538e-01" nType="-99"/>
            <Node pos="r" depth="3" NCoef="0" IVar="-1" Cut="0.0000000000000000e+00" cType="1" res="1.5905207023024559e-02" rms="4.8454764485359192e-01" purity="6.0918235778808594e-01" nType="-99"/>
          </Node>
          <Node pos="r" depth="2" NCoef="0" IVar="1" Cut="4.7567117214202881e-01" cType="1" res="1.6634532809257507e-01" rms="4.4687679409980774e-01" purity="6.8918198347091675e-01" nType="0">
            <Node pos="l" depth="3" NCoef="0" IVar="-1" Cut="0.0000000000000000e+00" cType="1" res="-1.5369663946330547e-02" rms="4.7877305746078491e-01" purity="4.1118273138999939e-01" nType="-99"/>
            <Node pos="r" depth="3" NCoef="0" IVar="-1" Cut="0.0000000000000000e+00" cType="1" res="4.0753833949565887e-02" rms="3.6013621091842651e-01" purity="8.4266704320907593e-01" nType="-99"/>
          </Node>
        </Node>
        <Node pos="r" depth="1" NCoef="0" IVar="2" Cut="1.3530929565429688e+02" cType="1" res="-1.4561663568019867e-01" rms="4.4928774237632751e-01" purity="3.0193230509757996e-01" nType="0">
          <Node pos="l" depth="2" NCoef="0" IVar="0" Cut="4.7565290331840515e-01" cType="1" res="-1.9895190000534058e-01" rms="4.1791820526123047e-01" purity="2.3152017593383789e-01" nType="0">
            <Node pos="l" depth="3" NCoef="0" IVar="-1" Cut="0.0000000000000000e+00" cType="1" res="-6.6027939319610596e-02" rms="3.6108964681625366e-01" purity="1.5251524746417999e-01" nType="-99"/>
            <Node pos="r" depth="3" NCoef="0" IVar="-1" Cut="0.0000000000000000e+00" cType="1" res="-3.2739091664552689e-02" rms="4.3965089321136475e-01" purity="2.7406376600265503e-01" nType="-99"/>
          </Node>
          <Node pos="r" depth="2" NCoef="0" IVar="7" Cut="4.9426605224609375e+01" cType="1" res="-2.0744161680340767e-02" rms="4.9325233697891235e-01" purity="4.6678632497787476e-01" nType="0">
            <Node pos="l" depth="3" NCoef="0" IVar="-1" Cut="0.0000000000000000e+00" cType="1" res="-1.8291763961315155e-02" rms="4.8081457614898682e-01" purity="3.8666412234306335e-01" nType="-99"/>
            <Node pos="r" depth="3" NCoef="0" IVar="-1" Cut="0.0000000000000000e+00" cType="1" res="8.5181565955281258e-03" rms="4.9370446801185608e-01" purity="5.4192686080932617e-01" nType="-99"/>
          </Node>
        </Node>
      </Node>
    </BinaryTree>
    <BinaryTree type="DecisionTree" boostWeight="1.0000000000000000e+00" itree="4">
      <Node pos="s" depth="0" NCoef="0" IVar="2" Cut="1.7826315307617188e+02" cType="1" res="9.1365985572338104e-03" rms="4.7094202041625977e-01" purity="4.9682497978210449e-01" nType="0">
        <Node pos="l" depth="1" NCoef="0" IVar="0" Cut="4.7565925121307373e-01" cType="1" res="-5.3122777491807938e-02" rms="4.6985176205635071e-01" purity="4.1563344001770020e-01" nType="0">
          <Node pos="l" depth="2" NCoef="0" IVar="3" Cut="6.1236328125000000e+01" cType="1" res="-1.9817107915878296e-01" rms="4.2644628882408142e-01" purity="2.4716256558895111e-01" nType="0">
            <Node pos="l" depth="3" NCoef="0" IVar="-1" Cut="0.0000000000000000e+00" cType="1" res="-5.6833017617464066e-02" rms="3.9080578088760376e-01" purity="1.8942384421825409e-01" nType="-99"/>
            <Node pos="r" depth="3" NCoef="0" IVar="-1" Cut="0.0000000000000000e+00" cType="1" res="-5.8329263702034950e-03" rms="4.9078783392906189e-01" purity="4.3533119559288025e-01" nType="-99"/>
          </Node>
          <Node pos="r" depth="2" NCoef="0" IVar="1" Cut="4.7583597898483276e-01" cType="1" res="8.5991835221648216e-03" rms="4.7387048602104187e-01" purity="4.8732233047485352e-01" nType="0">
            <Node pos="l" depth="3" NCoef="0" IVar="-1" Cut="0.0000000000000000e+00" cType="1" res="-4.1680570691823959e-02" rms="4.2150357365608215e-01" purity="2.4657699465751648e-01" nType="-99"/>
            <Node pos="r" depth="3" NCoef="0" IVar="-1" Cut="0.0000000000000000e+00" cType="1" res="2.8918309137225151e-02" rms="4.4080850481987000e-01" purity="7.1292376518249512e-01" nType="-99"/>
          </Node>
        </Node>
        <Node pos="r" depth="1" NCoef="0" IVar="5" Cut="8.3683509826660156e+01" cType="1" res="2.0707669854164124e-01" rms="4.1658544540405273e-01" purity="7.5495570898056030e-01" nType="0">
          <Node pos="l" depth="2" NCoef="0" IVar="3" Cut="6.1273052215576172e+01" cType="1" res="2.6395958662033081e-01" rms="3.7262797355651855e-01" purity="8.2386249303817749e-01" nType="0">
            <Node pos="l" depth="3" NCoef="0" IVar="-1" Cut="0.0000000000000000e+00" cType="1" res="2.6104481890797615e-02" rms="4.3406602740287781e-01" purity="7.3201513290405273e-01" nType="-99"/>
            <Node pos="r" depth="3" NCoef="0" IVar="-1" Cut="0.0000000000000000e+00" cType="1" res="4.4440332800149918e-02" rms="2.8371524810791016e-01" purity="9.0887844562530518e-01" nType="-99"/>
          </Node>
          <Node pos="r" depth="2" NCoef="0" IVar="-1" Cut="0.0000000000000000e+00" cType="1" res="-4.0555223822593689e-03" rms="4.9788764119148254e-01" purity="4.7556576132774353e-01" nType="-99"/>
        </Node>
      </Node>
    </BinaryTree>
    <BinaryTree type="DecisionTree" boostWeight="1.0000000000000000e+00" itree="5">
      <Node pos="s" depth="0" NCoef="0" IVar="3" Cut="6.1273052215576172e+01" cType="1" res="1.3384057208895683e-02" rms="4.6289333701133728e-01" purity="4.9800941348075867e-01" nType="0">
        <Node pos="l" depth="1" NCoef="0" IVar="1" Cut="4.7566375136375427e-01" cType="1" res="-5.8007225394248962e-02" rms="4.5913657546043396e-01" purity="4.1136172413825989e-01" nType="0">
          <Node pos="l" depth="2" NCoef="0" IVar="7" Cut="6.0260562896728516e+01" cType="1" res="-2.0553660392761230e-01" rms="4.0811473131179810e-01" purity="2.2222484648227692e-01" nType="0">
            <Node pos="l" depth="3" NCoef="0" IVar="-1" Cut="0.0000000000000000e+00" cType="1" res="-5.7440064847469330e-02" rms="3.7722304463386536e-01" purity="1.7815168201923370e-01" nType="-99"/>
            <Node pos="r" depth="3" NCoef="0" IVar="-1" Cut="0.0000000000000000e+00" cType="1" res="-2.5376690551638603e-02" rms="4.5398190617561340e-01" purity="3.1194904446601868e-01" nType="-99"/>
          </Node>
          <Node pos="r" depth="2" NCoef="0" IVar="0" Cut="4.7582188248634338e-01" cType="1" res="9.2951646074652672e-03" rms="4.6533194184303284e-01" purity="4.9764531850814819e-01" nType="0">
            <Node pos="l" depth="3" NCoef="0" IVar="-1" Cut="0.0000000000000000e+00" cType="1" res="-4.8017524182796478e-02" rms="4.0079492330551147e-01" purity="2.1388833224773407e-01" nType="-99"/>
            <Node pos="r" depth="3" NCoef="0" IVar="-1" Cut="0.0000000000000000e+00" cType="1" res="2.6241108775138855e-02" rms="4.3866899609565735e-01" purity="7.1302890777587891e-01" nType="-99"/>
          </Node>
        </Node>
        <Node pos="r" depth="1" NCoef="0" IVar="2" Cut="1.2192710113525391e+02" cType="1" res="1.7162041366100311e-01" rms="4.3082749843597412e-01" purity="6.9006097316741943e-01" nType="0">
          <Node pos="l" depth="2" NCoef="0" IVar="4" Cut="1.4745487976074219e+02" cType="1" res="4.3602667748928070e-02" rms="4.7562119364738464e-01" purity="5.1128208637237549e-01" nType="0">
            <Node pos="l" depth="3" NCoef="0" IVar="-1" Cut="0.0000000000000000e+00" cType="1" res="-1.2115468271076679e-02" rms="4.7027966380119324e-01" purity="3.7658676505088806e-01" nType="-99"/>
            <Node pos="r" depth="3" NCoef="0" IVar="-1" Cut="0.0000000000000000e+00" cType="1" res="1.9230352714657784e-02" rms="4.6407675743103027e-01" purity="6.1042284965515137e-01" nType="-99"/>
          </Node>
          <Node pos="r" depth="2" NCoef="0" IVar="4" Cut="1.5658197021484375e+02" cType="1" res="2.6164177060127258e-01" rms="3.7071847915649414e-01" purity="8.1577730178833008e-01" nType="0">
            <Node pos="l" depth="3" NCoef="0" IVar="-1" Cut="0.0000000000000000e+00" cType="1" res="2.7095332741737366e-02" rms="4.3172356486320496e-01" purity="7.2136312723159790e-01" nType="-99"/>
            <Node pos="r" depth="3" NCoef="0" IVar="-1" Cut="0.0000000000000000e+00" cType="1" res="4.0518701076507568e-02" rms="3.2845953106880188e-01" purity="8.6400401592254639e-01" nType="-99"/>
          </Node>
        </Node>
      </Node>
    </BinaryTree>
    <BinaryTree type="DecisionTree" boostWeight="1.0000000000000000e+00" itree="6">
      <Node pos="s" depth="0" NCoef="0" IVar="2" Cut="1.1884210205078125e+02" cType="1" res="1.5890933573246002e-02" rms="4.5496830344200134e-01" purity="4.9915418028831482e-01" nType="0">
        <Node pos="l" depth="1" NCoef="0" IVar="1" Cut="4.7567787766456604e-01" cType="1" res="-7.6946973800659180e-02" rms="4.4923472404479980e-01" purity="3.6456829309463501e-01" nType="0">
          <Node pos="l" depth="2" NCoef="0" IVar="7" Cut="4.3510227203369141e+01" cType="1" res="-1.7901858687400818e-01" rms="4.0340554714202881e-01" purity="2.0982114970684052e-01" nType="0">
            <Node pos="l" depth="3" NCoef="0" IVar="-1" Cut="0.0000000000000000e+00" cType="1" res="-5.6251879781484604e-02" rms="3.5867217183113098e-01" purity="1.5518282353878021e-01" nType="-99"/>
            <Node pos="r" depth="3" NCoef="0" IVar="-1" Cut="0.0000000000000000e+00" cType="1" res="-2.8635006397962570e-02" rms="4.3675273656845093e-01" purity="2.6221373677253723e-01" nType="-99"/>
          </Node>
          <Node pos="r" depth="2" NCoef="0" IVar="0" Cut="4.7573044896125793e-01" cType="1" res="-1.4630094170570374e-02" rms="4.6413820981979370e-01" purity="4.5904466509819031e-01" nType="0">
            <Node pos="l" depth="3" NCoef="0" IVar="-1" Cut="0.0000000000000000e+00" cType="1" res="-4.3609708547592163e-02" rms="3.9968568086624146e-01" purity="2.1157477796077728e-01" nType="-99"/>
            <Node pos="r" depth="3" NCoef="0" IVar="-1" Cut="0.0000000000000000e+00" cType="1" res="1.9487576559185982e-02" rms="4.6394619345664978e-01" purity="6.6073715686798096e-01" nType="-99"/>
          </Node>
        </Node>
        <Node pos="r" depth="1" NCoef="0" IVar="0" Cut="4.7570568323135376e-01" cType="1" res="1.3015469908714294e-01" rms="4.3556022644042969e-01" purity="6.6480088233947754e-01" nType="0">
          <Node pos="l" depth="2" NCoef="0" IVar="7" Cut="5.4174457550048828e+01" cType="1" res="-3.8749843835830688e-02" rms="4.7094824910163879e-01" purity="4.3489950895309448e-01" nType="0">
            <Node pos="l" depth="3" NCoef="0" IVar="-1" Cut="0.0000000000000000e+00" cType="1" res="-3.2267399132251740e-02" rms="4.3600702285766602e-01" purity="3.0439952015876770e-01" nType="-99"/>
            <Node pos="r" depth="3" NCoef="0" IVar="-1" Cut="0.0000000000000000e+00" cType="1" res="1.4801438897848129e-02" rms="4.7315543889999390e-01" purity="5.7727235555648804e-01" nType="-99"/>
          </Node>
          <Node pos="r" depth="2" NCoef="0" IVar="1" Cut="4.7565516829490662e-01" cType="1" res="1.9497032463550568e-01" rms="4.0280732512474060e-01" purity="7.5302350521087646e-01" nType="0">
            <Node pos="l" depth="3" NCoef="0" IVar="-1" Cut="0.0000000000000000e+00" cType="1" res="4.2715645395219326e-03" rms="4.7218886017799377e-01" purity="5.2635580301284790e-01" nType="-99"/>
            <Node pos="r" depth="3" NCoef="0" IVar="-1" Cut="0.0000000000000000e+00" cType="1" res="3.7238795310258865e-02" rms="3.3986100554466248e-01" purity="8.5629135370254517e-01" nType="-99"/>
          </Node>
        </Node>
      </Node>
    </BinaryTree>
    <BinaryTree type="DecisionTree" boostWeight="1.0000000000000000e+00" itree="7">
      <Node pos="s" depth="0" NCoef="0" IVar="5" Cut="7.5849899291992188e+01" cType="1" res="1.6986282542347908e-02" rms="4.5019543170928955e-01" purity="4.9804642796516418e-01" nType="0">
        <Node pos="l" depth="1" NCoef="0" IVar="3" Cut="6.1273052215576172e+01" cType="1" res="8.5556507110595703e-02" rms="4.4574943184852600e-01" purity="6.0762572288513184e-01" nType="0">
          <Node pos="l" depth="2" NCoef="0" IVar="1" Cut="4.7583597898483276e-01" cType="1" res="1.5456870198249817e-02" rms="4.5842584967613220e-01" purity="5.1616299152374268e-01" nType="0">
            <Node pos="l" depth="3" NCoef="0" IVar="-1" Cut="0.0000000000000000e+00" cType="1" res="-2.8244940564036369e-02" rms="4.4323003292083740e-01" purity="2.8915661573410034e-01" nType="-99"/>
            <Node pos="r" depth="3" NCoef="0" IVar="-1" Cut="0.0000000000000000e+00" cType="1" res="1.1658404953777790e-02" rms="4.5126557350158691e-01" purity="6.0162770748138428e-01" nType="-99"/>
          </Node>
          <Node pos="r" depth="2" NCoef="0" IVar="2" Cut="1.2192710113525391e+02" cType="1" res="2.0028014481067657e-01" rms="3.9841055870056152e-01" purity="7.5731176137924194e-01" nType="0">
            <Node pos="l" depth="3" NCoef="0" IVar="-1" Cut="0.0000000000000000e+00" cType="1" res="1.6223553568124771e-02" rms="4.6529775857925415e-01" purity="5.9490084648132324e-01" nType="-99"/>
            <Node pos="r" depth="3" NCoef="0" IVar="-1" Cut="0.0000000000000000e+00" cType="1" res="3.6426983773708344e-02" rms="3.3340740203857422e-01" purity="8.6190724372863770e-01" nType="-99"/>
          </Node>
        </Node>
        <Node pos="r" depth="1" NCoef="0" IVar="7" Cut="5.5766250610351562e+01" cType="1" res="-1.0990989208221436e-01" rms="4.3039935827255249e-01" purity="2.9525882005691528e-01" nType="0">
          <Node pos="l" depth="2" NCoef="0" IVar="0" Cut="4.7568854689598083e-01" cType="1" res="-1.5561132133007050e-01" rms="4.0232974290847778e-01" purity="2.3711080849170685e-01" nType="0">
            <Node pos="l" depth="3" NCoef="0" IVar="-1" Cut="0.0000000000000000e+00" cType="1" res="-5.6536763906478882e-02" rms="3.4891724586486816e-01" purity="1.4313700795173645e-01" nType="-99"/>
            <Node pos="r" depth="3" NCoef="0" IVar="-1" Cut="0.0000000000000000e+00" cType="1" res="-2.5280090048909187e-02" rms="4.2529144883155823e-01" purity="2.9030874371528625e-01" nType="-99"/>
          </Node>
          <Node pos="r" depth="2" NCoef="0" IVar="2" Cut="9.0206199645996094e+01" cType="1" res="-2.9589053243398666e-02" rms="4.6497544646263123e-01" purity="3.9745467901229858e-01" nType="0">
            <Node pos="l" depth="3" NCoef="0" IVar="-1" Cut="0.0000000000000000e+00" cType="1" res="-2.1757336333394051e-02" rms="4.3485718965530396e-01" purity="2.8066381812095642e-01" nType="-99"/>
            <Node pos="r" depth="3" NCoef="0" IVar="-1" Cut="0.0000000000000000e+00" cType="1" res="3.9781546220183372e-03" rms="4.7957670688629150e-01" purity="4.8448121547698975e-01" nType="-99"/>
          </Node>
        </Node>
      </Node>
    </BinaryTree>
    <BinaryTree type="DecisionTree" boostWeight="1.0000000000000000e+00" itree="8">
      <Node pos="s" depth="0" NCoef="0" IVar="2" Cut="1.3793373107910156e+02" cType="1" res="2.6005381718277931e-02" rms="4.4510328769683838e-01" purity="5.0761651992797852e-01" nType="0">
        <Node pos="l" depth="1" NCoef="0" IVar="1" Cut="4.7566375136375427e-01" cType="1" res="-4.2910244315862656e-02" rms="4.4640552997589111e-01" purity="3.9118927717208862e-01" nType="0">
          <Node pos="l" depth="2" NCoef="0" IVar="3" Cut="6.2172851562500000e+01" cType="1" res="-1.3566590845584869e-01" rms="4.1582506895065308e-01" purity="2.3102086782455444e-01" nType="0">
            <Node pos="l" depth="3" NCoef="0" IVar="-1" Cut="0.0000000000000000e+00" cType="1" res="-3.9209995418787003e-02" rms="3.9411878585815430e-01" purity="1.9438251852989197e-01" nType="-99"/>
            <Node pos="r" depth="3" NCoef="0" IVar="-1" Cut="0.0000000000000000e+00" cType="1" res="-1.0810825042426586e-02" rms="4.7029742598533630e-01" purity="3.4981206059455872e-01" nType="-99"/>
          </Node>
          <Node pos="r" depth="2" NCoef="0" IVar="0" Cut="4.7573044896125793e-01" cType="1" res="9.1898115351796150e-03" rms="4.5446810126304626e-01" purity="4.8115441203117371e-01" nType="0">
            <Node pos="l" depth="3" NCoef="0" IVar="-1" Cut="0.0000000000000000e+00" cType="1" res="-3.9869870990514755e-02" rms="3.9460900425910950e-01" purity="2.0891124010086060e-01" nType="-99"/>
            <Node pos="r" depth="3" NCoef="0" IVar="-1" Cut="0.0000000000000000e+00" cType="1" res="2.2447828203439713e-02" rms="4.4909849762916565e-01" purity="6.9643098115921021e-01" nType="-99"/>
          </Node>
        </Node>
        <Node pos="r" depth="1" NCoef="0" IVar="5" Cut="7.5782417297363281e+01" cType="1" res="1.4129270613193512e-01" rms="4.1825652122497559e-01" purity="7.0238506793975830e-01" nType="0">
          <Node pos="l" depth="2" NCoef="0" IVar="2" Cut="2.5616271972656250e+02" cType="1" res="1.9792394340038300e-01" rms="3.8098156452178955e-01" purity="7.8888535499572754e-01" nType="0">
            <Node pos="l" depth="3" NCoef="0" IVar="-1" Cut="0.0000000000000000e+00" cType="1" res="2.2882092744112015e-02" rms="4.1439220309257507e-01" purity="7.3259323835372925e-01" nType="-99"/>
            <Node pos="r" depth="3" NCoef="0" IVar="-1" Cut="0.0000000000000000e+00" cType="1" res="3.9925798773765564e-02" rms="2.7620965242385864e-01" purity="9.0650671720504761e-01" nType="-99"/>
          </Node>
          <Node pos="r" depth="2" NCoef="0" IVar="2" Cut="1.9167318725585938e+02" cType="1" res="-2.2207556292414665e-02" rms="4.7429770231246948e-01" purity="4.5264977216720581e-01" nType="0">
            <Node pos="l" depth="3" NCoef="0" IVar="-1" Cut="0.0000000000000000e+00" cType="1" res="-1.1981703341007233e-02" rms="4.6241617202758789e-01" purity="3.7968549132347107e-01" nType="-99"/>
            <Node pos="r" depth="3" NCoef="0" IVar="-1" Cut="0.0000000000000000e+00" cType="1" res="2.8718376997858286e-03" rms="4.8232966661453247e-01" purity="5.2366721630096436e-01" nType="-99"/>
          </Node>
        </Node>
      </Node>
    </BinaryTree>
    <BinaryTree type="DecisionTree" boostWeight="1.0000000000000000e+00" itree="9">
      <Node pos="s" depth="0" NCoef="0" IVar="3" Cut="6.1273052215576172e+01" cType="1" res="2.1737130358815193e-02" rms="4.4154912233352661e-01" purity="5.0110632181167603e-01" nType="0">
        <Node pos="l" depth="1" NCoef="0" IVar="4" Cut="1.6855380249023438e+02" cType="1" res="-3.3938098698854446e-02" rms="4.4196516275405884e-01" purity="4.1548559069633484e-01" nType="0">
          <Node pos="l" depth="2" NCoef="0" IVar="1" Cut="4.7583597898483276e-01" cType="1" res="-1.1782664805650711e-02" rms="4.4350206851959229e-01" purity="4.3804547190666199e-01" nType="0">
            <Node pos="l" depth="3" NCoef="0" IVar="-1" Cut="0.0000000000000000e+00" cType="1" res="-2.9951145872473717e-02" rms="4.1431501507759094e-01" purity="2.3548711836338043e-01" nType="-99"/>
            <Node pos="r" depth="3" NCoef="0" IVar="-1" Cut="0.0000000000000000e+00" cType="1" res="7.4177309870719910e-03" rms="4.4627130031585693e-01" purity="5.3331673145294189e-01" nType="-99"/>
          </Node>
          <Node pos="r" depth="2" NCoef="0" IVar="-1" Cut="0.0000000000000000e+00" cType="1" res="-7.1362756192684174e-02" rms="3.2953041791915894e-01" purity="1.5513627231121063e-01" nType="-99"/>
        </Node>
        <Node pos="r" depth="1" NCoef="0" IVar="3" Cut="9.7749771118164062e+01" cType="1" res="1.4256662130355835e-01" rms="4.1574144363403320e-01" purity="6.8692499399185181e-01" nType="0">
          <Node pos="l" depth="2" NCoef="0" IVar="4" Cut="1.4836912536621094e+02" cType="1" res="1.8411929905414581e-01" rms="3.9702096581459045e-01" purity="7.3406463861465454e-01" nType="0">
            <Node pos="l" depth="3" NCoef="0" IVar="-1" Cut="0.0000000000000000e+00" cType="1" res="1.1680746451020241e-02" rms="4.5875734090805054e-01" purity="5.6306308507919312e-01" nType="-99"/>
            <Node pos="r" depth="3" NCoef="0" IVar="-1" Cut="0.0000000000000000e+00" cType="1" res="3.4927260130643845e-02" rms="3.4600231051445007e-01" purity="8.2304155826568604e-01" nType="-99"/>
          </Node>
          <Node pos="r" depth="2" NCoef="0" IVar="-1" Cut="0.0000000000000000e+00" cType="1" res="-7.5309225358068943e-03" rms="4.4576963782310486e-01" purity="4.7808763384819031e-01" nType="-99"/>
        </Node>
      </Node>
    </BinaryTree>
    <BinaryTree type="DecisionTree" boostWeight="1.0000000000000000e+00" itree="10">
      <Node pos="s" depth="0" NCoef="0" IVar="5" Cut="6.9201919555664062e+01" cType="1" res="2.5281928479671478e-02" rms="4.3774914741516113e-01" purity="5.0590890645980835e-01" nType="0">
        <Node pos="l" depth="1" NCoef="0" IVar="2" Cut="1.3530929565429688e+02" cType="1" res="8.8559359312057495e-02" rms="4.3167757987976074e-01" purity="6.2629705667495728e-01" nType="0">
          <Node pos="l" depth="2" NCoef="0" IVar="0" Cut="4.7582188248634338e-01" cType="1" res="2.2074544802308083e-02" rms="4.5590561628341675e-01" purity="5.0479567050933838e-01" nType="0">
            <Node pos="l" depth="3" NCoef="0" IVar="-1" Cut="0.0000000000000000e+00" cType="1" res="-2.2359265014529228e-02" rms="4.5232921838760376e-01" purity="3.0587601661682129e-01" nType="-99"/>
            <Node pos="r" depth="3" NCoef="0" IVar="-1" Cut="0.0000000000000000e+00" cType="1" res="1.1163007467985153e-02" rms="4.4858074188232422e-01" purity="5.7256913185119629e-01" nType="-99"/>
          </Node>
          <Node pos="r" depth="2" NCoef="0" IVar="2" Cut="2.1266192626953125e+02" cType="1" res="1.7443297803401947e-01" rms="3.8142663240432739e-01" purity="7.8323161602020264e-01" nType="0">
            <Node pos="l" depth="3" NCoef="0" IVar="-1" Cut="0.0000000000000000e+00" cType="1" res="1.7724903300404549e-02" rms="4.2507502436637878e-01" purity="7.0262986421585083e-01" nType="-99"/>
            <Node pos="r" depth="3" NCoef="0" IVar="-1" Cut="0.0000000000000000e+00" cType="1" res="3.4782037138938904e-02" rms="3.0909949541091919e-01" purity="8.7682938575744629e-01" nType="-99"/>
          </Node>
        </Node>
        <Node pos="r" depth="1" NCoef="0" IVar="7" Cut="5.4174457550048828e+01" cType="1" res="-6.8849213421344757e-02" rms="4.2972078919410706e-01" purity="3.2682019472122192e-01" nType="0">
          <Node pos="l" depth="2" NCoef="0" IVar="0" Cut="4.7565013170242310e-01" cType="1" res="-1.1958916485309601e-01" rms="4.0356636047363281e-01" purity="2.5914618372917175e-01" nType="0">
            <Node pos="l" depth="3" NCoef="0" IVar="-1" Cut="0.0000000000000000e+00" cType="1" res="-4.8985805362462997e-02" rms="3.4817424416542053e-01" purity="1.5003658831119537e-01" nType="-99"/>
            <Node pos="r" depth="3" NCoef="0" IVar="-1" Cut="0.0000000000000000e+00" cType="1" res="-1.7952533438801765e-02" rms="4.2630138993263245e-01" purity="3.1760033965110779e-01" nType="-99"/>
          </Node>
          <Node pos="r" depth="2" NCoef="0" IVar="5" Cut="1.0886835479736328e+02" cType="1" res="6.3515161164104939e-03" rms="4.5551052689552307e-01" purity="4.2711865901947021e-01" nType="0">
            <Node pos="l" depth="3" NCoef="0" IVar="-1" Cut="0.0000000000000000e+00" cType="1" res="9.7517017275094986e-03" rms="4.5685082674026489e-01" purity="4.8635792732238770e-01" nType="-99"/>
            <Node pos="r" depth="3" NCoef="0" IVar="-1" Cut="0.0000000000000000e+00" cType="1" res="-2.2400109097361565e-02" rms="4.3293446302413940e-01" purity="2.9127722978591919e-01" nType="-99"/>
          </Node>
        </Node>
      </Node>
    </BinaryTree>
    <BinaryTree type="DecisionTree" boostWeight="1.0000000000000000e+00" itree="11">
      <Node pos="s" depth="0" NCoef="0" IVar="3" Cut="6.7750427246093750e+01" cType="1" res="2.1149942651391029e-02" rms="4.3591958284378052e-01" purity="4.9999737739562988e-01" nType="0">
        <Node pos="l" depth="1" NCoef="0" IVar="0" Cut="4.7568854689598083e-01" cType="1" res="-2.5492882356047630e-02" rms="4.3843960762023926e-01" purity="4.2049893736839294e-01" nType="0">
          <Node pos="l" depth="2" NCoef="0" IVar="0" Cut="-2.4279100820422173e-02" cType="1" res="-1.2397362291812897e-01" rms="4.1367670893669128e-01" purity="2.4499651789665222e-01" nType="0">
            <Node pos="l" depth="3" NCoef="0" IVar="-1" Cut="0.0000000000000000e+00" cType="1" res="-1.3751365244388580e-02" rms="4.4193473458290100e-01" purity="3.0628356337547302e-01" nType="-99"/>
            <Node pos="r" depth="3" NCoef="0" IVar="-1" Cut="0.0000000000000000e+00" cType="1" res="-4.2399249970912933e-02" rms="3.8184282183647156e-01" purity="1.9489318132400513e-01" nType="-99"/>
          </Node>
          <Node pos="r" depth="2" NCoef="0" IVar="1" Cut="4.7565335035324097e-01" cType="1" res="1.7819697037339211e-02" rms="4.4200474023818970e-01" purity="4.9768617749214172e-01" nType="0">
            <Node pos="l" depth="3" NCoef="0" IVar="-1" Cut="0.0000000000000000e+00" cType="1" res="-3.0560750514268875e-02" rms="4.0613204240798950e-01" purity="2.2922869026660919e-01" nType="-99"/>
            <Node pos="r" depth="3" NCoef="0" IVar="-1" Cut="0.0000000000000000e+00" cType="1" res="2.0608050748705864e-02" rms="4.3441760540008545e-01" purity="7.1519434452056885e-01" nType="-99"/>
          </Node>
        </Node>
        <Node pos="r" depth="1" NCoef="0" IVar="2" Cut="9.3705482482910156e+01" cType="1" res="1.3858276605606079e-01" rms="4.0646094083786011e-01" purity="7.0015108585357666e-01" nType="0">
          <Node pos="l" depth="2" NCoef="0" IVar="-1" Cut="0.0000000000000000e+00" cType="1" res="4.8428957234136760e-04" rms="4.5500758290290833e-01" purity="4.6729576587677002e-01" nType="-99"/>
          <Node pos="r" depth="2" NCoef="0" IVar="0" Cut="4.7564244270324707e-01" cType="1" res="1.9186979532241821e-01" rms="3.7246602773666382e-01" purity="7.9145443439483643e-01" nType="0">
            <Node pos="l" depth="3" NCoef="0" IVar="-1" Cut="0.0000000000000000e+00" cType="1" res="1.5084411948919296e-02" rms="4.5016071200370789e-01" purity="6.4079952239990234e-01" nType="-99"/>
            <Node pos="r" depth="3" NCoef="0" IVar="-1" Cut="0.0000000000000000e+00" cType="1" res="3.3069696277379990e-02" rms="3.3462864160537720e-01" purity="8.4401595592498779e-01" nType="-99"/>
          </Node>
        </Node>
      </Node>
    </BinaryTree>
    <BinaryTree type="DecisionTree" boostWeight="1.0000000000000000e+00" itree="12">
      <Node pos="s" depth="0" NCoef="0" IVar="2" Cut="1.7826315307617188e+02" cType="1" res="2.6540545746684074e-02" rms="4.3004763126373291e-01" purity="5.0753039121627808e-01" nType="0">
        <Node pos="l" depth="1" NCoef="0" IVar="7" Cut="5.2835788726806641e+01" cType="1" res="-1.8539182841777802e-02" rms="4.3677324056625366e-01" purity="4.1996595263481140e-01" nType="0">
          <Node pos="l" depth="2" NCoef="0" IVar="0" Cut="4.7567334771156311e-01" cType="1" res="-6.6378273069858551e-02" rms="4.2592331767082214e-01" purity="3.5806015133857727e-01" nType="0">
            <Node pos="l" depth="3" NCoef="0" IVar="-1" Cut="0.0000000000000000e+00" cType="1" res="-3.8557611405849457e-02" rms="3.8021108508110046e-01" purity="1.8936635553836823e-01" nType="-99"/>
            <Node pos="r" depth="3" NCoef="0" IVar="-1" Cut="0.0000000000000000e+00" cType="1" res="-5.6337029673159122e-03" rms="4.3922340869903564e-01" purity="4.3160724639892578e-01" nType="-99"/>
          </Node>
          <Node pos="r" depth="2" NCoef="0" IVar="5" Cut="6.0034748077392578e+01" cType="1" res="5.1972664892673492e-02" rms="4.4296962022781372e-01" purity="5.1121121644973755e-01" nType="0">
            <Node pos="l" depth="3" NCoef="0" IVar="-1" Cut="0.0000000000000000e+00" cType="1" res="2.1143293008208275e-02" rms="4.3071478605270386e-01" purity="6.5218460559844971e-01" nType="-99"/>
            <Node pos="r" depth="3" NCoef="0" IVar="-1" Cut="0.0000000000000000e+00" cType="1" res="-6.2709068879485130e-03" rms="4.4030174612998962e-01" purity="3.6553040146827698e-01" nType="-99"/>
          </Node>
        </Node>
        <Node pos="r" depth="1" NCoef="0" IVar="5" Cut="8.2518676757812500e+01" cType="1" res="1.6395168006420135e-01" rms="3.7695363163948059e-01" purity="7.7444267272949219e-01" nType="0">
          <Node pos="l" depth="2" NCoef="0" IVar="3" Cut="5.1060878753662109e+01" cType="1" res="1.9877183437347412e-01" rms="3.4081220626831055e-01" purity="8.3857125043869019e-01" nType="0">
            <Node pos="l" depth="3" NCoef="0" IVar="-1" Cut="0.0000000000000000e+00" cType="1" res="2.2658763453364372e-02" rms="4.0572944283485413e-01" purity="7.4483001232147217e-01" nType="-99"/>
            <Node pos="r" depth="3" NCoef="0" IVar="-1" Cut="0.0000000000000000e+00" cType="1" res="3.4809779375791550e-02" rms="2.7417683601379395e-01" purity="9.1144412755966187e-01" nType="-99"/>
          </Node>
          <Node pos="r" depth="2" NCoef="0" IVar="-1" Cut="0.0000000000000000e+00" cType="1" res="3.2805083319544792e-03" rms="4.7319117188453674e-01" purity="5.0798869132995605e-01" nType="-99"/>
        </Node>
      </Node>
    </BinaryTree>
    <BinaryTree type="DecisionTree" boostWeight="1.0000000000000000e+00" itree="13">
      <Node pos="s" depth="0" NCoef="0" IVar="2" Cut="1.3530929565429688e+02" cType="1" res="1.9132716581225395e-02" rms="4.2876079678535461e-01" purity="5.0055861473083496e-01" nType="0">
        <Node pos="l" depth="1" NCoef="0" IVar="5" Cut="6.5471687316894531e+01" cType="1" res="-3.5708613693714142e-02" rms="4.3131288886070251e-01" purity="3.8062283396720886e-01" nType="0">
          <Node pos="l" depth="2" NCoef="0" IVar="0" Cut="4.7582188248634338e-01" cType="1" res="1.7801677808165550e-02" rms="4.4785407185554504e-01" purity="5.0226998329162598e-01" nType="0">
            <Node pos="l" depth="3" NCoef="0" IVar="-1" Cut="0.0000000000000000e+00" cType="1" res="-2.3069081827998161e-02" rms="4.3707138299942017e-01" purity="2.8222927451133728e-01" nType="-99"/>
            <Node pos="r" depth="3" NCoef="0" IVar="-1" Cut="0.0000000000000000e+00" cType="1" res="1.0138843208551407e-02" rms="4.4362980127334595e-01" purity="5.7664471864700317e-01" nType="-99"/>
          </Node>
          <Node pos="r" depth="2" NCoef="0" IVar="4" Cut="1.7276426315307617e+01" cType="1" res="-9.2654034495353699e-02" rms="4.0529593825340271e-01" purity="2.5116643309593201e-01" nType="0">
            <Node pos="l" depth="3" NCoef="0" IVar="-1" Cut="0.0000000000000000e+00" cType="1" res="1.2624993687495589e-03" rms="4.4318839907646179e-01" purity="3.3569991588592529e-01" nType="-99"/>
            <Node pos="r" depth="3" NCoef="0" IVar="-1" Cut="0.0000000000000000e+00" cType="1" res="-3.3135920763015747e-02" rms="3.8042867183685303e-01" purity="2.1519680321216583e-01" nType="-99"/>
          </Node>
        </Node>
        <Node pos="r" depth="1" NCoef="0" IVar="5" Cut="8.3683509826660156e+01" cType="1" res="1.0567077994346619e-01" rms="4.1004574298858643e-01" purity="6.8981379270553589e-01" nType="0">
          <Node pos="l" depth="2" NCoef="0" IVar="2" Cut="2.4393891906738281e+02" cType="1" res="1.4388474822044373e-01" rms="3.8531181216239929e-01" purity="7.6504820585250854e-01" nType="0">
            <Node pos="l" depth="3" NCoef="0" IVar="-1" Cut="0.0000000000000000e+00" cType="1" res="1.6344534233212471e-02" rms="4.1814997792243958e-01" purity="7.0236772298812866e-01" nType="-99"/>
            <Node pos="r" depth="3" NCoef="0" IVar="-1" Cut="0.0000000000000000e+00" cType="1" res="3.4068197011947632e-02" rms="2.8809803724288940e-01" purity="8.9475059509277344e-01" nType="-99"/>
          </Node>
          <Node pos="r" depth="2" NCoef="0" IVar="-1" Cut="0.0000000000000000e+00" cType="1" res="-6.0819163918495178e-03" rms="4.6359431743621826e-01" purity="4.1755196452140808e-01" nType="-99"/>
        </Node>
      </Node>
    </BinaryTree>
    <BinaryTree type="DecisionTree" boostWeight="1.0000000000000000e+00" itree="14">
      <Node pos="s" depth="0" NCoef="0" IVar="2" Cut="1.3530929565429688e+02" cType="1" res="1.9790623337030411e-02" rms="4.2796665430068970e-01" purity="4.9759241938591003e-01" nType="0">
        <Node pos="l" depth="1" NCoef="0" IVar="1" Cut="4.7583597898483276e-01" cType="1" res="-3.1250078231096268e-02" rms="4.3262484669685364e-01" purity="3.7828692793846130e-01" nType="0">
          <Node pos="l" depth="2" NCoef="0" IVar="1" Cut="-2.4279100820422173e-02" cType="1" res="-1.0269849002361298e-01" rms="4.0903592109680176e-01" purity="2.2682569921016693e-01" nType="0">
            <Node pos="l" depth="3" NCoef="0" IVar="-1" Cut="0.0000000000000000e+00" cType="1" res="-1.3701975345611572e-02" rms="4.3851530551910400e-01" purity="2.7389901876449585e-01" nType="-99"/>
            <Node pos="r" depth="3" NCoef="0" IVar="-1" Cut="0.0000000000000000e+00" cType="1" res="-3.8545910269021988e-02" rms="3.7064787745475769e-01" purity="1.7820408940315247e-01" nType="-99"/>
          </Node>
          <Node pos="r" depth="2" NCoef="0" IVar="0" Cut="4.7573044896125793e-01" cType="1" res="9.9144987761974335e-03" rms="4.4041720032691956e-01" purity="4.6555042266845703e-01" nType="0">
            <Node pos="l" depth="3" NCoef="0" IVar="-1" Cut="0.0000000000000000e+00" cType="1" res="-2.3828594014048576e-02" rms="3.9973893761634827e-01" purity="2.2550265491008759e-01" nType="-99"/>
            <Node pos="r" depth="3" NCoef="0" IVar="-1" Cut="0.0000000000000000e+00" cType="1" res="1.5402615070343018e-02" rms="4.5342618227005005e-01" purity="6.6871470212936401e-01" nType="-99"/>
          </Node>
        </Node>
        <Node pos="r" depth="1" NCoef="0" IVar="0" Cut="4.7568854689598083e-01" cType="1" res="1.0279247909784317e-01" rms="4.0682995319366455e-01" purity="6.9160580635070801e-01" nType="0">
          <Node pos="l" depth="2" NCoef="0" IVar="0" Cut="-2.4279100820422173e-02" cType="1" res="-2.0453324541449547e-02" rms="4.5749938488006592e-01" purity="4.7570776939392090e-01" nType="0">
            <Node pos="l" depth="3" NCoef="0" IVar="-1" Cut="0.0000000000000000e+00" cType="1" res="1.2477853335440159e-02" rms="4.5399492979049683e-01" purity="5.9055119752883911e-01" nType="-99"/>
            <Node pos="r" depth="3" NCoef="0" IVar="-1" Cut="0.0000000000000000e+00" cType="1" res="-2.5025492534041405e-02" rms="4.3838340044021606e-01" purity="3.5075342655181885e-01" nType="-99"/>
          </Node>
          <Node pos="r" depth="2" NCoef="0" IVar="1" Cut="4.7566482424736023e-01" cType="1" res="1.5072815120220184e-01" rms="3.7452784180641174e-01" purity="7.7557802200317383e-01" nType="0">
            <Node pos="l" depth="3" NCoef="0" IVar="-1" Cut="0.0000000000000000e+00" cType="1" res="6.7461893195286393e-04" rms="4.5486792922019958e-01" purity="5.4515212774276733e-01" nType="-99"/>
            <Node pos="r" depth="3" NCoef="0" IVar="-1" Cut="0.0000000000000000e+00" cType="1" res="3.2206654548645020e-02" rms="3.1218218803405762e-01" purity="8.7659841775894165e-01" nType="-99"/>
          </Node>
        </Node>
      </Node>
    </BinaryTree>
    <BinaryTree type="DecisionTree" boostWeight="1.0000000000000000e+00" itree="15">
      <Node pos="s" depth="0" NCoef="0" IVar="3" Cut="6.1273052215576172e+01" cType="1" res="1.9777422770857811e-02" rms="4.2450988292694092e-01" purity="4.9786716699600220e-01" nType="0">
        <Node pos="l" depth="1" NCoef="0" IVar="4" Cut="1.5762065124511719e+02" cType="1" res="-2.1759830415248871e-02" rms="4.2657834291458130e-01" purity="4.1557648777961731e-01" nType="0">
          <Node pos="l" depth="2" NCoef="0" IVar="1" Cut="4.7566375136375427e-01" cType="1" res="-4.1922865784727037e-04" rms="4.2967060208320618e-01" purity="4.4018346071243286e-01" nType="0">
            <Node pos="l" depth="3" NCoef="0" IVar="-1" Cut="0.0000000000000000e+00" cType="1" res="-2.1587014198303223e-02" rms="4.1519585251808167e-01" purity="2.4117264151573181e-01" nType="-99"/>
            <Node pos="r" depth="3" NCoef="0" IVar="-1" Cut="0.0000000000000000e+00" cType="1" res="7.5584864243865013e-03" rms="4.3017673492431641e-01" purity="5.3641635179519653e-01" nType="-99"/>
          </Node>
          <Node pos="r" depth="2" NCoef="0" IVar="-1" Cut="0.0000000000000000e+00" cType="1" res="-4.7305677086114883e-02" rms="3.5759752988815308e-01" purity="2.1843421459197998e-01" nType="-99"/>
        </Node>
        <Node pos="r" depth="1" NCoef="0" IVar="3" Cut="9.7754806518554688e+01" cType="1" res="1.1266965419054031e-01" rms="4.0470257401466370e-01" purity="6.8189877271652222e-01" nType="0">
          <Node pos="l" depth="2" NCoef="0" IVar="4" Cut="1.4478111267089844e+02" cType="1" res="1.4511455595493317e-01" rms="3.9200434088706970e-01" purity="7.2284340858459473e-01" nType="0">
            <Node pos="l" depth="3" NCoef="0" IVar="-1" Cut="0.0000000000000000e+00" cType="1" res="8.4443269297480583e-03" rms="4.5589920878410339e-01" purity="5.4784798622131348e-01" nType="-99"/>
            <Node pos="r" depth="3" NCoef="0" IVar="-1" Cut="0.0000000000000000e+00" cType="1" res="2.9571020975708961e-02" rms="3.4941765666007996e-01" purity="8.0420625209808350e-01" nType="-99"/>
          </Node>
          <Node pos="r" depth="2" NCoef="0" IVar="-1" Cut="0.0000000000000000e+00" cType="1" res="-7.5152916833758354e-03" rms="4.2793917655944824e-01" purity="4.8946002125740051e-01" nType="-99"/>
        </Node>
      </Node>
    </BinaryTree>
    <BinaryTree type="DecisionTree" boostWeight="1.0000000000000000e+00" itree="16">
      <Node pos="s" depth="0" NCoef="0" IVar="2" Cut="1.9647348022460938e+02" cType="1" res="1.6868496313691139e-02" rms="4.2283731698989868e-01" purity="4.9279245734214783e-01" nType="0">
        <Node pos="l" depth="1" NCoef="0" IVar="5" Cut="5.9868362426757812e+01" cType="1" res="-1.2835279107093811e-02" rms="4.2972660064697266e-01" purity="4.2372339963912964e-01" nType="0">
          <Node pos="l" depth="2" NCoef="0" IVar="0" Cut="4.7582188248634338e-01" cType="1" res="3.9019700139760971e-02" rms="4.3756765127182007e-01" purity="5.5497699975967407e-01" nType="0">
            <Node pos="l" depth="3" NCoef="0" IVar="-1" Cut="0.0000000000000000e+00" cType="1" res="-1.3697896152734756e-02" rms="4.4914793968200684e-01" purity="3.3892610669136047e-01" nType="-99"/>
            <Node pos="r" depth="3" NCoef="0" IVar="-1" Cut="0.0000000000000000e+00" cType="1" res="1.2706696987152100e-02" rms="4.2754551768302917e-01" purity="6.2953907251358032e-01" nType="-99"/>
          </Node>
          <Node pos="r" depth="2" NCoef="0" IVar="7" Cut="6.6281906127929688e+01" cType="1" res="-6.0935717076063156e-02" rms="4.1659209132194519e-01" purity="3.0197313427925110e-01" nType="0">
            <Node pos="l" depth="3" NCoef="0" IVar="-1" Cut="0.0000000000000000e+00" cType="1" res="-2.0290408283472061e-02" rms="4.0216043591499329e-01" purity="2.6658332347869873e-01" nType="-99"/>
            <Node pos="r" depth="3" NCoef="0" IVar="-1" Cut="0.0000000000000000e+00" cType="1" res="5.4548849584534764e-04" rms="4.4685682654380798e-01" purity="3.9688295125961304e-01" nType="-99"/>
          </Node>
        </Node>
        <Node pos="r" depth="1" NCoef="0" IVar="5" Cut="5.0556945800781250e+01" cType="1" res="1.4178815484046936e-01" rms="3.6711657047271729e-01" purity="7.8326356410980225e-01" nType="0">
          <Node pos="l" depth="2" NCoef="0" IVar="-1" Cut="0.0000000000000000e+00" cType="1" res="3.0403288081288338e-02" rms="2.9300370812416077e-01" purity="8.8572907447814941e-01" nType="-99"/>
          <Node pos="r" depth="2" NCoef="0" IVar="-1" Cut="0.0000000000000000e+00" cType="1" res="1.4028102159500122e-02" rms="4.2619344592094421e-01" purity="6.7260444164276123e-01" nType="-99"/>
        </Node>
      </Node>
    </BinaryTree>
    <BinaryTree type="DecisionTree" boostWeight="1.0000000000000000e+00" itree="17">
      <Node pos="s" depth="0" NCoef="0" IVar="3" Cut="6.0456542968750000e+01" cType="1" res="1.9413180649280548e-02" rms="4.2237335443496704e-01" purity="4.9872133135795593e-01" nType="0">
        <Node pos="l" depth="1" NCoef="0" IVar="4" Cut="1.6457487487792969e+02" cType="1" res="-2.1529216319322586e-02" rms="4.2481651902198792e-01" purity="4.1207101941108704e-01" nType="0">
          <Node pos="l" depth="2" NCoef="0" IVar="1" Cut="4.7583597898483276e-01" cType="1" res="-3.3754757605493069e-03" rms="4.2820402979850769e-01" purity="4.3513098359107971e-01" nType="0">
            <Node pos="l" depth="3" NCoef="0" IVar="-1" Cut="0.0000000000000000e+00" cType="1" res="-2.3353572934865952e-02" rms="4.0765523910522461e-01" purity="2.2707970440387726e-01" nType="-99"/>
            <Node pos="r" depth="3" NCoef="0" IVar="-1" Cut="0.0000000000000000e+00" cType="1" res="7.3003759607672691e-03" rms="4.3133443593978882e-01" purity="5.3712153434753418e-01" nType="-99"/>
          </Node>
          <Node pos="r" depth="2" NCoef="0" IVar="-1" Cut="0.0000000000000000e+00" cType="1" res="-5.1245819777250290e-02" rms="3.4283527731895447e-01" purity="1.8671698868274689e-01" nType="-99"/>
        </Node>
        <Node pos="r" depth="1" NCoef="0" IVar="3" Cut="9.6453697204589844e+01" cType="1" res="1.0918095707893372e-01" rms="4.0265062451362610e-01" purity="6.8870544433593750e-01" nType="0">
          <Node pos="l" depth="2" NCoef="0" IVar="4" Cut="1.3795848083496094e+02" cType="1" res="1.4290988445281982e-01" rms="3.8894167542457581e-01" purity="7.3416024446487427e-01" nType="0">
            <Node pos="l" depth="3" NCoef="0" IVar="-1" Cut="0.0000000000000000e+00" cType="1" res="7.8372368589043617e-03" rms="4.5710986852645874e-01" purity="5.4630315303802490e-01" nType="-99"/>
            <Node pos="r" depth="3" NCoef="0" IVar="-1" Cut="0.0000000000000000e+00" cType="1" res="2.8984744101762772e-02" rms="3.5002470016479492e-01" purity="8.0988621711730957e-01" nType="-99"/>
          </Node>
          <Node pos="r" depth="2" NCoef="0" IVar="-1" Cut="0.0000000000000000e+00" cType="1" res="-5.6035374291241169e-03" rms="4.2759546637535095e-01" purity="5.0165128707885742e-01" nType="-99"/>
        </Node>
      </Node>
    </BinaryTree>
    <BinaryTree type="DecisionTree" boostWeight="1.0000000000000000e+00" itree="18">
      <Node pos="s" depth="0" NCoef="0" IVar="2" Cut="9.0206199645996094e+01" cType="1" res="2.2922500967979431e-02" rms="4.1704413294792175e-01" purity="5.0561231374740601e-01" nType="0">
        <Node pos="l" depth="1" NCoef="0" IVar="1" Cut="4.7567486763000488e-01" cType="1" res="-4.7114823013544083e-02" rms="4.1825446486473083e-01" purity="3.4266397356987000e-01" nType="0">
          <Node pos="l" depth="2" NCoef="0" IVar="8" Cut="9.4127887487411499e-01" cType="1" res="-1.0039178282022476e-01" rms="3.8789349794387817e-01" purity="1.9409036636352539e-01" nType="0">
            <Node pos="l" depth="3" NCoef="0" IVar="-1" Cut="0.0000000000000000e+00" cType="1" res="-4.2995024472475052e-02" rms="3.3834022283554077e-01" purity="1.3708513975143433e-01" nType="-99"/>
            <Node pos="r" depth="3" NCoef="0" IVar="-1" Cut="0.0000000000000000e+00" cType="1" res="-1.7994780093431473e-02" rms="4.1510486602783203e-01" purity="2.3233300447463989e-01" nType="-99"/>
          </Node>
          <Node pos="r" depth="2" NCoef="0" IVar="0" Cut="4.7567334771156311e-01" cType="1" res="-1.1249366216361523e-02" rms="4.3383896350860596e-01" purity="4.4268208742141724e-01" nType="0">
            <Node pos="l" depth="3" NCoef="0" IVar="-1" Cut="0.0000000000000000e+00" cType="1" res="-2.9868915677070618e-02" rms="3.7559959292411804e-01" purity="1.9235441088676453e-01" nType="-99"/>
            <Node pos="r" depth="3" NCoef="0" IVar="-1" Cut="0.0000000000000000e+00" cType="1" res="1.1159973219037056e-02" rms="4.5983186364173889e-01" purity="6.4427798986434937e-01" nType="-99"/>
          </Node>
        </Node>
        <Node pos="r" depth="1" NCoef="0" IVar="0" Cut="4.7582188248634338e-01" cType="1" res="6.8781323730945587e-02" rms="4.0981578826904297e-01" purity="6.1230719089508057e-01" nType="0">
          <Node pos="l" depth="2" NCoef="0" IVar="0" Cut="-2.3081842809915543e-02" cType="1" res="-2.7583993971347809e-02" rms="4.3672466278076172e-01" purity="3.9860829710960388e-01" nType="0">
            <Node pos="l" depth="3" NCoef="0" IVar="-1" Cut="0.0000000000000000e+00" cType="1" res="1.0703423060476780e-02" rms="4.4667825102806091e-01" purity="5.1846367120742798e-01" nType="-99"/>
            <Node pos="r" depth="3" NCoef="0" IVar="-1" Cut="0.0000000000000000e+00" cType="1" res="-2.6363870128989220e-02" rms="4.0846192836761475e-01" purity="2.7736178040504456e-01" nType="-99"/>
          </Node>
          <Node pos="r" depth="2" NCoef="0" IVar="1" Cut="4.7565516829490662e-01" cType="1" res="1.0932152718305588e-01" rms="3.9091643691062927e-01" purity="7.0220875740051270e-01" nType="0">
            <Node pos="l" depth="3" NCoef="0" IVar="-1" Cut="0.0000000000000000e+00" cType="1" res="-2.9278188012540340e-03" rms="4.4313710927963257e-01" purity="4.3684273958206177e-01" nType="-99"/>
            <Node pos="r" depth="3" NCoef="0" IVar="-1" Cut="0.0000000000000000e+00" cType="1" res="2.6788419112563133e-02" rms="3.4632760286331177e-01" purity="8.3321332931518555e-01" nType="-99"/>
          </Node>
        </Node>
      </Node>
    </BinaryTree>
    <BinaryTree type="DecisionTree" boostWeight="1.0000000000000000e+00" itree="19">
      <Node pos="s" depth="0" NCoef="0" IVar="5" Cut="8.4393653869628906e+01" cType="1" res="2.2239848971366882e-02" rms="4.1571763157844543e-01" purity="5.0276553630828857e-01" nType="0">
        <Node pos="l" depth="1" NCoef="0" IVar="7" Cut="5.4174457550048828e+01" cType="1" res="5.4350897669792175e-02" rms="4.1357970237731934e-01" purity="5.9076040983200073e-01" nType="0">
          <Node pos="l" depth="2" NCoef="0" IVar="3" Cut="6.0456542968750000e+01" cType="1" res="8.8316034525632858e-03" rms="4.2183855175971985e-01" purity="5.1755863428115845e-01" nType="0">
            <Node pos="l" depth="3" NCoef="0" IVar="-1" Cut="0.0000000000000000e+00" cType="1" res="-6.4535727724432945e-03" rms="4.2418912053108215e-01" purity="4.2792108654975891e-01" nType="-99"/>
            <Node pos="r" depth="3" NCoef="0" IVar="-1" Cut="0.0000000000000000e+00" cType="1" res="1.4533760026097298e-02" rms="4.0669152140617371e-01" purity="6.8599492311477661e-01" nType="-99"/>
          </Node>
          <Node pos="r" depth="2" NCoef="0" IVar="6" Cut="4.3814563751220703e+01" cType="1" res="1.1258166283369064e-01" rms="3.9519661664962769e-01" purity="6.8440413475036621e-01" nType="0">
            <Node pos="l" depth="3" NCoef="0" IVar="-1" Cut="0.0000000000000000e+00" cType="1" res="1.1711231432855129e-02" rms="4.1081109642982483e-01" purity="6.2250041961669922e-01" nType="-99"/>
            <Node pos="r" depth="3" NCoef="0" IVar="-1" Cut="0.0000000000000000e+00" cType="1" res="2.8081309050321579e-02" rms="3.6543884873390198e-01" purity="7.6451390981674194e-01" nType="-99"/>
          </Node>
        </Node>
        <Node pos="r" depth="1" NCoef="0" IVar="6" Cut="3.0533893585205078e+01" cType="1" res="-5.6535270065069199e-02" rms="4.1040903329849243e-01" purity="2.8689569234848022e-01" nType="0">
          <Node pos="l" depth="2" NCoef="0" IVar="8" Cut="2.1176729202270508e+00" cType="1" res="2.8683517128229141e-02" rms="4.4083920121192932e-01" purity="3.8343083858489990e-01" nType="0">
            <Node pos="l" depth="3" NCoef="0" IVar="-1" Cut="0.0000000000000000e+00" cType="1" res="-6.5712523646652699e-03" rms="4.2277970910072327e-01" purity="3.1010231375694275e-01" nType="-99"/>
            <Node pos="r" depth="3" NCoef="0" IVar="-1" Cut="0.0000000000000000e+00" cType="1" res="1.6196655109524727e-02" rms="4.5054534077644348e-01" purity="4.5157459378242493e-01" nType="-99"/>
          </Node>
          <Node pos="r" depth="2" NCoef="0" IVar="4" Cut="2.5369434356689453e+01" cType="1" res="-1.0098534077405930e-01" rms="3.8621297478675842e-01" purity="2.3654302954673767e-01" nType="0">
            <Node pos="l" depth="3" NCoef="0" IVar="-1" Cut="0.0000000000000000e+00" cType="1" res="-7.7228657901287079e-03" rms="4.0976130962371826e-01" purity="2.6800218224525452e-01" nType="-99"/>
            <Node pos="r" depth="3" NCoef="0" IVar="-1" Cut="0.0000000000000000e+00" cType="1" res="-3.0909707769751549e-02" rms="3.7526452541351318e-01" purity="2.2620974481105804e-01" nType="-99"/>
          </Node>
        </Node>
      </Node>
    </BinaryTree>
    <BinaryTree type="DecisionTree" boostWeight="1.0000000000000000e+00" itree="20">
      <Node pos="s" depth="0" NCoef="0" IVar="2" Cut="2.3768420410156250e+02" cType="1" res="1.5860587358474731e-02" rms="4.1535994410514832e-01" purity="4.9596732854843140e-01" nType="0">
        <Node pos="l" depth="1" NCoef="0" IVar="7" Cut="5.2835788726806641e+01" cType="1" res="-3.4029509406536818e-03" rms="4.2258083820343018e-01" purity="4.4776913523674011e-01" nType="0">
          <Node pos="l" depth="2" NCoef="0" IVar="0" Cut="4.7568854689598083e-01" cType="1" res="-4.3836303055286407e-02" rms="4.1451016068458557e-01" purity="3.8181209564208984e-01" nType="0">
            <Node pos="l" depth="3" NCoef="0" IVar="-1" Cut="0.0000000000000000e+00" cType="1" res="-2.7961574494838715e-02" rms="3.8255295157432556e-01" purity="2.0936526358127594e-01" nType="-99"/>
            <Node pos="r" depth="3" NCoef="0" IVar="-1" Cut="0.0000000000000000e+00" cType="1" res="-3.5782360937446356e-03" rms="4.2468476295471191e-01" purity="4.5493584871292114e-01" nType="-99"/>
          </Node>
          <Node pos="r" depth="2" NCoef="0" IVar="5" Cut="8.8520996093750000e+01" cType="1" res="5.3047407418489456e-02" rms="4.2724418640136719e-01" purity="5.3985393047332764e-01" nType="0">
            <Node pos="l" depth="3" NCoef="0" IVar="-1" Cut="0.0000000000000000e+00" cType="1" res="1.4415353536605835e-02" rms="4.2113655805587769e-01" purity="6.1744874715805054e-01" nType="-99"/>
            <Node pos="r" depth="3" NCoef="0" IVar="-1" Cut="0.0000000000000000e+00" cType="1" res="-6.7219459451735020e-03" rms="4.3322080373764038e-01" purity="3.2263267040252686e-01" nType="-99"/>
          </Node>
        </Node>
        <Node pos="r" depth="1" NCoef="0" IVar="5" Cut="5.3145343780517578e+01" cType="1" res="1.4673407375812531e-01" rms="3.3431646227836609e-01" purity="8.2341843843460083e-01" nType="0">
          <Node pos="l" depth="2" NCoef="0" IVar="-1" Cut="0.0000000000000000e+00" cType="1" res="2.9546828940510750e-02" rms="2.6873064041137695e-01" purity="9.0488487482070923e-01" nType="-99"/>
          <Node pos="r" depth="2" NCoef="0" IVar="-1" Cut="0.0000000000000000e+00" cType="1" res="1.8280187621712685e-02" rms="3.9977097511291504e-01" purity="7.1997809410095215e-01" nType="-99"/>
        </Node>
      </Node>
    </BinaryTree>
    <BinaryTree type="DecisionTree" boostWeight="1.0000000000000000e+00" itree="21">
      <Node pos="s" depth="0" NCoef="0" IVar="3" Cut="6.0456542968750000e+01" cType="1" res="2.0240379497408867e-02" rms="4.1351604461669922e-01" purity="5.0391066074371338e-01" nType="0">
        <Node pos="l" depth="1" NCoef="0" IVar="4" Cut="1.7366011047363281e+02" cType="1" res="-1.6509391367435455e-02" rms="4.1879448294639587e-01" purity="4.1311299800872803e-01" nType="0">
          <Node pos="l" depth="2" NCoef="0" IVar="4" Cut="9.0963684082031250e+01" cType="1" res="-2.7768558356910944e-03" rms="4.2286854982376099e-01" purity="4.3308037519454956e-01" nType="0">
            <Node pos="l" depth="3" NCoef="0" IVar="-1" Cut="0.0000000000000000e+00" cType="1" res="-1.1266655288636684e-02" rms="4.2051023244857788e-01" purity="3.4734889864921570e-01" nType="-99"/>
            <Node pos="r" depth="3" NCoef="0" IVar="-1" Cut="0.0000000000000000e+00" cType="1" res="9.0028289705514908e-03" rms="4.1954690217971802e-01" purity="5.2336943149566650e-01" nType="-99"/>
          </Node>
          <Node pos="r" depth="2" NCoef="0" IVar="-1" Cut="0.0000000000000000e+00" cType="1" res="-5.9231776744127274e-02" rms="2.9946011304855347e-01" purity="1.3784322142601013e-01" nType="-99"/>
        </Node>
        <Node pos="r" depth="1" NCoef="0" IVar="3" Cut="9.6448593139648438e+01" cType="1" res="9.8025016486644745e-02" rms="3.9088052511215210e-01" purity="6.9609320163726807e-01" nType="0">
          <Node pos="l" depth="2" NCoef="0" IVar="4" Cut="1.3452995300292969e+02" cType="1" res="1.3059306144714355e-01" rms="3.7650820612907410e-01" purity="7.4324983358383179e-01" nType="0">
            <Node pos="l" depth="3" NCoef="0" IVar="-1" Cut="0.0000000000000000e+00" cType="1" res="6.6478387452661991e-03" rms="4.4867494702339172e-01" purity="5.4549384117126465e-01" nType="-99"/>
            <Node pos="r" depth="3" NCoef="0" IVar="-1" Cut="0.0000000000000000e+00" cType="1" res="2.7305494993925095e-02" rms="3.3957391977310181e-01" purity="8.1637001037597656e-01" nType="-99"/>
          </Node>
          <Node pos="r" depth="2" NCoef="0" IVar="-1" Cut="0.0000000000000000e+00" cType="1" res="-8.9135104790329933e-03" rms="4.1967055201530457e-01" purity="4.8789903521537781e-01" nType="-99"/>
        </Node>
      </Node>
    </BinaryTree>
    <BinaryTree type="DecisionTree" boostWeight="1.0000000000000000e+00" itree="22">
      <Node pos="s" depth="0" NCoef="0" IVar="7" Cut="5.4174457550048828e+01" cType="1" res="1.6881735995411873e-02" rms="4.1041338443756104e-01" purity="4.9841544032096863e-01" nType="0">
        <Node pos="l" depth="1" NCoef="0" IVar="2" Cut="1.9647348022460938e+02" cType="1" res="-2.4064689874649048e-02" rms="4.0632545948028564e-01" purity="4.1834700107574463e-01" nType="0">
          <Node pos="l" depth="2" NCoef="0" IVar="7" Cut="2.2626222610473633e+01" cType="1" res="-4.5370109379291534e-02" rms="4.0792909264564514e-01" purity="3.5860037803649902e-01" nType="0">
            <Node pos="l" depth="3" NCoef="0" IVar="-1" Cut="0.0000000000000000e+00" cType="1" res="-3.2381989061832428e-02" rms="3.5874274373054504e-01" purity="2.4176888167858124e-01" nType="-99"/>
            <Node pos="r" depth="3" NCoef="0" IVar="-1" Cut="0.0000000000000000e+00" cType="1" res="-5.0584487617015839e-03" rms="4.1736671328544617e-01" purity="3.8976144790649414e-01" nType="-99"/>
          </Node>
          <Node pos="r" depth="2" NCoef="0" IVar="-1" Cut="0.0000000000000000e+00" cType="1" res="1.6045335680246353e-02" rms="3.7692987918853760e-01" purity="7.4353355169296265e-01" nType="-99"/>
        </Node>
        <Node pos="r" depth="1" NCoef="0" IVar="5" Cut="9.6479881286621094e+01" cType="1" res="7.0811286568641663e-02" rms="4.0953621268272400e-01" purity="6.0387164354324341e-01" nType="0">
          <Node pos="l" depth="2" NCoef="0" IVar="2" Cut="9.1955825805664062e+01" cType="1" res="9.5044329762458801e-02" rms="4.0011784434318542e-01" purity="6.6647970676422119e-01" nType="0">
            <Node pos="l" depth="3" NCoef="0" IVar="-1" Cut="0.0000000000000000e+00" cType="1" res="4.2560207657516003e-03" rms="4.3929475545883179e-01" purity="4.8248133063316345e-01" nType="-99"/>
            <Node pos="r" depth="3" NCoef="0" IVar="-1" Cut="0.0000000000000000e+00" cType="1" res="2.2059019654989243e-02" rms="3.7364479899406433e-01" purity="7.5879496335983276e-01" nType="-99"/>
          </Node>
          <Node pos="r" depth="2" NCoef="0" IVar="-1" Cut="0.0000000000000000e+00" cType="1" res="-7.0264628157019615e-03" rms="4.3246427178382874e-01" purity="3.3780816197395325e-01" nType="-99"/>
        </Node>
      </Node>
    </BinaryTree>
    <BinaryTree type="DecisionTree" boostWeight="1.0000000000000000e+00" itree="23">
      <Node pos="s" depth="0" NCoef="0" IVar="2" Cut="9.0206199645996094e+01" cType="1" res="1.2492960318922997e-02" rms="4.1146519780158997e-01" purity="4.9563202261924744e-01" nType="0">
        <Node pos="l" depth="1" NCoef="0" IVar="4" Cut="1.7276426315307617e+01" cType="1" res="-4.4042922556400299e-02" rms="4.1315048933029175e-01" purity="3.3528360724449158e-01" nType="0">
          <Node pos="l" depth="2" NCoef="0" IVar="2" Cut="4.7228424072265625e+01" cType="1" res="1.5708738937973976e-02" rms="4.3077600002288818e-01" purity="3.4576219320297241e-01" nType="0">
            <Node pos="l" depth="3" NCoef="0" IVar="-1" Cut="0.0000000000000000e+00" cType="1" res="-9.5418626442551613e-03" rms="4.1611930727958679e-01" purity="2.6010638475418091e-01" nType="-99"/>
            <Node pos="r" depth="3" NCoef="0" IVar="-1" Cut="0.0000000000000000e+00" cType="1" res="1.2854565866291523e-02" rms="4.3797600269317627e-01" purity="4.1845348477363586e-01" nType="-99"/>
          </Node>
          <Node pos="r" depth="2" NCoef="0" IVar="4" Cut="8.3172172546386719e+01" cType="1" res="-6.5303891897201538e-02" rms="4.0457162261009216e-01" purity="3.3155506849288940e-01" nType="0">
            <Node pos="l" depth="3" NCoef="0" IVar="-1" Cut="0.0000000000000000e+00" cType="1" res="-4.0655877441167831e-02" rms="3.5882163047790527e-01" purity="1.9665610790252686e-01" nType="-99"/>
            <Node pos="r" depth="3" NCoef="0" IVar="-1" Cut="0.0000000000000000e+00" cType="1" res="-8.2005476579070091e-03" rms="4.1386741399765015e-01" purity="3.7320899963378906e-01" nType="-99"/>
          </Node>
        </Node>
        <Node pos="r" depth="1" NCoef="0" IVar="0" Cut="4.7570568323135376e-01" cType="1" res="5.0331868231296539e-02" rms="4.0595868229866028e-01" purity="6.0295170545578003e-01" nType="0">
          <Node pos="l" depth="2" NCoef="0" IVar="3" Cut="5.5742614746093750e+01" cType="1" res="-3.9793785661458969e-02" rms="4.2424011230468750e-01" purity="3.8521942496299744e-01" nType="0">
            <Node pos="l" depth="3" NCoef="0" IVar="-1" Cut="0.0000000000000000e+00" cType="1" res="-2.0825676620006561e-02" rms="4.0820720791816711e-01" purity="2.6347070932388306e-01" nType="-99"/>
            <Node pos="r" depth="3" NCoef="0" IVar="-1" Cut="0.0000000000000000e+00" cType="1" res="9.1655505821108818e-03" rms="4.3935433030128479e-01" purity="6.2226790189743042e-01" nType="-99"/>
          </Node>
          <Node pos="r" depth="2" NCoef="0" IVar="1" Cut="4.7566482424736023e-01" cType="1" res="8.8033027946949005e-02" rms="3.9196217060089111e-01" purity="6.9403302669525146e-01" nType="0">
            <Node pos="l" depth="3" NCoef="0" IVar="-1" Cut="0.0000000000000000e+00" cType="1" res="-4.5168991200625896e-03" rms="4.3819323182106018e-01" purity="4.3528884649276733e-01" nType="-99"/>
            <Node pos="r" depth="3" NCoef="0" IVar="-1" Cut="0.0000000000000000e+00" cType="1" res="2.3891866207122803e-02" rms="3.5268509387969971e-01" purity="8.2708495855331421e-01" nType="-99"/>
          </Node>
        </Node>
      </Node>
    </BinaryTree>
    <BinaryTree type="DecisionTree" boostWeight="1.0000000000000000e+00" itree="24">
      <Node pos="s" depth="0" NCoef="0" IVar="3" Cut="6.0456542968750000e+01" cType="1" res="1.6399260610342026e-02" rms="4.0931561589241028e-01" purity="4.9828967452049255e-01" nType="0">
        <Node pos="l" depth="1" NCoef="0" IVar="3" Cut="2.8781795501708984e+00" cType="1" res="-1.3460149057209492e-02" rms="4.1455036401748657e-01" purity="4.1048964858055115e-01" nType="0">
          <Node pos="l" depth="2" NCoef="0" IVar="2" Cut="7.2481048583984375e+01" cType="1" res="9.8435133695602417e-02" rms="4.3643158674240112e-01" purity="5.3176534175872803e-01" nType="0">
            <Node pos="l" depth="3" NCoef="0" IVar="-1" Cut="0.0000000000000000e+00" cType="1" res="9.4832479953765869e-03" rms="4.3921247124671936e-01" purity="4.2877635359764099e-01" nType="-99"/>
            <Node pos="r" depth="3" NCoef="0" IVar="-1" Cut="0.0000000000000000e+00" cType="1" res="2.5064321234822273e-02" rms="4.2871060967445374e-01" purity="6.2091803550720215e-01" nType="-99"/>
          </Node>
          <Node pos="r" depth="2" NCoef="0" IVar="4" Cut="8.8082923889160156e+01" cType="1" res="-3.3809076994657516e-02" rms="4.0715441107749939e-01" purity="3.8843482732772827e-01" nType="0">
            <Node pos="l" depth="3" NCoef="0" IVar="-1" Cut="0.0000000000000000e+00" cType="1" res="-2.3788575083017349e-02" rms="3.9878579974174500e-01" purity="2.6752158999443054e-01" nType="-99"/>
            <Node pos="r" depth="3" NCoef="0" IVar="-1" Cut="0.0000000000000000e+00" cType="1" res="2.0420561486389488e-04" rms="4.0772712230682373e-01" purity="4.5688807964324951e-01" nType="-99"/>
          </Node>
        </Node>
        <Node pos="r" depth="1" NCoef="0" IVar="3" Cut="9.6453697204589844e+01" cType="1" res="8.0159254372119904e-02" rms="3.9033442735671997e-01" purity="6.8577259778976440e-01" nType="0">
          <Node pos="l" depth="2" NCoef="0" IVar="4" Cut="1.4421589660644531e+02" cType="1" res="1.0796806216239929e-01" rms="3.7875485420227051e-01" purity="7.3109191656112671e-01" nType="0">
            <Node pos="l" depth="3" NCoef="0" IVar="-1" Cut="0.0000000000000000e+00" cType="1" res="6.3127218745648861e-03" rms="4.4042739272117615e-01" purity="5.4579794406890869e-01" nType="-99"/>
            <Node pos="r" depth="3" NCoef="0" IVar="-1" Cut="0.0000000000000000e+00" cType="1" res="2.4653157219290733e-02" rms="3.4090399742126465e-01" purity="8.1752514839172363e-01" nType="-99"/>
          </Node>
          <Node pos="r" depth="2" NCoef="0" IVar="-1" Cut="0.0000000000000000e+00" cType="1" res="-7.4125803075730801e-03" rms="4.1585409641265869e-01" purity="4.9376434087753296e-01" nType="-99"/>
        </Node>
      </Node>
    </BinaryTree>
    <BinaryTree type="DecisionTree" boostWeight="1.0000000000000000e+00" itree="25">
      <Node pos="s" depth="0" NCoef="0" IVar="5" Cut="8.4460304260253906e+01" cType="1" res="1.6997335478663445e-02" rms="4.0706542134284973e-01" purity="5.0250983238220215e-01" nType="0">
        <Node pos="l" depth="1" NCoef="0" IVar="6" Cut="5.7943313598632812e+01" cType="1" res="4.4540058821439743e-02" rms="4.0578916668891907e-01" purity="5.9204190969467163e-01" nType="0">
          <Node pos="l" depth="2" NCoef="0" IVar="2" Cut="2.2644738769531250e+02" cType="1" res="1.7025524750351906e-02" rms="4.1161876916885376e-01" purity="5.4966521263122559e-01" nType="0">
            <Node pos="l" depth="3" NCoef="0" IVar="-1" Cut="0.0000000000000000e+00" cType="1" res="-3.1432125251740217e-04" rms="4.2341947555541992e-01" purity="4.9887466430664062e-01" nType="-99"/>
            <Node pos="r" depth="3" NCoef="0" IVar="-1" Cut="0.0000000000000000e+00" cType="1" res="2.4345209822058678e-02" rms="3.0158388614654541e-01" purity="8.7116515636444092e-01" nType="-99"/>
          </Node>
          <Node pos="r" depth="2" NCoef="0" IVar="8" Cut="3.5058251023292542e-01" cType="1" res="1.1747071892023087e-01" rms="3.8040587306022644e-01" purity="7.0436638593673706e-01" nType="0">
            <Node pos="l" depth="3" NCoef="0" IVar="-1" Cut="0.0000000000000000e+00" cType="1" res="5.6125717237591743e-03" rms="4.0364706516265869e-01" purity="5.7276999950408936e-01" nType="-99"/>
            <Node pos="r" depth="3" NCoef="0" IVar="-1" Cut="0.0000000000000000e+00" cType="1" res="2.5353241711854935e-02" rms="3.6744421720504761e-01" purity="7.4883651733398438e-01" nType="-99"/>
          </Node>
        </Node>
        <Node pos="r" depth="1" NCoef="0" IVar="8" Cut="1.7192692756652832e+00" cType="1" res="-5.1145028322935104e-02" rms="4.0217989683151245e-01" purity="2.8100222349166870e-01" nType="0">
          <Node pos="l" depth="2" NCoef="0" IVar="4" Cut="3.4095176696777344e+01" cType="1" res="-8.5562296211719513e-02" rms="3.7550520896911621e-01" purity="2.2380003333091736e-01" nType="0">
            <Node pos="l" depth="3" NCoef="0" IVar="-1" Cut="0.0000000000000000e+00" cType="1" res="-8.0002853646874428e-03" rms="3.9854985475540161e-01" purity="2.5290429592132568e-01" nType="-99"/>
            <Node pos="r" depth="3" NCoef="0" IVar="-1" Cut="0.0000000000000000e+00" cType="1" res="-2.8290461748838425e-02" rms="3.6450549960136414e-01" purity="2.1307626366615295e-01" nType="-99"/>
          </Node>
          <Node pos="r" depth="2" NCoef="0" IVar="6" Cut="2.5931243896484375e+01" cType="1" res="1.1429625563323498e-02" rms="4.3976742029190063e-01" purity="3.8500252366065979e-01" nType="0">
            <Node pos="l" depth="3" NCoef="0" IVar="-1" Cut="0.0000000000000000e+00" cType="1" res="8.5581988096237183e-03" rms="4.4054782390594482e-01" purity="4.0406426787376404e-01" nType="-99"/>
            <Node pos="r" depth="3" NCoef="0" IVar="-1" Cut="0.0000000000000000e+00" cType="1" res="-4.7158044762909412e-03" rms="4.3646806478500366e-01" purity="3.6329385638237000e-01" nType="-99"/>
          </Node>
        </Node>
      </Node>
    </BinaryTree>
    <BinaryTree type="DecisionTree" boostWeight="1.0000000000000000e+00" itree="26">
      <Node pos="s" depth="0" NCoef="0" IVar="5" Cut="8.1864700317382812e+01" cType="1" res="1.3418908230960369e-02" rms="4.0536281466484070e-01" purity="4.9836322665214539e-01" nType="0">
        <Node pos="l" depth="1" NCoef="0" IVar="1" Cut="4.7567787766456604e-01" cType="1" res="4.0700994431972504e-02" rms="4.0662685036659241e-01" purity="5.9377557039260864e-01" nType="0">
          <Node pos="l" depth="2" NCoef="0" IVar="2" Cut="8.5285484313964844e+01" cType="1" res="-2.2503051906824112e-02" rms="4.3296638131141663e-01" purity="3.9539161324501038e-01" nType="0">
            <Node pos="l" depth="3" NCoef="0" IVar="-1" Cut="0.0000000000000000e+00" cType="1" res="-2.6270918548107147e-02" rms="3.9559906721115112e-01" purity="2.0710837841033936e-01" nType="-99"/>
            <Node pos="r" depth="3" NCoef="0" IVar="-1" Cut="0.0000000000000000e+00" cType="1" res="7.0566497743129730e-03" rms="4.5088544487953186e-01" purity="5.4306429624557495e-01" nType="-99"/>
          </Node>
          <Node pos="r" depth="2" NCoef="0" IVar="0" Cut="4.7582188248634338e-01" cType="1" res="6.6271625459194183e-02" rms="3.9259198307991028e-01" purity="6.7403632402420044e-01" nType="0">
            <Node pos="l" depth="3" NCoef="0" IVar="-1" Cut="0.0000000000000000e+00" cType="1" res="-8.5208695381879807e-03" rms="4.2974272370338440e-01" purity="3.8626608252525330e-01" nType="-99"/>
            <Node pos="r" depth="3" NCoef="0" IVar="-1" Cut="0.0000000000000000e+00" cType="1" res="2.0563755184412003e-02" rms="3.5940766334533691e-01" purity="8.2428675889968872e-01" nType="-99"/>
          </Node>
        </Node>
        <Node pos="r" depth="1" NCoef="0" IVar="8" Cut="2.7683999538421631e+00" cType="1" res="-4.8705819994211197e-02" rms="3.9550900459289551e-01" purity="2.8109741210937500e-01" nType="0">
          <Node pos="l" depth="2" NCoef="0" IVar="8" Cut="7.4047529697418213e-01" cType="1" res="-7.4064411222934723e-02" rms="3.7991511821746826e-01" purity="2.3997551202774048e-01" nType="0">
            <Node pos="l" depth="3" NCoef="0" IVar="-1" Cut="0.0000000000000000e+00" cType="1" res="-3.6499917507171631e-02" rms="3.2559505105018616e-01" purity="1.6222062706947327e-01" nType="-99"/>
            <Node pos="r" depth="3" NCoef="0" IVar="-1" Cut="0.0000000000000000e+00" cType="1" res="-1.1195468716323376e-02" rms="4.0557807683944702e-01" purity="2.8523921966552734e-01" nType="-99"/>
          </Node>
          <Node pos="r" depth="2" NCoef="0" IVar="-1" Cut="0.0000000000000000e+00" cType="1" res="1.3938766904175282e-02" rms="4.4315895438194275e-01" purity="4.7711688280105591e-01" nType="-99"/>
        </Node>
      </Node>
    </BinaryTree>
    <BinaryTree type="DecisionTree" boostWeight="1.0000000000000000e+00" itree="27">
      <Node pos="s" depth="0" NCoef="0" IVar="0" Cut="4.7573044896125793e-01" cType="1" res="1.2731168419122696e-02" rms="4.0530812740325928e-01" purity="4.9730932712554932e-01" nType="0">
        <Node pos="l" depth="1" NCoef="0" IVar="7" Cut="8.7148490905761719e+01" cType="1" res="-4.7847006469964981e-02" rms="4.0755146741867065e-01" purity="3.1373983621597290e-01" nType="0">
          <Node pos="l" depth="2" NCoef="0" IVar="3" Cut="6.2521755218505859e+01" cType="1" res="-7.2504185140132904e-02" rms="3.9487019181251526e-01" purity="2.6341658830642700e-01" nType="0">
            <Node pos="l" depth="3" NCoef="0" IVar="-1" Cut="0.0000000000000000e+00" cType="1" res="-2.6150282472372055e-02" rms="3.7238025665283203e-01" purity="1.8917545676231384e-01" nType="-99"/>
            <Node pos="r" depth="3" NCoef="0" IVar="-1" Cut="0.0000000000000000e+00" cType="1" res="-3.3552520908415318e-03" rms="4.5054295659065247e-01" purity="4.8331415653228760e-01" nType="-99"/>
          </Node>
          <Node pos="r" depth="2" NCoef="0" IVar="-1" Cut="0.0000000000000000e+00" cType="1" res="9.4905430451035500e-03" rms="4.4092801213264465e-01" purity="5.1265066862106323e-01" nType="-99"/>
        </Node>
        <Node pos="r" depth="1" NCoef="0" IVar="1" Cut="4.7567486763000488e-01" cType="1" res="3.7149619311094284e-02" rms="4.0182602405548096e-01" purity="5.7130432128906250e-01" nType="0">
          <Node pos="l" depth="2" NCoef="0" IVar="2" Cut="8.5285484313964844e+01" cType="1" res="-5.3431969135999680e-02" rms="4.0745550394058228e-01" purity="2.9951402544975281e-01" nType="0">
            <Node pos="l" depth="3" NCoef="0" IVar="-1" Cut="0.0000000000000000e+00" cType="1" res="-2.7078542858362198e-02" rms="3.6948212981224060e-01" purity="1.7321898043155670e-01" nType="-99"/>
            <Node pos="r" depth="3" NCoef="0" IVar="-1" Cut="0.0000000000000000e+00" cType="1" res="-3.1403279863297939e-03" rms="4.3915808200836182e-01" purity="4.2684704065322876e-01" nType="-99"/>
          </Node>
          <Node pos="r" depth="2" NCoef="0" IVar="0" Cut="7.7534794807434082e-01" cType="1" res="1.0315226763486862e-01" rms="3.8446006178855896e-01" purity="7.6934546232223511e-01" nType="0">
            <Node pos="l" depth="3" NCoef="0" IVar="-1" Cut="0.0000000000000000e+00" cType="1" res="-3.7626158446073532e-02" rms="4.4784092903137207e-01" purity="4.4727778434753418e-01" nType="-99"/>
            <Node pos="r" depth="3" NCoef="0" IVar="-1" Cut="0.0000000000000000e+00" cType="1" res="2.3612318560481071e-02" rms="3.5782712697982788e-01" purity="8.1361252069473267e-01" nType="-99"/>
          </Node>
        </Node>
      </Node>
    </BinaryTree>
    <BinaryTree type="DecisionTree" boostWeight="1.0000000000000000e+00" itree="28">
      <Node pos="s" depth="0" NCoef="0" IVar="2" Cut="2.2551550292968750e+02" cType="1" res="1.9534550607204437e-02" rms="4.0645518898963928e-01" purity="5.0254195928573608e-01" nType="0">
        <Node pos="l" depth="1" NCoef="0" IVar="7" Cut="5.5766250610351562e+01" cType="1" res="4.4356859289109707e-03" rms="4.1506621241569519e-01" purity="4.4965526461601257e-01" nType="0">
          <Node pos="l" depth="2" NCoef="0" IVar="0" Cut="4.7567310929298401e-01" cType="1" res="-2.3344788700342178e-02" rms="4.0866479277610779e-01" purity="3.8860103487968445e-01" nType="0">
            <Node pos="l" depth="3" NCoef="0" IVar="-1" Cut="0.0000000000000000e+00" cType="1" res="-1.9060205668210983e-02" rms="3.8130217790603638e-01" purity="2.1604478359222412e-01" nType="-99"/>
            <Node pos="r" depth="3" NCoef="0" IVar="-1" Cut="0.0000000000000000e+00" cType="1" res="-1.0612373007461429e-03" rms="4.1819876432418823e-01" purity="4.6055305004119873e-01" nType="-99"/>
          </Node>
          <Node pos="r" depth="2" NCoef="0" IVar="6" Cut="4.3814563751220703e+01" cType="1" res="5.0337780267000198e-02" rms="4.2143863439559937e-01" purity="5.5053609609603882e-01" nType="0">
            <Node pos="l" depth="3" NCoef="0" IVar="-1" Cut="0.0000000000000000e+00" cType="1" res="3.0534276738762856e-03" rms="4.2646259069442749e-01" purity="5.0353455543518066e-01" nType="-99"/>
            <Node pos="r" depth="3" NCoef="0" IVar="-1" Cut="0.0000000000000000e+00" cType="1" res="1.9156137481331825e-02" rms="4.0749317407608032e-01" purity="6.2407314777374268e-01" nType="-99"/>
          </Node>
        </Node>
        <Node pos="r" depth="1" NCoef="0" IVar="5" Cut="5.5250904083251953e+01" cType="1" res="1.0785118490457535e-01" rms="3.3866542577743530e-01" purity="8.1188786029815674e-01" nType="0">
          <Node pos="l" depth="2" NCoef="0" IVar="-1" Cut="0.0000000000000000e+00" cType="1" res="2.6553515344858170e-02" rms="2.7396783232688904e-01" purity="9.0449041128158569e-01" nType="-99"/>
          <Node pos="r" depth="2" NCoef="0" IVar="-1" Cut="0.0000000000000000e+00" cType="1" res="1.1351150460541248e-02" rms="4.0800064802169800e-01" purity="6.8348968029022217e-01" nType="-99"/>
        </Node>
      </Node>
    </BinaryTree>
    <BinaryTree type="DecisionTree" boostWeight="1.0000000000000000e+00" itree="29">
      <Node pos="s" depth="0" NCoef="0" IVar="3" Cut="6.1273052215576172e+01" cType="1" res="1.7054894939064980e-02" rms="4.0348964929580688e-01" purity="5.0247919559478760e-01" nType="0">
        <Node pos="l" depth="1" NCoef="0" IVar="4" Cut="1.6457487487792969e+02" cType="1" res="-6.4095361158251762e-03" rms="4.0976727008819580e-01" purity="4.2001330852508545e-01" nType="0">
          <Node pos="l" depth="2" NCoef="0" IVar="1" Cut="4.7583597898483276e-01" cType="1" res="6.5472684800624847e-03" rms="4.1372808814048767e-01" purity="4.4103625416755676e-01" nType="0">
            <Node pos="l" depth="3" NCoef="0" IVar="-1" Cut="0.0000000000000000e+00" cType="1" res="-1.1476740241050720e-02" rms="4.0850660204887390e-01" purity="2.4167202413082123e-01" nType="-99"/>
            <Node pos="r" depth="3" NCoef="0" IVar="-1" Cut="0.0000000000000000e+00" cType="1" res="5.8490652590990067e-03" rms="4.1417336463928223e-01" purity="5.3708440065383911e-01" nType="-99"/>
          </Node>
          <Node pos="r" depth="2" NCoef="0" IVar="-1" Cut="0.0000000000000000e+00" cType="1" res="-3.5199195146560669e-02" rms="3.4688207507133484e-01" purity="2.2077329456806183e-01" nType="-99"/>
        </Node>
        <Node pos="r" depth="1" NCoef="0" IVar="3" Cut="9.7754806518554688e+01" cType="1" res="6.9587938487529755e-02" rms="3.8390308618545532e-01" purity="6.8710684776306152e-01" nType="0">
          <Node pos="l" depth="2" NCoef="0" IVar="4" Cut="1.4135134887695312e+02" cType="1" res="9.5515683293342590e-02" rms="3.7153631448745728e-01" purity="7.3409414291381836e-01" nType="0">
            <Node pos="l" depth="3" NCoef="0" IVar="-1" Cut="0.0000000000000000e+00" cType="1" res="2.0869194995611906e-03" rms="4.3809896707534790e-01" purity="5.1967430114746094e-01" nType="-99"/>
            <Node pos="r" depth="3" NCoef="0" IVar="-1" Cut="0.0000000000000000e+00" cType="1" res="2.4151777848601341e-02" rms="3.3134523034095764e-01" purity="8.2847839593887329e-01" nType="-99"/>
          </Node>
          <Node pos="r" depth="2" NCoef="0" IVar="-1" Cut="0.0000000000000000e+00" cType="1" res="-1.0241697542369366e-02" rms="4.1601300239562988e-01" purity="4.7044301033020020e-01" nType="-99"/>
        </Node>
      </Node>
    </BinaryTree>
    <BinaryTree type="DecisionTree" boostWeight="1.0000000000000000e+00" itree="30">
      <Node pos="s" depth="0" NCoef="0" IVar="5" Cut="1.0507983398437500e+02" cType="1" res="1.4782602898776531e-02" rms="4.0306586027145386e-01" purity="4.9799609184265137e-01" nType="0">
        <Node pos="l" depth="1" NCoef="0" IVar="7" Cut="3.2887901306152344e+01" cType="1" res="3.0815698206424713e-02" rms="4.0519925951957703e-01" purity="5.4625558853149414e-01" nType="0">
          <Node pos="l" depth="2" NCoef="0" IVar="2" Cut="1.6209764099121094e+02" cType="1" res="-2.5084313005208969e-02" rms="4.0625536441802979e-01" purity="4.2150476574897766e-01" nType="0">
            <Node pos="l" depth="3" NCoef="0" IVar="-1" Cut="0.0000000000000000e+00" cType="1" res="-1.0631571523845196e-02" rms="4.0776470303535461e-01" purity="3.3972740173339844e-01" nType="-99"/>
            <Node pos="r" depth="3" NCoef="0" IVar="-1" Cut="0.0000000000000000e+00" cType="1" res="7.4418028816580772e-03" rms="3.9478334784507751e-01" purity="6.8277806043624878e-01" nType="-99"/>
          </Node>
          <Node pos="r" depth="2" NCoef="0" IVar="6" Cut="5.3433727264404297e+01" cType="1" res="5.1330868154764175e-02" rms="4.0287002921104431e-01" purity="5.9203881025314331e-01" nType="0">
            <Node pos="l" depth="3" NCoef="0" IVar="-1" Cut="0.0000000000000000e+00" cType="1" res="5.8579174801707268e-03" rms="4.1045841574668884e-01" purity="5.5214613676071167e-01" nType="-99"/>
            <Node pos="r" depth="3" NCoef="0" IVar="-1" Cut="0.0000000000000000e+00" cType="1" res="1.9034061580896378e-02" rms="3.7999162077903748e-01" purity="6.8412399291992188e-01" nType="-99"/>
          </Node>
        </Node>
        <Node pos="r" depth="1" NCoef="0" IVar="6" Cut="2.9755420684814453e+01" cType="1" res="-7.5679756700992584e-02" rms="3.7828448414802551e-01" purity="2.2570534050464630e-01" nType="0">
          <Node pos="l" depth="2" NCoef="0" IVar="-1" Cut="0.0000000000000000e+00" cType="1" res="-8.7366503430530429e-04" rms="4.2430642247200012e-01" purity="3.2750016450881958e-01" nType="-99"/>
          <Node pos="r" depth="2" NCoef="0" IVar="8" Cut="7.3334640264511108e-01" cType="1" res="-1.0786187648773193e-01" rms="3.5105204582214355e-01" purity="1.8020890653133392e-01" nType="0">
            <Node pos="l" depth="3" NCoef="0" IVar="-1" Cut="0.0000000000000000e+00" cType="1" res="-4.3334111571311951e-02" rms="3.0108124017715454e-01" purity="1.2835669517517090e-01" nType="-99"/>
            <Node pos="r" depth="3" NCoef="0" IVar="-1" Cut="0.0000000000000000e+00" cType="1" res="-2.4076612666249275e-02" rms="3.8412457704544067e-01" purity="2.2021456062793732e-01" nType="-99"/>
          </Node>
        </Node>
      </Node>
    </BinaryTree>
    <BinaryTree type="DecisionTree" boostWeight="1.0000000000000000e+00" itree="31">
      <Node pos="s" depth="0" NCoef="0" IVar="2" Cut="1.1884210205078125e+02" cType="1" res="1.8848091363906860e-02" rms="3.9951762557029724e-01" purity="5.0500482320785522e-01" nType="0">
        <Node pos="l" depth="1" NCoef="0" IVar="4" Cut="2.8658298492431641e+01" cType="1" res="-1.4707888476550579e-02" rms="4.0690875053405762e-01" purity="3.6576390266418457e-01" nType="0">
          <Node pos="l" depth="2" NCoef="0" IVar="3" Cut="2.7267019748687744e+00" cType="1" res="4.3605912476778030e-02" rms="4.2524635791778564e-01" purity="3.7261003255844116e-01" nType="0">
            <Node pos="l" depth="3" NCoef="0" IVar="-1" Cut="0.0000000000000000e+00" cType="1" res="1.8849950283765793e-02" rms="4.3667259812355042e-01" purity="4.9514561891555786e-01" nType="-99"/>
            <Node pos="r" depth="3" NCoef="0" IVar="-1" Cut="0.0000000000000000e+00" cType="1" res="-6.9617861881852150e-03" rms="3.9999786019325256e-01" purity="2.0790207386016846e-01" nType="-99"/>
          </Node>
          <Node pos="r" depth="2" NCoef="0" IVar="4" Cut="6.7589523315429688e+01" cType="1" res="-3.3711455762386322e-02" rms="3.9891415834426880e-01" purity="3.6353287100791931e-01" nType="0">
            <Node pos="l" depth="3" NCoef="0" IVar="-1" Cut="0.0000000000000000e+00" cType="1" res="-4.9004059284925461e-02" rms="3.1241545081138611e-01" purity="1.4150942862033844e-01" nType="-99"/>
            <Node pos="r" depth="3" NCoef="0" IVar="-1" Cut="0.0000000000000000e+00" cType="1" res="-3.4050596877932549e-03" rms="4.0681916475296021e-01" purity="3.9592531323432922e-01" nType="-99"/>
          </Node>
        </Node>
        <Node pos="r" depth="1" NCoef="0" IVar="0" Cut="4.7568854689598083e-01" cType="1" res="5.8472424745559692e-02" rms="3.8688024878501892e-01" purity="6.6942644119262695e-01" nType="0">
          <Node pos="l" depth="2" NCoef="0" IVar="3" Cut="4.4135742187500000e+01" cType="1" res="-1.2715005315840244e-02" rms="4.2991566658020020e-01" purity="4.5236223936080933e-01" nType="0">
            <Node pos="l" depth="3" NCoef="0" IVar="-1" Cut="0.0000000000000000e+00" cType="1" res="-1.1834987439215183e-02" rms="4.3414375185966492e-01" purity="3.1198251247406006e-01" nType="-99"/>
            <Node pos="r" depth="3" NCoef="0" IVar="-1" Cut="0.0000000000000000e+00" cType="1" res="8.1616574898362160e-03" rms="4.1694021224975586e-01" purity="6.5806072950363159e-01" nType="-99"/>
          </Node>
          <Node pos="r" depth="2" NCoef="0" IVar="1" Cut="4.7566482424736023e-01" cType="1" res="8.6575202643871307e-02" rms="3.6470440030097961e-01" purity="7.5511723756790161e-01" nType="0">
            <Node pos="l" depth="3" NCoef="0" IVar="-1" Cut="0.0000000000000000e+00" cType="1" res="1.4895758358761668e-03" rms="4.4005841016769409e-01" purity="5.2658897638320923e-01" nType="-99"/>
            <Node pos="r" depth="3" NCoef="0" IVar="-1" Cut="0.0000000000000000e+00" cType="1" res="2.2635493427515030e-02" rms="3.1791275739669800e-01" purity="8.5988241434097290e-01" nType="-99"/>
          </Node>
        </Node>
      </Node>
    </BinaryTree>
    <BinaryTree type="DecisionTree" boostWeight="1.0000000000000000e+00" itree="32">
      <Node pos="s" depth="0" NCoef="0" IVar="0" Cut="4.7582188248634338e-01" cType="1" res="1.2051835656166077e-02" rms="3.9913108944892883e-01" purity="4.9727085232734680e-01" nType="0">
        <Node pos="l" depth="1" NCoef="0" IVar="0" Cut="-2.3089960217475891e-02" cType="1" res="-4.0770024061203003e-02" rms="4.0716394782066345e-01" purity="3.1225302815437317e-01" nType="0">
          <Node pos="l" depth="2" NCoef="0" IVar="5" Cut="5.6234535217285156e+01" cType="1" res="6.6670663654804230e-03" rms="4.2563790082931519e-01" purity="3.9377760887145996e-01" nType="0">
            <Node pos="l" depth="3" NCoef="0" IVar="-1" Cut="0.0000000000000000e+00" cType="1" res="1.1704872362315655e-02" rms="4.4780224561691284e-01" purity="5.6223112344741821e-01" nType="-99"/>
            <Node pos="r" depth="3" NCoef="0" IVar="-1" Cut="0.0000000000000000e+00" cType="1" res="-6.3039464876055717e-03" rms="4.0939787030220032e-01" purity="2.9955190420150757e-01" nType="-99"/>
          </Node>
          <Node pos="r" depth="2" NCoef="0" IVar="0" Cut="2.1728211641311646e-01" cType="1" res="-8.8336206972599030e-02" rms="3.8188549876213074e-01" purity="2.3050653934478760e-01" nType="0">
            <Node pos="l" depth="3" NCoef="0" IVar="-1" Cut="0.0000000000000000e+00" cType="1" res="-3.7580426782369614e-02" rms="3.5732504725456238e-01" purity="1.8121111392974854e-01" nType="-99"/>
            <Node pos="r" depth="3" NCoef="0" IVar="-1" Cut="0.0000000000000000e+00" cType="1" res="-6.4909514039754868e-03" rms="4.0607288479804993e-01" purity="3.0027064681053162e-01" nType="-99"/>
          </Node>
        </Node>
        <Node pos="r" depth="1" NCoef="0" IVar="1" Cut="4.7583597898483276e-01" cType="1" res="3.3589251339435577e-02" rms="3.9378076791763306e-01" purity="5.7270944118499756e-01" nType="0">
          <Node pos="l" depth="2" NCoef="0" IVar="1" Cut="-2.3248961195349693e-02" cType="1" res="-4.2158368974924088e-02" rms="4.0231734514236450e-01" purity="3.0182373523712158e-01" nType="0">
            <Node pos="l" depth="3" NCoef="0" IVar="-1" Cut="0.0000000000000000e+00" cType="1" res="1.4338342589326203e-04" rms="4.2218253016471863e-01" purity="3.5505402088165283e-01" nType="-99"/>
            <Node pos="r" depth="3" NCoef="0" IVar="-1" Cut="0.0000000000000000e+00" cType="1" res="-2.2323926910758018e-02" rms="3.7709379196166992e-01" purity="2.4951398372650146e-01" nType="-99"/>
          </Node>
          <Node pos="r" depth="2" NCoef="0" IVar="0" Cut="7.7609908580780029e-01" cType="1" res="8.9509107172489166e-02" rms="3.7773457169532776e-01" purity="7.7268779277801514e-01" nType="0">
            <Node pos="l" depth="3" NCoef="0" IVar="-1" Cut="0.0000000000000000e+00" cType="1" res="-3.3107582479715347e-02" rms="4.4206076860427856e-01" purity="4.6422556042671204e-01" nType="-99"/>
            <Node pos="r" depth="3" NCoef="0" IVar="-1" Cut="0.0000000000000000e+00" cType="1" res="2.1601313725113869e-02" rms="3.5413834452629089e-01" purity="8.1604963541030884e-01" nType="-99"/>
          </Node>
        </Node>
      </Node>
    </BinaryTree>
    <BinaryTree type="DecisionTree" boostWeight="1.0000000000000000e+00" itree="33">
      <Node pos="s" depth="0" NCoef="0" IVar="2" Cut="1.8391165161132812e+02" cType="1" res="1.3206114061176777e-02" rms="3.9860251545906067e-01" purity="5.0035899877548218e-01" nType="0">
        <Node pos="l" depth="1" NCoef="0" IVar="7" Cut="5.1870651245117188e+01" cType="1" res="-5.3099747747182846e-03" rms="4.0935525298118591e-01" purity="4.1727462410926819e-01" nType="0">
          <Node pos="l" depth="2" NCoef="0" IVar="7" Cut="2.1967649459838867e+01" cType="1" res="-3.0155789107084274e-02" rms="3.9817085862159729e-01" purity="3.5331141948699951e-01" nType="0">
            <Node pos="l" depth="3" NCoef="0" IVar="-1" Cut="0.0000000000000000e+00" cType="1" res="-2.3557940497994423e-02" rms="3.5404711961746216e-01" purity="2.4964587390422821e-01" nType="-99"/>
            <Node pos="r" depth="3" NCoef="0" IVar="-1" Cut="0.0000000000000000e+00" cType="1" res="-3.8643761072307825e-03" rms="4.0710175037384033e-01" purity="3.7864851951599121e-01" nType="-99"/>
          </Node>
          <Node pos="r" depth="2" NCoef="0" IVar="6" Cut="6.9344123840332031e+01" cType="1" res="2.8091967105865479e-02" rms="4.2162552475929260e-01" purity="5.0326472520828247e-01" nType="0">
            <Node pos="l" depth="3" NCoef="0" IVar="-1" Cut="0.0000000000000000e+00" cType="1" res="2.7779650408774614e-03" rms="4.2301896214485168e-01" purity="4.8381713032722473e-01" nType="-99"/>
            <Node pos="r" depth="3" NCoef="0" IVar="-1" Cut="0.0000000000000000e+00" cType="1" res="1.9825937226414680e-02" rms="4.0571856498718262e-01" purity="6.0586792230606079e-01" nType="-99"/>
          </Node>
        </Node>
        <Node pos="r" depth="1" NCoef="0" IVar="0" Cut="4.7568854689598083e-01" cType="1" res="7.3829852044582367e-02" rms="3.5445946455001831e-01" purity="7.7238649129867554e-01" nType="0">
