<?xml version="1.0"?>
<MethodSetup Method="BDT::BDTG">
  <GeneralInfo>
    <Info name="TMVA Release" value="4.2.1 [262657]"/>
    <Info name="ROOT Release" value="6.06/01 [394753]"/>
    <Info name="Creator" value="muell149"/>
    <Info name="Date" value="Thu Aug 11 13:30:45 2016"/>
    <Info name="Host" value="Linux vocms0315.cern.ch 2.6.32-573.26.1.el6.x86_64 #1 SMP Wed May 4 09:23:05 CEST 2016 x86_64 x86_64 x86_64 GNU/Linux"/>
    <Info name="Dir" value="/afs/cern.ch/work/m/muell149/CMSSW_8_0_13/src/ttH-13TeVMultiLeptons/simpleweights/reconstruction_bdt_weights"/>
    <Info name="Training events" value="50000"/>
    <Info name="TrainingTime" value="4.54811790e+01"/>
    <Info name="AnalysisType" value="Classification"/>
  </GeneralInfo>
  <Options>
    <Option name="V" modified="Yes">False</Option>
    <Option name="VerbosityLevel" modified="No">Default</Option>
    <Option name="VarTransform" modified="No">None</Option>
    <Option name="H" modified="Yes">False</Option>
    <Option name="CreateMVAPdfs" modified="No">False</Option>
    <Option name="IgnoreNegWeightsInTraining" modified="No">False</Option>
    <Option name="NTrees" modified="Yes">1000</Option>
    <Option name="MaxDepth" modified="Yes">3</Option>
    <Option name="MinNodeSize" modified="Yes">4.5%</Option>
    <Option name="nCuts" modified="Yes">20</Option>
    <Option name="BoostType" modified="Yes">Grad</Option>
    <Option name="AdaBoostR2Loss" modified="No">quadratic</Option>
    <Option name="UseBaggedBoost" modified="Yes">True</Option>
    <Option name="Shrinkage" modified="Yes">1.000000e-01</Option>
    <Option name="AdaBoostBeta" modified="No">5.000000e-01</Option>
    <Option name="UseRandomisedTrees" modified="No">False</Option>
    <Option name="UseNvars" modified="No">3</Option>
    <Option name="UsePoissonNvars" modified="No">True</Option>
    <Option name="BaggedSampleFraction" modified="Yes">5.000000e-01</Option>
    <Option name="UseYesNoLeaf" modified="No">True</Option>
    <Option name="NegWeightTreatment" modified="No">ignorenegweightsintraining</Option>
    <Option name="Css" modified="No">1.000000e+00</Option>
    <Option name="Cts_sb" modified="No">1.000000e+00</Option>
    <Option name="Ctb_ss" modified="No">1.000000e+00</Option>
    <Option name="Cbb" modified="No">1.000000e+00</Option>
    <Option name="NodePurityLimit" modified="No">5.000000e-01</Option>
    <Option name="SeparationType" modified="No">giniindex</Option>
    <Option name="DoBoostMonitor" modified="No">False</Option>
    <Option name="UseFisherCuts" modified="No">False</Option>
    <Option name="MinLinCorrForFisher" modified="No">8.000000e-01</Option>
    <Option name="UseExclusiveVars" modified="No">False</Option>
    <Option name="DoPreselection" modified="No">False</Option>
    <Option name="SigToBkgFraction" modified="No">1.000000e+00</Option>
    <Option name="PruneMethod" modified="No">nopruning</Option>
    <Option name="PruneStrength" modified="No">0.000000e+00</Option>
    <Option name="PruningValFraction" modified="No">5.000000e-01</Option>
    <Option name="nEventsMin" modified="No">0</Option>
    <Option name="UseBaggedGrad" modified="No">False</Option>
    <Option name="GradBaggingFraction" modified="No">5.000000e-01</Option>
    <Option name="UseNTrainEvents" modified="No">0</Option>
    <Option name="NNodesMax" modified="No">0</Option>
  </Options>
  <Variables NVar="9">
    <Variable VarIndex="0" Expression="b_from_leptop_bdt.csv" Label="b_from_leptop_bdt.csv" Title="b leptop csv" Unit="csv" Internal="b_from_leptop_bdt.csv" Type="D" Min="-1.00000000e+01" Max="9.99639571e-01"/>
    <Variable VarIndex="1" Expression="b_from_hadtop_bdt.csv" Label="b_from_hadtop_bdt.csv" Title="b hadtop csv" Unit="csv" Internal="b_from_hadtop_bdt.csv" Type="D" Min="-1.00000000e+01" Max="9.99576330e-01"/>
    <Variable VarIndex="2" Expression="hadTop_tlv_bdt.Pt()" Label="hadTop_tlv_bdt.Pt()" Title="had top pt" Unit="pt" Internal="hadTop_tlv_bdt.Pt__" Type="D" Min="0.00000000e+00" Max="1.08656909e+03"/>
    <Variable VarIndex="3" Expression="w_from_hadtop_tlv_bdt.M()" Label="w_from_hadtop_tlv_bdt.M()" Title="w frm had top mass" Unit="mass" Internal="w_from_hadtop_tlv_bdt.M__" Type="D" Min="0.00000000e+00" Max="5.36270630e+02"/>
    <Variable VarIndex="4" Expression="hadTop_tlv_bdt.M()" Label="hadTop_tlv_bdt.M()" Title="had top mass" Unit="mass" Internal="hadTop_tlv_bdt.M__" Type="D" Min="0.00000000e+00" Max="6.48527710e+02"/>
    <Variable VarIndex="5" Expression="higgs_tlv_bdt.M()" Label="higgs_tlv_bdt.M()" Title="higgs mass" Unit="mass" Internal="higgs_tlv_bdt.M__" Type="D" Min="-2.20361754e-01" Max="3.64206879e+02"/>
    <Variable VarIndex="6" Expression="lep_from_higgs_bdt.obj.pt()" Label="lep_from_higgs_bdt.obj.pt()" Title="lep from higgs pt" Unit="pt" Internal="lep_from_higgs_bdt.obj.pt__" Type="D" Min="1.00343761e+01" Max="5.49862305e+02"/>
    <Variable VarIndex="7" Expression="lep_from_leptop_bdt.obj.pt()" Label="lep_from_leptop_bdt.obj.pt()" Title="lep from top pt" Unit="pt" Internal="lep_from_leptop_bdt.obj.pt__" Type="D" Min="1.00541658e+01" Max="6.33968079e+02"/>
    <Variable VarIndex="8" Expression="lep_from_leptop_bdt.obj.pt()/lep_from_higgs_bdt.obj.pt()" Label="lep_from_leptop_bdt.obj.pt()/lep_from_higgs_bdt.obj.pt()" Title="lep pt ratio" Unit="pt" Internal="lep_from_leptop_bdt.obj.pt___D_lep_from_higgs_bdt.obj.pt__" Type="D" Min="3.16483639e-02" Max="3.18053417e+01"/>
  </Variables>
  <Spectators NSpec="0"/>
  <Classes NClass="2">
    <Class Name="Signal" Index="0"/>
    <Class Name="Background" Index="1"/>
  </Classes>
  <Transformations NTransformations="0"/>
  <MVAPdfs/>
  <Weights NTrees="1000" AnalysisType="1">
    <BinaryTree type="DecisionTree" boostWeight="1.0000000000000000e+00" itree="0">
      <Node pos="s" depth="0" NCoef="0" IVar="2" Cut="1.5522415161132812e+02" cType="1" res="-1.5886746114119887e-03" rms="4.9999746680259705e-01" purity="4.9841135740280151e-01" nType="0">
        <Node pos="l" depth="1" NCoef="0" IVar="3" Cut="5.1073394775390625e+01" cType="1" res="-1.1106592416763306e-01" rms="4.8750832676887512e-01" purity="3.8893404603004456e-01" nType="0">
          <Node pos="l" depth="2" NCoef="0" IVar="7" Cut="3.5759315490722656e+01" cType="1" res="-1.8066397309303284e-01" rms="4.6621939539909363e-01" purity="3.1933602690696716e-01" nType="0">
            <Node pos="l" depth="3" NCoef="0" IVar="-1" Cut="0.0000000000000000e+00" cType="1" res="-6.6088907420635223e-02" rms="3.9807048439979553e-01" purity="1.9744439423084259e-01" nType="-99"/>
            <Node pos="r" depth="3" NCoef="0" IVar="-1" Cut="0.0000000000000000e+00" cType="1" res="-1.8874576315283775e-02" rms="4.9097201228141785e-01" purity="4.0541422367095947e-01" nType="-99"/>
          </Node>
          <Node pos="r" depth="2" NCoef="0" IVar="7" Cut="3.5820545196533203e+01" cType="1" res="7.6506957411766052e-02" rms="4.9411201477050781e-01" purity="5.7650697231292725e-01" nType="0">
            <Node pos="l" depth="3" NCoef="0" IVar="-1" Cut="0.0000000000000000e+00" cType="1" res="-1.2836893089115620e-02" rms="4.9574160575866699e-01" purity="4.3488267064094543e-01" nType="-99"/>
            <Node pos="r" depth="3" NCoef="0" IVar="-1" Cut="0.0000000000000000e+00" cType="1" res="2.9011532664299011e-02" rms="4.7343036532402039e-01" purity="6.6082197427749634e-01" nType="-99"/>
          </Node>
        </Node>
        <Node pos="r" depth="1" NCoef="0" IVar="3" Cut="5.6441753387451172e+01" cType="1" res="2.7423888444900513e-01" rms="4.1808256506919861e-01" purity="7.7423888444900513e-01" nType="0">
          <Node pos="l" depth="2" NCoef="0" IVar="5" Cut="7.0412124633789062e+01" cType="1" res="1.4296369254589081e-01" rms="4.7912564873695374e-01" purity="6.4296370744705200e-01" nType="0">
            <Node pos="l" depth="3" NCoef="0" IVar="-1" Cut="0.0000000000000000e+00" cType="1" res="3.9847597479820251e-02" rms="4.4584241509437561e-01" purity="7.2632843255996704e-01" nType="-99"/>
            <Node pos="r" depth="3" NCoef="0" IVar="-1" Cut="0.0000000000000000e+00" cType="1" res="1.0719916317611933e-03" rms="4.9996867775917053e-01" purity="5.0559580326080322e-01" nType="-99"/>
          </Node>
          <Node pos="r" depth="2" NCoef="0" IVar="2" Cut="2.3940531921386719e+02" cType="1" res="3.9110225439071655e-01" rms="3.1151086091995239e-01" purity="8.9110225439071655e-01" nType="0">
            <Node pos="l" depth="3" NCoef="0" IVar="-1" Cut="0.0000000000000000e+00" cType="1" res="5.7135961949825287e-02" rms="3.6864191293716431e-01" purity="8.3779156208038330e-01" nType="-99"/>
            <Node pos="r" depth="3" NCoef="0" IVar="-1" Cut="0.0000000000000000e+00" cType="1" res="7.2972089052200317e-02" rms="2.2162143886089325e-01" purity="9.4820082187652588e-01" nType="-99"/>
          </Node>
        </Node>
      </Node>
    </BinaryTree>
    <BinaryTree type="DecisionTree" boostWeight="1.0000000000000000e+00" itree="1">
      <Node pos="s" depth="0" NCoef="0" IVar="2" Cut="1.5522415161132812e+02" cType="1" res="-1.8797738011926413e-03" rms="4.9058783054351807e-01" purity="4.9555793404579163e-01" nType="0">
        <Node pos="l" depth="1" NCoef="0" IVar="5" Cut="7.0570533752441406e+01" cType="1" res="-9.8109640181064606e-02" rms="4.8310217261314392e-01" purity="3.8966038823127747e-01" nType="0">
          <Node pos="l" depth="2" NCoef="0" IVar="6" Cut="3.1012149810791016e+01" cType="1" res="-5.2755735814571381e-03" rms="4.9537751078605652e-01" purity="4.8473855853080750e-01" nType="0">
            <Node pos="l" depth="3" NCoef="0" IVar="-1" Cut="0.0000000000000000e+00" cType="1" res="-2.9005613178014755e-02" rms="4.7316053509712219e-01" purity="3.4784519672393799e-01" nType="-99"/>
            <Node pos="r" depth="3" NCoef="0" IVar="-1" Cut="0.0000000000000000e+00" cType="1" res="2.0851956680417061e-02" rms="4.8368230462074280e-01" purity="6.0337746143341064e-01" nType="-99"/>
          </Node>
          <Node pos="r" depth="2" NCoef="0" IVar="7" Cut="3.5793773651123047e+01" cType="1" res="-2.1738578379154205e-01" rms="4.3892559409141541e-01" purity="2.6750090718269348e-01" nType="0">
            <Node pos="l" depth="3" NCoef="0" IVar="-1" Cut="0.0000000000000000e+00" cType="1" res="-7.0627354085445404e-02" rms="3.6115252971649170e-01" purity="1.5532921254634857e-01" nType="-99"/>
            <Node pos="r" depth="3" NCoef="0" IVar="-1" Cut="0.0000000000000000e+00" cType="1" res="-2.9077298939228058e-02" rms="4.7638422250747681e-01" purity="3.5274600982666016e-01" nType="-99"/>
          </Node>
        </Node>
        <Node pos="r" depth="1" NCoef="0" IVar="3" Cut="5.5221500396728516e+01" cType="1" res="2.4966442584991455e-01" rms="4.1502827405929565e-01" purity="7.7237331867218018e-01" nType="0">
          <Node pos="l" depth="2" NCoef="0" IVar="5" Cut="7.4497070312500000e+01" cType="1" res="1.2553516030311584e-01" rms="4.7866621613502502e-01" purity="6.3771212100982666e-01" nType="0">
            <Node pos="l" depth="3" NCoef="0" IVar="-1" Cut="0.0000000000000000e+00" cType="1" res="3.4940805286169052e-02" rms="4.5058676600456238e-01" purity="7.1613663434982300e-01" nType="-99"/>
            <Node pos="r" depth="3" NCoef="0" IVar="-1" Cut="0.0000000000000000e+00" cType="1" res="-4.7237935359589756e-04" rms="4.9999630451202393e-01" purity="4.9807763099670410e-01" nType="-99"/>
          </Node>
          <Node pos="r" depth="2" NCoef="0" IVar="7" Cut="5.1648189544677734e+01" cType="1" res="3.6265772581100464e-01" rms="3.0607938766479492e-01" purity="8.9495366811752319e-01" nType="0">
            <Node pos="l" depth="3" NCoef="0" IVar="-1" Cut="0.0000000000000000e+00" cType="1" res="5.2171256393194199e-02" rms="3.6674696207046509e-01" purity="8.3923846483230591e-01" nType="-99"/>
            <Node pos="r" depth="3" NCoef="0" IVar="-1" Cut="0.0000000000000000e+00" cType="1" res="6.6447973251342773e-02" rms="2.4170476198196411e-01" purity="9.3746215105056763e-01" nType="-99"/>
          </Node>
        </Node>
      </Node>
    </BinaryTree>
    <BinaryTree type="DecisionTree" boostWeight="1.0000000000000000e+00" itree="2">
      <Node pos="s" depth="0" NCoef="0" IVar="2" Cut="1.5522415161132812e+02" cType="1" res="2.0275675342418253e-04" rms="4.8099565505981445e-01" purity="4.9636510014533997e-01" nType="0">
        <Node pos="l" depth="1" NCoef="0" IVar="3" Cut="5.5890991210937500e+01" cType="1" res="-9.3798272311687469e-02" rms="4.7619971632957458e-01" purity="3.8294315338134766e-01" nType="0">
          <Node pos="l" depth="2" NCoef="0" IVar="7" Cut="3.5793773651123047e+01" cType="1" res="-1.6165989637374878e-01" rms="4.5458695292472839e-01" purity="3.0654093623161316e-01" nType="0">
            <Node pos="l" depth="3" NCoef="0" IVar="-1" Cut="0.0000000000000000e+00" cType="1" res="-5.5785745382308960e-02" rms="3.9406502246856689e-01" purity="1.9651427865028381e-01" nType="-99"/>
            <Node pos="r" depth="3" NCoef="0" IVar="-1" Cut="0.0000000000000000e+00" cType="1" res="-1.8860375508666039e-02" rms="4.8413497209548950e-01" purity="3.8903653621673584e-01" nType="-99"/>
          </Node>
          <Node pos="r" depth="2" NCoef="0" IVar="7" Cut="3.1397228240966797e+01" cType="1" res="9.3412160873413086e-02" rms="4.8426294326782227e-01" purity="5.9371453523635864e-01" nType="0">
            <Node pos="l" depth="3" NCoef="0" IVar="-1" Cut="0.0000000000000000e+00" cType="1" res="-1.4427966438233852e-02" rms="4.8644235730171204e-01" purity="4.1027954220771790e-01" nType="-99"/>
            <Node pos="r" depth="3" NCoef="0" IVar="-1" Cut="0.0000000000000000e+00" cType="1" res="2.9033239930868149e-02" rms="4.6670201420783997e-01" purity="6.6879922151565552e-01" nType="-99"/>
          </Node>
        </Node>
        <Node pos="r" depth="1" NCoef="0" IVar="3" Cut="6.7688339233398438e+01" cType="1" res="2.3190118372440338e-01" rms="4.0891078114509583e-01" purity="7.7593314647674561e-01" nType="0">
          <Node pos="l" depth="2" NCoef="0" IVar="7" Cut="3.9876354217529297e+01" cType="1" res="1.2759599089622498e-01" rms="4.7091773152351379e-01" purity="6.5443629026412964e-01" nType="0">
            <Node pos="l" depth="3" NCoef="0" IVar="-1" Cut="0.0000000000000000e+00" cType="1" res="-4.9601183272898197e-03" rms="4.9463361501693726e-01" purity="4.9887853860855103e-01" nType="-99"/>
            <Node pos="r" depth="3" NCoef="0" IVar="-1" Cut="0.0000000000000000e+00" cType="1" res="3.6841403692960739e-02" rms="4.3642482161521912e-01" purity="7.3710203170776367e-01" nType="-99"/>
          </Node>
          <Node pos="r" depth="2" NCoef="0" IVar="2" Cut="2.4186022949218750e+02" cType="1" res="3.4260699152946472e-01" rms="2.9240694642066956e-01" purity="9.0488553047180176e-01" nType="0">
            <Node pos="l" depth="3" NCoef="0" IVar="-1" Cut="0.0000000000000000e+00" cType="1" res="5.2111223340034485e-02" rms="3.4112575650215149e-01" purity="8.6516350507736206e-01" nType="-99"/>
            <Node pos="r" depth="3" NCoef="0" IVar="-1" Cut="0.0000000000000000e+00" cType="1" res="6.3302911818027496e-02" rms="2.2058013081550598e-01" purity="9.4850212335586548e-01" nType="-99"/>
          </Node>
        </Node>
      </Node>
    </BinaryTree>
    <BinaryTree type="DecisionTree" boostWeight="1.0000000000000000e+00" itree="3">
      <Node pos="s" depth="0" NCoef="0" IVar="2" Cut="1.0348277282714844e+02" cType="1" res="4.7778803855180740e-03" rms="4.7411200404167175e-01" purity="4.9832418560981750e-01" nType="0">
        <Node pos="l" depth="1" NCoef="0" IVar="5" Cut="6.7791481018066406e+01" cType="1" res="-1.2776710093021393e-01" rms="4.6071314811706543e-01" purity="3.3594056963920593e-01" nType="0">
          <Node pos="l" depth="2" NCoef="0" IVar="6" Cut="2.2218498229980469e+01" cType="1" res="-4.6673055738210678e-02" rms="4.8544505238533020e-01" purity="4.3223211169242859e-01" nType="0">
            <Node pos="l" depth="3" NCoef="0" IVar="-1" Cut="0.0000000000000000e+00" cType="1" res="-4.6050436794757843e-02" rms="4.3047076463699341e-01" purity="2.5358852744102478e-01" nType="-99"/>
            <Node pos="r" depth="3" NCoef="0" IVar="-1" Cut="0.0000000000000000e+00" cType="1" res="3.3327986020594835e-03" rms="4.8988521099090576e-01" purity="5.0021672248840332e-01" nType="-99"/>
          </Node>
          <Node pos="r" depth="2" NCoef="0" IVar="7" Cut="3.5793773651123047e+01" cType="1" res="-2.1523351967334747e-01" rms="4.1505917906761169e-01" purity="2.3208236694335938e-01" nType="0">
            <Node pos="l" depth="3" NCoef="0" IVar="-1" Cut="0.0000000000000000e+00" cType="1" res="-6.4719237387180328e-02" rms="3.3984702825546265e-01" purity="1.3459801673889160e-01" nType="-99"/>
            <Node pos="r" depth="3" NCoef="0" IVar="-1" Cut="0.0000000000000000e+00" cType="1" res="-3.4020073711872101e-02" rms="4.6120220422744751e-01" purity="3.1182265281677246e-01" nType="-99"/>
          </Node>
        </Node>
        <Node pos="r" depth="1" NCoef="0" IVar="3" Cut="6.6265800476074219e+01" cType="1" res="1.4507766067981720e-01" rms="4.4694581627845764e-01" purity="6.7020839452743530e-01" nType="0">
          <Node pos="l" depth="2" NCoef="0" IVar="7" Cut="3.5793773651123047e+01" cType="1" res="4.6363666653633118e-02" rms="4.8203119635581970e-01" purity="5.4377526044845581e-01" nType="0">
            <Node pos="l" depth="3" NCoef="0" IVar="-1" Cut="0.0000000000000000e+00" cType="1" res="-2.0279206335544586e-02" rms="4.6983242034912109e-01" purity="3.6861249804496765e-01" nType="-99"/>
            <Node pos="r" depth="3" NCoef="0" IVar="-1" Cut="0.0000000000000000e+00" cType="1" res="2.3068960756063461e-02" rms="4.6993190050125122e-01" purity="6.4001452922821045e-01" nType="-99"/>
          </Node>
          <Node pos="r" depth="2" NCoef="0" IVar="7" Cut="3.4082653045654297e+01" cType="1" res="2.8612247109413147e-01" rms="3.4550464153289795e-01" purity="8.5085886716842651e-01" nType="0">
            <Node pos="l" depth="3" NCoef="0" IVar="-1" Cut="0.0000000000000000e+00" cType="1" res="3.1981334090232849e-02" rms="4.3454241752624512e-01" purity="7.2203391790390015e-01" nType="-99"/>
            <Node pos="r" depth="3" NCoef="0" IVar="-1" Cut="0.0000000000000000e+00" cType="1" res="5.4736308753490448e-02" rms="3.0241182446479797e-01" purity="8.9315527677536011e-01" nType="-99"/>
          </Node>
        </Node>
      </Node>
    </BinaryTree>
    <BinaryTree type="DecisionTree" boostWeight="1.0000000000000000e+00" itree="4">
      <Node pos="s" depth="0" NCoef="0" IVar="2" Cut="1.4839981079101562e+02" cType="1" res="3.5011116415262222e-03" rms="4.6691757440567017e-01" purity="4.9617168307304382e-01" nType="0">
        <Node pos="l" depth="1" NCoef="0" IVar="3" Cut="5.1073394775390625e+01" cType="1" res="-7.7988155186176300e-02" rms="4.6779617667198181e-01" purity="3.8049486279487610e-01" nType="0">
          <Node pos="l" depth="2" NCoef="0" IVar="7" Cut="3.5759315490722656e+01" cType="1" res="-1.2704108655452728e-01" rms="4.5244666934013367e-01" purity="3.1341812014579773e-01" nType="0">
            <Node pos="l" depth="3" NCoef="0" IVar="-1" Cut="0.0000000000000000e+00" cType="1" res="-4.8244599252939224e-02" rms="3.8912829756736755e-01" purity="1.9238901138305664e-01" nType="-99"/>
            <Node pos="r" depth="3" NCoef="0" IVar="-1" Cut="0.0000000000000000e+00" cType="1" res="-1.3250659219920635e-02" rms="4.8408633470535278e-01" purity="4.0095141530036926e-01" nType="-99"/>
          </Node>
          <Node pos="r" depth="2" NCoef="0" IVar="4" Cut="1.3643139648437500e+02" cType="1" res="5.5270634591579437e-02" rms="4.8260936141014099e-01" purity="5.6271761655807495e-01" nType="0">
            <Node pos="l" depth="3" NCoef="0" IVar="-1" Cut="0.0000000000000000e+00" cType="1" res="-1.1266650632023811e-02" rms="4.8307704925537109e-01" purity="4.4461777806282043e-01" nType="-99"/>
            <Node pos="r" depth="3" NCoef="0" IVar="-1" Cut="0.0000000000000000e+00" cType="1" res="2.3822387680411339e-02" rms="4.6750420331954956e-01" purity="6.4164429903030396e-01" nType="-99"/>
          </Node>
        </Node>
        <Node pos="r" depth="1" NCoef="0" IVar="3" Cut="5.6406951904296875e+01" cType="1" res="1.9274568557739258e-01" rms="4.0604177117347717e-01" purity="7.6481091976165771e-01" nType="0">
          <Node pos="l" depth="2" NCoef="0" IVar="7" Cut="3.9933441162109375e+01" cType="1" res="9.7905635833740234e-02" rms="4.7105184197425842e-01" purity="6.3133960962295532e-01" nType="0">
            <Node pos="l" depth="3" NCoef="0" IVar="-1" Cut="0.0000000000000000e+00" cType="1" res="-1.0957996360957623e-02" rms="4.8994567990303040e-01" purity="4.4710579514503479e-01" nType="-99"/>
            <Node pos="r" depth="3" NCoef="0" IVar="-1" Cut="0.0000000000000000e+00" cType="1" res="3.2172553241252899e-02" rms="4.3876984715461731e-01" purity="7.3074853420257568e-01" nType="-99"/>
          </Node>
          <Node pos="r" depth="2" NCoef="0" IVar="7" Cut="4.6501621246337891e+01" cType="1" res="2.7975425124168396e-01" rms="3.1102424860000610e-01" purity="8.8726067543029785e-01" nType="0">
            <Node pos="l" depth="3" NCoef="0" IVar="-1" Cut="0.0000000000000000e+00" cType="1" res="3.9315007627010345e-02" rms="3.8059768080711365e-01" purity="8.1682342290878296e-01" nType="-99"/>
            <Node pos="r" depth="3" NCoef="0" IVar="-1" Cut="0.0000000000000000e+00" cType="1" res="5.4781891405582428e-02" rms="2.5084102153778076e-01" purity="9.3164783716201782e-01" nType="-99"/>
          </Node>
        </Node>
      </Node>
    </BinaryTree>
    <BinaryTree type="DecisionTree" boostWeight="1.0000000000000000e+00" itree="5">
      <Node pos="s" depth="0" NCoef="0" IVar="2" Cut="1.5522415161132812e+02" cType="1" res="7.0704277604818344e-03" rms="4.6184459328651428e-01" purity="4.9919158220291138e-01" nType="0">
        <Node pos="l" depth="1" NCoef="0" IVar="3" Cut="5.9837879180908203e+01" cType="1" res="-6.4678907394409180e-02" rms="4.6633446216583252e-01" purity="3.8725680112838745e-01" nType="0">
          <Node pos="l" depth="2" NCoef="0" IVar="6" Cut="3.1030998229980469e+01" cType="1" res="-1.1114841699600220e-01" rms="4.5336806774139404e-01" purity="3.1905367970466614e-01" nType="0">
            <Node pos="l" depth="3" NCoef="0" IVar="-1" Cut="0.0000000000000000e+00" cType="1" res="-4.0681906044483185e-02" rms="4.2281487584114075e-01" purity="2.4102902412414551e-01" nType="-99"/>
            <Node pos="r" depth="3" NCoef="0" IVar="-1" Cut="0.0000000000000000e+00" cType="1" res="-9.4187958166003227e-03" rms="4.6937194466590881e-01" purity="3.8860470056533813e-01" nType="-99"/>
          </Node>
          <Node pos="r" depth="2" NCoef="0" IVar="3" Cut="8.8334030151367188e+01" cType="1" res="7.4267417192459106e-02" rms="4.7682496905326843e-01" purity="5.9118795394897461e-01" nType="0">
            <Node pos="l" depth="3" NCoef="0" IVar="-1" Cut="0.0000000000000000e+00" cType="1" res="2.6672063395380974e-02" rms="4.5768222212791443e-01" purity="6.6512799263000488e-01" nType="-99"/>
            <Node pos="r" depth="3" NCoef="0" IVar="-1" Cut="0.0000000000000000e+00" cType="1" res="-1.3788484036922455e-02" rms="4.8128074407577515e-01" purity="4.4472151994705200e-01" nType="-99"/>
          </Node>
        </Node>
        <Node pos="r" depth="1" NCoef="0" IVar="5" Cut="7.4497070312500000e+01" cType="1" res="1.8749459087848663e-01" rms="3.9663919806480408e-01" purity="7.8066784143447876e-01" nType="0">
          <Node pos="l" depth="2" NCoef="0" IVar="6" Cut="3.0321989059448242e+01" cType="1" res="2.4100050330162048e-01" rms="3.5236343741416931e-01" purity="8.4419792890548706e-01" nType="0">
            <Node pos="l" depth="3" NCoef="0" IVar="-1" Cut="0.0000000000000000e+00" cType="1" res="2.7105960994958878e-02" rms="4.2325785756111145e-01" purity="7.4765378236770630e-01" nType="-99"/>
            <Node pos="r" depth="3" NCoef="0" IVar="-1" Cut="0.0000000000000000e+00" cType="1" res="4.9622751772403717e-02" rms="3.0608510971069336e-01" purity="8.8770115375518799e-01" nType="-99"/>
          </Node>
          <Node pos="r" depth="2" NCoef="0" IVar="-1" Cut="0.0000000000000000e+00" cType="1" res="9.0442299842834473e-03" rms="4.6582314372062683e-01" purity="6.1448848247528076e-01" nType="-99"/>
        </Node>
      </Node>
    </BinaryTree>
    <BinaryTree type="DecisionTree" boostWeight="1.0000000000000000e+00" itree="6">
      <Node pos="s" depth="0" NCoef="0" IVar="2" Cut="1.0348277282714844e+02" cType="1" res="1.0365136899054050e-02" rms="4.5767694711685181e-01" purity="5.0099050998687744e-01" nType="0">
        <Node pos="l" depth="1" NCoef="0" IVar="5" Cut="6.9232978820800781e+01" cType="1" res="-9.2092163860797882e-02" rms="4.5546472072601318e-01" purity="3.4061941504478455e-01" nType="0">
          <Node pos="l" depth="2" NCoef="0" IVar="6" Cut="3.1030998229980469e+01" cType="1" res="-2.6462987065315247e-02" rms="4.7835385799407959e-01" purity="4.3105468153953552e-01" nType="0">
            <Node pos="l" depth="3" NCoef="0" IVar="-1" Cut="0.0000000000000000e+00" cType="1" res="-2.7254106476902962e-02" rms="4.5065036416053772e-01" purity="3.0312499403953552e-01" nType="-99"/>
            <Node pos="r" depth="3" NCoef="0" IVar="-1" Cut="0.0000000000000000e+00" cType="1" res="1.2185348197817802e-02" rms="4.8443755507469177e-01" purity="5.4606109857559204e-01" nType="-99"/>
          </Node>
          <Node pos="r" depth="2" NCoef="0" IVar="7" Cut="6.1497200012207031e+01" cType="1" res="-1.6495707631111145e-01" rms="4.1668444871902466e-01" purity="2.4021351337432861e-01" nType="0">
            <Node pos="l" depth="3" NCoef="0" IVar="-1" Cut="0.0000000000000000e+00" cType="1" res="-4.5201592147350311e-02" rms="3.8869139552116394e-01" purity="1.9587241113185883e-01" nType="-99"/>
            <Node pos="r" depth="3" NCoef="0" IVar="-1" Cut="0.0000000000000000e+00" cType="1" res="-1.7445225268602371e-02" rms="4.7491928935050964e-01" purity="3.5981783270835876e-01" nType="-99"/>
          </Node>
        </Node>
        <Node pos="r" depth="1" NCoef="0" IVar="3" Cut="6.0700538635253906e+01" cType="1" res="1.1844090372323990e-01" rms="4.3456357717514038e-01" purity="6.7015600204467773e-01" nType="0">
          <Node pos="l" depth="2" NCoef="0" IVar="7" Cut="3.9825584411621094e+01" cType="1" res="3.8363378494977951e-02" rms="4.7470912337303162e-01" purity="5.3839641809463501e-01" nType="0">
            <Node pos="l" depth="3" NCoef="0" IVar="-1" Cut="0.0000000000000000e+00" cType="1" res="-1.5082948841154575e-02" rms="4.6642267704010010e-01" purity="3.7730628252029419e-01" nType="-99"/>
            <Node pos="r" depth="3" NCoef="0" IVar="-1" Cut="0.0000000000000000e+00" cType="1" res="2.0435169339179993e-02" rms="4.6613147854804993e-01" purity="6.4281439781188965e-01" nType="-99"/>
          </Node>
          <Node pos="r" depth="2" NCoef="0" IVar="7" Cut="3.4148632049560547e+01" cType="1" res="2.2276753187179565e-01" rms="3.4935665130615234e-01" purity="8.4181505441665649e-01" nType="0">
            <Node pos="l" depth="3" NCoef="0" IVar="-1" Cut="0.0000000000000000e+00" cType="1" res="2.3155530914664268e-02" rms="4.3391808867454529e-01" purity="7.1042943000793457e-01" nType="-99"/>
            <Node pos="r" depth="3" NCoef="0" IVar="-1" Cut="0.0000000000000000e+00" cType="1" res="4.6235624700784683e-02" rms="3.0768769979476929e-01" purity="8.8721644878387451e-01" nType="-99"/>
          </Node>
        </Node>
      </Node>
    </BinaryTree>
    <BinaryTree type="DecisionTree" boostWeight="1.0000000000000000e+00" itree="7">
      <Node pos="s" depth="0" NCoef="0" IVar="2" Cut="1.0173213195800781e+02" cType="1" res="7.2620986029505730e-03" rms="4.5146435499191284e-01" purity="4.9868282675743103e-01" nType="0">
        <Node pos="l" depth="1" NCoef="0" IVar="7" Cut="3.5793773651123047e+01" cType="1" res="-9.5154114067554474e-02" rms="4.4785919785499573e-01" purity="3.2725101709365845e-01" nType="0">
          <Node pos="l" depth="2" NCoef="0" IVar="7" Cut="2.8431888580322266e+01" cType="1" res="-1.6598923504352570e-01" rms="3.9509001374244690e-01" purity="2.1402716636657715e-01" nType="0">
            <Node pos="l" depth="3" NCoef="0" IVar="-1" Cut="0.0000000000000000e+00" cType="1" res="-5.0588283687829971e-02" rms="3.5908091068267822e-01" purity="1.6623036563396454e-01" nType="-99"/>
            <Node pos="r" depth="3" NCoef="0" IVar="-1" Cut="0.0000000000000000e+00" cType="1" res="-8.2894088700413704e-03" rms="4.5832362771034241e-01" purity="3.4823888540267944e-01" nType="-99"/>
          </Node>
          <Node pos="r" depth="2" NCoef="0" IVar="6" Cut="3.5759315490722656e+01" cType="1" res="-4.5422732830047607e-02" rms="4.7519612312316895e-01" purity="4.0674233436584473e-01" nType="0">
            <Node pos="l" depth="3" NCoef="0" IVar="-1" Cut="0.0000000000000000e+00" cType="1" res="-2.7289800345897675e-02" rms="4.5217469334602356e-01" purity="3.0640247464179993e-01" nType="-99"/>
            <Node pos="r" depth="3" NCoef="0" IVar="-1" Cut="0.0000000000000000e+00" cType="1" res="1.4245623722672462e-02" rms="4.8213952779769897e-01" purity="5.5275201797485352e-01" nType="-99"/>
          </Node>
        </Node>
        <Node pos="r" depth="1" NCoef="0" IVar="3" Cut="5.5221500396728516e+01" cType="1" res="1.0943087190389633e-01" rms="4.3145361542701721e-01" purity="6.6970044374465942e-01" nType="0">
          <Node pos="l" depth="2" NCoef="0" IVar="1" Cut="4.7565191984176636e-01" cType="1" res="3.6452993750572205e-02" rms="4.7286829352378845e-01" purity="5.3727042675018311e-01" nType="0">
            <Node pos="l" depth="3" NCoef="0" IVar="-1" Cut="0.0000000000000000e+00" cType="1" res="-2.1516453474760056e-02" rms="4.6862640976905823e-01" purity="3.8436347246170044e-01" nType="-99"/>
            <Node pos="r" depth="3" NCoef="0" IVar="-1" Cut="0.0000000000000000e+00" cType="1" res="1.7976023256778717e-02" rms="4.6225789189338684e-01" purity="6.0071331262588501e-01" nType="-99"/>
          </Node>
          <Node pos="r" depth="2" NCoef="0" IVar="7" Cut="3.2323173522949219e+01" cType="1" res="1.9914956390857697e-01" rms="3.5427629947662354e-01" purity="8.3250939846038818e-01" nType="0">
            <Node pos="l" depth="3" NCoef="0" IVar="-1" Cut="0.0000000000000000e+00" cType="1" res="1.6960000619292259e-02" rms="4.4648149609565735e-01" purity="6.7754077911376953e-01" nType="-99"/>
            <Node pos="r" depth="3" NCoef="0" IVar="-1" Cut="0.0000000000000000e+00" cType="1" res="4.2986158281564713e-02" rms="3.1302434206008911e-01" purity="8.8017368316650391e-01" nType="-99"/>
          </Node>
        </Node>
      </Node>
    </BinaryTree>
    <BinaryTree type="DecisionTree" boostWeight="1.0000000000000000e+00" itree="8">
      <Node pos="s" depth="0" NCoef="0" IVar="2" Cut="1.5259819030761719e+02" cType="1" res="8.0469828099012375e-03" rms="4.5034730434417725e-01" purity="4.9731114506721497e-01" nType="0">
        <Node pos="l" depth="1" NCoef="0" IVar="5" Cut="6.9232978820800781e+01" cType="1" res="-4.4344972819089890e-02" rms="4.5899251103401184e-01" purity="3.8925576210021973e-01" nType="0">
          <Node pos="l" depth="2" NCoef="0" IVar="6" Cut="3.1030998229980469e+01" cType="1" res="1.3195450417697430e-02" rms="4.7298404574394226e-01" purity="4.7772657871246338e-01" nType="0">
            <Node pos="l" depth="3" NCoef="0" IVar="-1" Cut="0.0000000000000000e+00" cType="1" res="-1.5709199011325836e-02" rms="4.5937418937683105e-01" purity="3.5531666874885559e-01" nType="-99"/>
            <Node pos="r" depth="3" NCoef="0" IVar="-1" Cut="0.0000000000000000e+00" cType="1" res="1.7239131033420563e-02" rms="4.7134113311767578e-01" purity="5.8728873729705811e-01" nType="-99"/>
          </Node>
          <Node pos="r" depth="2" NCoef="0" IVar="7" Cut="3.5793773651123047e+01" cType="1" res="-1.1543930321931839e-01" rms="4.3060141801834106e-01" purity="2.7994516491889954e-01" nType="0">
            <Node pos="l" depth="3" NCoef="0" IVar="-1" Cut="0.0000000000000000e+00" cType="1" res="-4.2454950511455536e-02" rms="3.6460334062576294e-01" purity="1.6558785736560822e-01" nType="-99"/>
            <Node pos="r" depth="3" NCoef="0" IVar="-1" Cut="0.0000000000000000e+00" cType="1" res="-1.4938119798898697e-02" rms="4.7308957576751709e-01" purity="3.7274375557899475e-01" nType="-99"/>
          </Node>
        </Node>
        <Node pos="r" depth="1" NCoef="0" IVar="5" Cut="7.4462989807128906e+01" cType="1" res="1.3796676695346832e-01" rms="3.9954006671905518e-01" purity="7.6526314020156860e-01" nType="0">
          <Node pos="l" depth="2" NCoef="0" IVar="6" Cut="3.0321989059448242e+01" cType="1" res="1.8362970650196075e-01" rms="3.6162263154983521e-01" purity="8.2791078090667725e-01" nType="0">
            <Node pos="l" depth="3" NCoef="0" IVar="-1" Cut="0.0000000000000000e+00" cType="1" res="1.5252193436026573e-02" rms="4.3490347266197205e-01" purity="7.1283352375030518e-01" nType="-99"/>
            <Node pos="r" depth="3" NCoef="0" IVar="-1" Cut="0.0000000000000000e+00" cType="1" res="4.3539647012948990e-02" rms="3.0786573886871338e-01" purity="8.8330274820327759e-01" nType="-99"/>
          </Node>
          <Node pos="r" depth="2" NCoef="0" IVar="-1" Cut="0.0000000000000000e+00" cType="1" res="5.2976873703300953e-03" rms="4.6079695224761963e-01" purity="6.1322641372680664e-01" nType="-99"/>
        </Node>
      </Node>
    </BinaryTree>
    <BinaryTree type="DecisionTree" boostWeight="1.0000000000000000e+00" itree="9">
      <Node pos="s" depth="0" NCoef="0" IVar="3" Cut="6.6444938659667969e+01" cType="1" res="1.0023673065006733e-02" rms="4.4680601358413696e-01" purity="4.9975985288619995e-01" nType="0">
        <Node pos="l" depth="1" NCoef="0" IVar="4" Cut="1.7166885375976562e+02" cType="1" res="-4.1838608682155609e-02" rms="4.5569491386413574e-01" purity="3.9847761392593384e-01" nType="0">
          <Node pos="l" depth="2" NCoef="0" IVar="1" Cut="4.7565981745719910e-01" cType="1" res="-2.2391496226191521e-02" rms="4.5877450704574585e-01" purity="4.1768828034400940e-01" nType="0">
            <Node pos="l" depth="3" NCoef="0" IVar="-1" Cut="0.0000000000000000e+00" cType="1" res="-2.5407124310731888e-02" rms="4.3584856390953064e-01" purity="3.0264407396316528e-01" nType="-99"/>
            <Node pos="r" depth="3" NCoef="0" IVar="-1" Cut="0.0000000000000000e+00" cType="1" res="6.9477776996791363e-03" rms="4.6325227618217468e-01" purity="4.8816347122192383e-01" nType="-99"/>
          </Node>
          <Node pos="r" depth="2" NCoef="0" IVar="-1" Cut="0.0000000000000000e+00" cType="1" res="-6.5220832824707031e-02" rms="3.3730977773666382e-01" purity="1.6625155508518219e-01" nType="-99"/>
        </Node>
        <Node pos="r" depth="1" NCoef="0" IVar="3" Cut="9.1786132812500000e+01" cType="1" res="1.2896373867988586e-01" rms="4.0115121006965637e-01" purity="7.3203861713409424e-01" nType="0">
          <Node pos="l" depth="2" NCoef="0" IVar="4" Cut="1.4579577636718750e+02" cType="1" res="1.8027529120445251e-01" rms="3.7497723102569580e-01" purity="7.9112029075622559e-01" nType="0">
            <Node pos="l" depth="3" NCoef="0" IVar="-1" Cut="0.0000000000000000e+00" cType="1" res="1.5430235303938389e-02" rms="4.3452459573745728e-01" purity="6.6182124614715576e-01" nType="-99"/>
            <Node pos="r" depth="3" NCoef="0" IVar="-1" Cut="0.0000000000000000e+00" cType="1" res="4.4137809425592422e-02" rms="3.2361823320388794e-01" purity="8.6344617605209351e-01" nType="-99"/>
          </Node>
          <Node pos="r" depth="2" NCoef="0" IVar="-1" Cut="0.0000000000000000e+00" cType="1" res="5.0293002277612686e-04" rms="4.3417766690254211e-01" purity="5.8638936281204224e-01" nType="-99"/>
        </Node>
      </Node>
    </BinaryTree>
    <BinaryTree type="DecisionTree" boostWeight="1.0000000000000000e+00" itree="10">
      <Node pos="s" depth="0" NCoef="0" IVar="2" Cut="2.0346426391601562e+02" cType="1" res="1.3901677913963795e-02" rms="4.4308704137802124e-01" purity="5.0522744655609131e-01" nType="0">
        <Node pos="l" depth="1" NCoef="0" IVar="5" Cut="7.0570533752441406e+01" cType="1" res="-2.0784214138984680e-02" rms="4.5346838235855103e-01" purity="4.3520426750183105e-01" nType="0">
          <Node pos="l" depth="2" NCoef="0" IVar="6" Cut="3.5740467071533203e+01" cType="1" res="3.4977216273546219e-02" rms="4.6031439304351807e-01" purity="5.2972251176834106e-01" nType="0">
            <Node pos="l" depth="3" NCoef="0" IVar="-1" Cut="0.0000000000000000e+00" cType="1" res="-9.4089983031153679e-03" rms="4.5850828289985657e-01" purity="4.1306531429290771e-01" nType="-99"/>
            <Node pos="r" depth="3" NCoef="0" IVar="-1" Cut="0.0000000000000000e+00" cType="1" res="2.3247884586453438e-02" rms="4.4590219855308533e-01" purity="6.5897113084793091e-01" nType="-99"/>
          </Node>
          <Node pos="r" depth="2" NCoef="0" IVar="7" Cut="6.1497200012207031e+01" cType="1" res="-9.5834054052829742e-02" rms="4.3289318680763245e-01" purity="3.0799126625061035e-01" nType="0">
            <Node pos="l" depth="3" NCoef="0" IVar="-1" Cut="0.0000000000000000e+00" cType="1" res="-3.0044823884963989e-02" rms="4.1010761260986328e-01" purity="2.5173148512840271e-01" nType="-99"/>
            <Node pos="r" depth="3" NCoef="0" IVar="-1" Cut="0.0000000000000000e+00" cType="1" res="-3.6734461318701506e-03" rms="4.7574582695960999e-01" purity="4.4689249992370605e-01" nType="-99"/>
          </Node>
        </Node>
        <Node pos="r" depth="1" NCoef="0" IVar="5" Cut="6.8060386657714844e+01" cType="1" res="1.7625683546066284e-01" rms="3.4751969575881958e-01" purity="8.3298653364181519e-01" nType="0">
          <Node pos="l" depth="2" NCoef="0" IVar="3" Cut="6.7688339233398438e+01" cType="1" res="2.1091626584529877e-01" rms="3.0245935916900635e-01" purity="8.8480800390243530e-01" nType="0">
            <Node pos="l" depth="3" NCoef="0" IVar="-1" Cut="0.0000000000000000e+00" cType="1" res="3.4051425755023956e-02" rms="3.8604271411895752e-01" purity="8.0125391483306885e-01" nType="-99"/>
            <Node pos="r" depth="3" NCoef="0" IVar="-1" Cut="0.0000000000000000e+00" cType="1" res="4.6738717705011368e-02" rms="2.1139068901538849e-01" purity="9.5147573947906494e-01" nType="-99"/>
          </Node>
          <Node pos="r" depth="2" NCoef="0" IVar="-1" Cut="0.0000000000000000e+00" cType="1" res="1.9938156008720398e-02" rms="4.1830742359161377e-01" purity="7.2297692298889160e-01" nType="-99"/>
        </Node>
      </Node>
    </BinaryTree>
    <BinaryTree type="DecisionTree" boostWeight="1.0000000000000000e+00" itree="11">
      <Node pos="s" depth="0" NCoef="0" IVar="2" Cut="1.0173213195800781e+02" cType="1" res="1.2962957844138145e-02" rms="4.3904063105583191e-01" purity="5.0437694787979126e-01" nType="0">
        <Node pos="l" depth="1" NCoef="0" IVar="1" Cut="4.7570535540580750e-01" cType="1" res="-6.2506020069122314e-02" rms="4.4301965832710266e-01" purity="3.4084093570709229e-01" nType="0">
          <Node pos="l" depth="2" NCoef="0" IVar="7" Cut="4.5637138366699219e+01" cType="1" res="-1.2844309210777283e-01" rms="4.1450554132461548e-01" purity="2.5962674617767334e-01" nType="0">
            <Node pos="l" depth="3" NCoef="0" IVar="-1" Cut="0.0000000000000000e+00" cType="1" res="-4.3093081563711166e-02" rms="3.6627128720283508e-01" purity="1.8039712309837341e-01" nType="-99"/>
            <Node pos="r" depth="3" NCoef="0" IVar="-1" Cut="0.0000000000000000e+00" cType="1" res="-1.4897382818162441e-02" rms="4.6218430995941162e-01" purity="3.6012861132621765e-01" nType="-99"/>
          </Node>
          <Node pos="r" depth="2" NCoef="0" IVar="0" Cut="4.7564637660980225e-01" cType="1" res="-1.4147090725600719e-02" rms="4.5680651068687439e-01" purity="4.0040427446365356e-01" nType="0">
            <Node pos="l" depth="3" NCoef="0" IVar="-1" Cut="0.0000000000000000e+00" cType="1" res="-3.5247396677732468e-02" rms="4.0331512689590454e-01" purity="2.4962630867958069e-01" nType="-99"/>
            <Node pos="r" depth="3" NCoef="0" IVar="-1" Cut="0.0000000000000000e+00" cType="1" res="3.4643571823835373e-02" rms="4.5587652921676636e-01" purity="6.0824173688888550e-01" nType="-99"/>
          </Node>
        </Node>
        <Node pos="r" depth="1" NCoef="0" IVar="5" Cut="7.1982475280761719e+01" cType="1" res="8.8570483028888702e-02" rms="4.2168468236923218e-01" purity="6.6821324825286865e-01" nType="0">
          <Node pos="l" depth="2" NCoef="0" IVar="6" Cut="3.1060937881469727e+01" cType="1" res="1.3448430597782135e-01" rms="3.9550578594207764e-01" purity="7.4449300765991211e-01" nType="0">
            <Node pos="l" depth="3" NCoef="0" IVar="-1" Cut="0.0000000000000000e+00" cType="1" res="1.0850567370653152e-02" rms="4.4062393903732300e-01" purity="6.2527453899383545e-01" nType="-99"/>
            <Node pos="r" depth="3" NCoef="0" IVar="-1" Cut="0.0000000000000000e+00" cType="1" res="3.5570926964282990e-02" rms="3.5556259751319885e-01" purity="8.1879681348800659e-01" nType="-99"/>
          </Node>
          <Node pos="r" depth="2" NCoef="0" IVar="7" Cut="3.5841403961181641e+01" cType="1" res="-5.8331773616373539e-03" rms="4.5668157935142517e-01" purity="5.1137405633926392e-01" nType="0">
            <Node pos="l" depth="3" NCoef="0" IVar="-1" Cut="0.0000000000000000e+00" cType="1" res="-2.3291420191526413e-02" rms="4.3733197450637817e-01" purity="3.3577051758766174e-01" nType="-99"/>
            <Node pos="r" depth="3" NCoef="0" IVar="-1" Cut="0.0000000000000000e+00" cType="1" res="9.8486514762043953e-03" rms="4.5787343382835388e-01" purity="6.1133342981338501e-01" nType="-99"/>
          </Node>
        </Node>
      </Node>
    </BinaryTree>
    <BinaryTree type="DecisionTree" boostWeight="1.0000000000000000e+00" itree="12">
      <Node pos="s" depth="0" NCoef="0" IVar="2" Cut="1.4839981079101562e+02" cType="1" res="7.2202440351247787e-03" rms="4.3447867035865784e-01" purity="4.9843513965606689e-01" nType="0">
        <Node pos="l" depth="1" NCoef="0" IVar="7" Cut="6.1464466094970703e+01" cType="1" res="-4.0452748537063599e-02" rms="4.4557392597198486e-01" purity="3.7919795513153076e-01" nType="0">
          <Node pos="l" depth="2" NCoef="0" IVar="7" Cut="2.4742692947387695e+01" cType="1" res="-7.5513482093811035e-02" rms="4.3044638633728027e-01" purity="3.2110592722892761e-01" nType="0">
            <Node pos="l" depth="3" NCoef="0" IVar="-1" Cut="0.0000000000000000e+00" cType="1" res="-3.9707820862531662e-02" rms="3.7012761831283569e-01" purity="1.8770366907119751e-01" nType="-99"/>
            <Node pos="r" depth="3" NCoef="0" IVar="-1" Cut="0.0000000000000000e+00" cType="1" res="-8.0333873629570007e-03" rms="4.5038938522338867e-01" purity="3.8245576620101929e-01" nType="-99"/>
          </Node>
          <Node pos="r" depth="2" NCoef="0" IVar="8" Cut="3.9255545139312744e+00" cType="1" res="4.1562382131814957e-02" rms="4.6897089481353760e-01" purity="5.1508843898773193e-01" nType="0">
            <Node pos="l" depth="3" NCoef="0" IVar="-1" Cut="0.0000000000000000e+00" cType="1" res="1.9097017124295235e-02" rms="4.6313029527664185e-01" purity="5.9544157981872559e-01" nType="-99"/>
            <Node pos="r" depth="3" NCoef="0" IVar="-1" Cut="0.0000000000000000e+00" cType="1" res="-1.7005434259772301e-02" rms="4.5752620697021484e-01" purity="3.4873434901237488e-01" nType="-99"/>
          </Node>
        </Node>
        <Node pos="r" depth="1" NCoef="0" IVar="7" Cut="3.4116790771484375e+01" cType="1" res="1.1559440195560455e-01" rms="3.8686302304267883e-01" purity="7.6949483156204224e-01" nType="0">
          <Node pos="l" depth="2" NCoef="0" IVar="-1" Cut="0.0000000000000000e+00" cType="1" res="3.7707940209656954e-03" rms="4.4559139013290405e-01" purity="6.0987651348114014e-01" nType="-99"/>
          <Node pos="r" depth="2" NCoef="0" IVar="6" Cut="3.0597175598144531e+01" cType="1" res="1.5046915411949158e-01" rms="3.5701379179954529e-01" purity="8.2699579000473022e-01" nType="0">
            <Node pos="l" depth="3" NCoef="0" IVar="-1" Cut="0.0000000000000000e+00" cType="1" res="1.4669023454189301e-02" rms="4.2719003558158875e-01" purity="7.2520905733108521e-01" nType="-99"/>
            <Node pos="r" depth="3" NCoef="0" IVar="-1" Cut="0.0000000000000000e+00" cType="1" res="3.9370179176330566e-02" rms="2.9868957400321960e-01" purity="8.8735389709472656e-01" nType="-99"/>
          </Node>
        </Node>
      </Node>
    </BinaryTree>
    <BinaryTree type="DecisionTree" boostWeight="1.0000000000000000e+00" itree="13">
      <Node pos="s" depth="0" NCoef="0" IVar="3" Cut="5.6406951904296875e+01" cType="1" res="1.4738605357706547e-02" rms="4.3428698182106018e-01" purity="5.0520545244216919e-01" nType="0">
        <Node pos="l" depth="1" NCoef="0" IVar="4" Cut="1.7166885375976562e+02" cType="1" res="-3.6267336457967758e-02" rms="4.4496992230415344e-01" purity="3.8916984200477600e-01" nType="0">
          <Node pos="l" depth="2" NCoef="0" IVar="4" Cut="8.9912277221679688e+01" cType="1" res="-1.9833955913782120e-02" rms="4.4917911291122437e-01" purity="4.0776538848876953e-01" nType="0">
            <Node pos="l" depth="3" NCoef="0" IVar="-1" Cut="0.0000000000000000e+00" cType="1" res="-1.5834165737032890e-02" rms="4.4155785441398621e-01" purity="3.3104297518730164e-01" nType="-99"/>
            <Node pos="r" depth="3" NCoef="0" IVar="-1" Cut="0.0000000000000000e+00" cType="1" res="7.9502379521727562e-03" rms="4.5080614089965820e-01" purity="4.9621662497520447e-01" nType="-99"/>
          </Node>
          <Node pos="r" depth="2" NCoef="0" IVar="-1" Cut="0.0000000000000000e+00" cType="1" res="-5.9397164732217789e-02" rms="3.2614213228225708e-01" purity="1.5843270719051361e-01" nType="-99"/>
        </Node>
        <Node pos="r" depth="1" NCoef="0" IVar="3" Cut="9.9392028808593750e+01" cType="1" res="1.1363675445318222e-01" rms="3.9442017674446106e-01" purity="7.3019313812255859e-01" nType="0">
          <Node pos="l" depth="2" NCoef="0" IVar="4" Cut="1.4778051757812500e+02" cType="1" res="1.3892340660095215e-01" rms="3.8274738192558289e-01" purity="7.6138526201248169e-01" nType="0">
            <Node pos="l" depth="3" NCoef="0" IVar="-1" Cut="0.0000000000000000e+00" cType="1" res="1.3787596486508846e-02" rms="4.3541046977043152e-01" purity="6.4543431997299194e-01" nType="-99"/>
            <Node pos="r" depth="3" NCoef="0" IVar="-1" Cut="0.0000000000000000e+00" cType="1" res="3.6580976098775864e-02" rms="3.3759409189224243e-01" purity="8.3512747287750244e-01" nType="-99"/>
          </Node>
          <Node pos="r" depth="2" NCoef="0" IVar="-1" Cut="0.0000000000000000e+00" cType="1" res="-7.2167324833571911e-03" rms="4.2778033018112183e-01" purity="5.4830020666122437e-01" nType="-99"/>
        </Node>
      </Node>
    </BinaryTree>
    <BinaryTree type="DecisionTree" boostWeight="1.0000000000000000e+00" itree="14">
      <Node pos="s" depth="0" NCoef="0" IVar="5" Cut="6.9232978820800781e+01" cType="1" res="1.7663945909589529e-03" rms="4.3094760179519653e-01" purity="4.9046146869659424e-01" nType="0">
        <Node pos="l" depth="1" NCoef="0" IVar="2" Cut="8.9909416198730469e+01" cType="1" res="5.6261043995618820e-02" rms="4.2844662070274353e-01" purity="5.9791994094848633e-01" nType="0">
          <Node pos="l" depth="2" NCoef="0" IVar="6" Cut="2.3019199371337891e+01" cType="1" res="-2.3618901148438454e-02" rms="4.5742523670196533e-01" purity="4.1077390313148499e-01" nType="0">
            <Node pos="l" depth="3" NCoef="0" IVar="-1" Cut="0.0000000000000000e+00" cType="1" res="-2.7868237346410751e-02" rms="4.1462591290473938e-01" purity="2.4742268025875092e-01" nType="-99"/>
            <Node pos="r" depth="3" NCoef="0" IVar="-1" Cut="0.0000000000000000e+00" cType="1" res="3.3468534238636494e-03" rms="4.6842265129089355e-01" purity="4.7938144207000732e-01" nType="-99"/>
          </Node>
          <Node pos="r" depth="2" NCoef="0" IVar="6" Cut="3.5740467071533203e+01" cType="1" res="1.0763215273618698e-01" rms="4.0039309859275818e-01" purity="7.1827429533004761e-01" nType="0">
            <Node pos="l" depth="3" NCoef="0" IVar="-1" Cut="0.0000000000000000e+00" cType="1" res="9.7997114062309265e-03" rms="4.3927147984504700e-01" purity="6.1137723922729492e-01" nType="-99"/>
            <Node pos="r" depth="3" NCoef="0" IVar="-1" Cut="0.0000000000000000e+00" cType="1" res="3.2178219407796860e-02" rms="3.5463011264801025e-01" purity="8.1224781274795532e-01" nType="-99"/>
          </Node>
        </Node>
        <Node pos="r" depth="1" NCoef="0" IVar="2" Cut="2.0280282592773438e+02" cType="1" res="-7.6468653976917267e-02" rms="4.2239487171173096e-01" purity="3.3618897199630737e-01" nType="0">
          <Node pos="l" depth="2" NCoef="0" IVar="2" Cut="7.7223579406738281e+01" cType="1" res="-9.6145085990428925e-02" rms="4.1841506958007812e-01" purity="2.8514876961708069e-01" nType="0">
            <Node pos="l" depth="3" NCoef="0" IVar="-1" Cut="0.0000000000000000e+00" cType="1" res="-3.3317863941192627e-02" rms="3.8306403160095215e-01" purity="1.9869269430637360e-01" nType="-99"/>
            <Node pos="r" depth="3" NCoef="0" IVar="-1" Cut="0.0000000000000000e+00" cType="1" res="-1.3815819285809994e-02" rms="4.4647642970085144e-01" purity="3.6639565229415894e-01" nType="-99"/>
          </Node>
          <Node pos="r" depth="2" NCoef="0" IVar="-1" Cut="0.0000000000000000e+00" cType="1" res="1.2600609101355076e-02" rms="4.2426684498786926e-01" purity="6.9671052694320679e-01" nType="-99"/>
        </Node>
      </Node>
    </BinaryTree>
    <BinaryTree type="DecisionTree" boostWeight="1.0000000000000000e+00" itree="15">
      <Node pos="s" depth="0" NCoef="0" IVar="7" Cut="6.9474540710449219e+01" cType="1" res="1.1203345842659473e-02" rms="4.3074467778205872e-01" purity="5.0133216381072998e-01" nType="0">
        <Node pos="l" depth="1" NCoef="0" IVar="7" Cut="2.4201217651367188e+01" cType="1" res="-2.7972223237156868e-02" rms="4.3139010667800903e-01" purity="4.3086159229278564e-01" nType="0">
          <Node pos="l" depth="2" NCoef="0" IVar="7" Cut="1.6789648056030273e+01" cType="1" res="-1.3533367216587067e-01" rms="3.8981840014457703e-01" purity="2.4929919838905334e-01" nType="0">
            <Node pos="l" depth="3" NCoef="0" IVar="-1" Cut="0.0000000000000000e+00" cType="1" res="-5.4533071815967560e-02" rms="3.4598305821418762e-01" purity="1.6600476205348969e-01" nType="-99"/>
            <Node pos="r" depth="3" NCoef="0" IVar="-1" Cut="0.0000000000000000e+00" cType="1" res="-2.3331074044108391e-02" rms="4.0511199831962585e-01" purity="2.9250204563140869e-01" nType="-99"/>
          </Node>
          <Node pos="r" depth="2" NCoef="0" IVar="6" Cut="2.6369306564331055e+01" cType="1" res="1.0042381472885609e-02" rms="4.3892937898635864e-01" purity="4.9514937400817871e-01" nType="0">
            <Node pos="l" depth="3" NCoef="0" IVar="-1" Cut="0.0000000000000000e+00" cType="1" res="-1.9887352362275124e-02" rms="4.3088418245315552e-01" purity="3.4136277437210083e-01" nType="-99"/>
            <Node pos="r" depth="3" NCoef="0" IVar="-1" Cut="0.0000000000000000e+00" cType="1" res="1.4421990141272545e-02" rms="4.3302604556083679e-01" purity="5.8946275711059570e-01" nType="-99"/>
          </Node>
        </Node>
        <Node pos="r" depth="1" NCoef="0" IVar="6" Cut="3.5745433807373047e+01" cType="1" res="1.0860564559698105e-01" rms="4.1334542632102966e-01" purity="6.7654323577880859e-01" nType="0">
          <Node pos="l" depth="2" NCoef="0" IVar="6" Cut="2.3499647140502930e+01" cType="1" res="4.3064866214990616e-02" rms="4.4588473439216614e-01" purity="5.5849152803421021e-01" nType="0">
            <Node pos="l" depth="3" NCoef="0" IVar="-1" Cut="0.0000000000000000e+00" cType="1" res="-6.2180124223232269e-03" rms="4.4658049941062927e-01" purity="4.6526134014129639e-01" nType="-99"/>
            <Node pos="r" depth="3" NCoef="0" IVar="-1" Cut="0.0000000000000000e+00" cType="1" res="2.6427784934639931e-02" rms="4.2791688442230225e-01" purity="6.7636656761169434e-01" nType="-99"/>
          </Node>
          <Node pos="r" depth="2" NCoef="0" IVar="5" Cut="6.2214431762695312e+01" cType="1" res="1.7144449055194855e-01" rms="3.6875611543655396e-01" purity="7.8972822427749634e-01" nType="0">
            <Node pos="l" depth="3" NCoef="0" IVar="-1" Cut="0.0000000000000000e+00" cType="1" res="4.1481960564851761e-02" rms="3.0884090065956116e-01" purity="8.7699401378631592e-01" nType="-99"/>
            <Node pos="r" depth="3" NCoef="0" IVar="-1" Cut="0.0000000000000000e+00" cType="1" res="2.2759869694709778e-02" rms="4.3782636523246765e-01" purity="6.5929335355758667e-01" nType="-99"/>
          </Node>
        </Node>
      </Node>
    </BinaryTree>
    <BinaryTree type="DecisionTree" boostWeight="1.0000000000000000e+00" itree="16">
      <Node pos="s" depth="0" NCoef="0" IVar="2" Cut="1.8038102722167969e+02" cType="1" res="6.3877878710627556e-03" rms="4.2584100365638733e-01" purity="4.9848219752311707e-01" nType="0">
        <Node pos="l" depth="1" NCoef="0" IVar="5" Cut="6.7791481018066406e+01" cType="1" res="-2.5766372680664062e-02" rms="4.3917459249496460e-01" purity="4.0899780392646790e-01" nType="0">
          <Node pos="l" depth="2" NCoef="0" IVar="0" Cut="4.7580581903457642e-01" cType="1" res="2.0301373675465584e-02" rms="4.5092749595642090e-01" purity="5.1124411821365356e-01" nType="0">
            <Node pos="l" depth="3" NCoef="0" IVar="-1" Cut="0.0000000000000000e+00" cType="1" res="-1.2250448577105999e-02" rms="4.4785091280937195e-01" purity="4.2983952164649963e-01" nType="-99"/>
            <Node pos="r" depth="3" NCoef="0" IVar="-1" Cut="0.0000000000000000e+00" cType="1" res="1.2432209216058254e-02" rms="4.4708359241485596e-01" purity="5.5432426929473877e-01" nType="-99"/>
          </Node>
          <Node pos="r" depth="2" NCoef="0" IVar="7" Cut="6.1497200012207031e+01" cType="1" res="-8.0260023474693298e-02" rms="4.1835355758666992e-01" purity="2.8805032372474670e-01" nType="0">
            <Node pos="l" depth="3" NCoef="0" IVar="-1" Cut="0.0000000000000000e+00" cType="1" res="-2.8732083737850189e-02" rms="3.8944724202156067e-01" purity="2.1984216570854187e-01" nType="-99"/>
            <Node pos="r" depth="3" NCoef="0" IVar="-1" Cut="0.0000000000000000e+00" cType="1" res="-1.1250997195020318e-03" rms="4.7137963771820068e-01" purity="4.4910740852355957e-01" nType="-99"/>
          </Node>
        </Node>
        <Node pos="r" depth="1" NCoef="0" IVar="5" Cut="8.0466125488281250e+01" cType="1" res="1.2141415476799011e-01" rms="3.5092842578887939e-01" purity="8.1859827041625977e-01" nType="0">
          <Node pos="l" depth="2" NCoef="0" IVar="2" Cut="2.5342022705078125e+02" cType="1" res="1.4980328083038330e-01" rms="3.1272429227828979e-01" purity="8.7023359537124634e-01" nType="0">
            <Node pos="l" depth="3" NCoef="0" IVar="-1" Cut="0.0000000000000000e+00" cType="1" res="2.4983385577797890e-02" rms="3.5581302642822266e-01" purity="8.2435280084609985e-01" nType="-99"/>
            <Node pos="r" depth="3" NCoef="0" IVar="-1" Cut="0.0000000000000000e+00" cType="1" res="4.0460769087076187e-02" rms="2.5327101349830627e-01" purity="9.2004996538162231e-01" nType="-99"/>
          </Node>
          <Node pos="r" depth="2" NCoef="0" IVar="-1" Cut="0.0000000000000000e+00" cType="1" res="5.9090498834848404e-03" rms="4.4098779559135437e-01" purity="6.5064930915832520e-01" nType="-99"/>
        </Node>
      </Node>
    </BinaryTree>
    <BinaryTree type="DecisionTree" boostWeight="1.0000000000000000e+00" itree="17">
      <Node pos="s" depth="0" NCoef="0" IVar="3" Cut="5.1073394775390625e+01" cType="1" res="1.1440320871770382e-02" rms="4.2442092299461365e-01" purity="5.0190567970275879e-01" nType="0">
        <Node pos="l" depth="1" NCoef="0" IVar="0" Cut="4.7575655579566956e-01" cType="1" res="-2.9030509293079376e-02" rms="4.3641796708106995e-01" purity="3.8829600811004639e-01" nType="0">
          <Node pos="l" depth="2" NCoef="0" IVar="4" Cut="1.4523899841308594e+02" cType="1" res="-1.0842247307300568e-01" rms="4.1533663868904114e-01" purity="3.0260214209556580e-01" nType="0">
            <Node pos="l" depth="3" NCoef="0" IVar="-1" Cut="0.0000000000000000e+00" cType="1" res="-1.8411675468087196e-02" rms="4.2711931467056274e-01" purity="3.3415517210960388e-01" nType="-99"/>
            <Node pos="r" depth="3" NCoef="0" IVar="-1" Cut="0.0000000000000000e+00" cType="1" res="-5.4117508232593536e-02" rms="3.4593608975410461e-01" purity="1.8067370355129242e-01" nType="-99"/>
          </Node>
          <Node pos="r" depth="2" NCoef="0" IVar="1" Cut="4.7565665841102600e-01" cType="1" res="1.5926612541079521e-02" rms="4.4163134694099426e-01" purity="4.3682169914245605e-01" nType="0">
            <Node pos="l" depth="3" NCoef="0" IVar="-1" Cut="0.0000000000000000e+00" cType="1" res="-2.9822489246726036e-02" rms="4.0514129400253296e-01" purity="2.4673628807067871e-01" nType="-99"/>
            <Node pos="r" depth="3" NCoef="0" IVar="-1" Cut="0.0000000000000000e+00" cType="1" res="3.5553131252527237e-02" rms="4.2596843838691711e-01" purity="6.6556119918823242e-01" nType="-99"/>
          </Node>
        </Node>
        <Node pos="r" depth="1" NCoef="0" IVar="4" Cut="1.3651724243164062e+02" cType="1" res="8.8362909853458405e-02" rms="3.8919588923454285e-01" purity="7.1784275770187378e-01" nType="0">
          <Node pos="l" depth="2" NCoef="0" IVar="4" Cut="9.1808837890625000e+01" cType="1" res="5.2884672768414021e-03" rms="4.3405055999755859e-01" purity="5.7331293821334839e-01" nType="0">
            <Node pos="l" depth="3" NCoef="0" IVar="-1" Cut="0.0000000000000000e+00" cType="1" res="1.6167242079973221e-02" rms="4.1356116533279419e-01" purity="6.6453051567077637e-01" nType="-99"/>
            <Node pos="r" depth="3" NCoef="0" IVar="-1" Cut="0.0000000000000000e+00" cType="1" res="-1.8405904993414879e-02" rms="4.4160246849060059e-01" purity="4.6161720156669617e-01" nType="-99"/>
          </Node>
          <Node pos="r" depth="2" NCoef="0" IVar="0" Cut="4.7573715448379517e-01" cType="1" res="1.2628263235092163e-01" rms="3.6059689521789551e-01" purity="7.8381407260894775e-01" nType="0">
            <Node pos="l" depth="3" NCoef="0" IVar="-1" Cut="0.0000000000000000e+00" cType="1" res="1.4988042414188385e-02" rms="3.9534473419189453e-01" purity="7.0330214500427246e-01" nType="-99"/>
            <Node pos="r" depth="3" NCoef="0" IVar="-1" Cut="0.0000000000000000e+00" cType="1" res="3.5199191421270370e-02" rms="3.2622960209846497e-01" purity="8.4360128641128540e-01" nType="-99"/>
          </Node>
        </Node>
      </Node>
    </BinaryTree>
    <BinaryTree type="DecisionTree" boostWeight="1.0000000000000000e+00" itree="18">
      <Node pos="s" depth="0" NCoef="0" IVar="2" Cut="1.4839981079101562e+02" cType="1" res="9.8131578415632248e-03" rms="4.2032572627067566e-01" purity="5.0234675407409668e-01" nType="0">
        <Node pos="l" depth="1" NCoef="0" IVar="0" Cut="4.7580581903457642e-01" cType="1" res="-2.4808371439576149e-02" rms="4.3451851606369019e-01" purity="3.8335657119750977e-01" nType="0">
          <Node pos="l" depth="2" NCoef="0" IVar="3" Cut="6.6594108581542969e+01" cType="1" res="-8.3452120423316956e-02" rms="4.1759911179542542e-01" purity="3.1054091453552246e-01" nType="0">
            <Node pos="l" depth="3" NCoef="0" IVar="-1" Cut="0.0000000000000000e+00" cType="1" res="-2.7959909290075302e-02" rms="3.9997053146362305e-01" purity="2.3879423737525940e-01" nType="-99"/>
            <Node pos="r" depth="3" NCoef="0" IVar="-1" Cut="0.0000000000000000e+00" cType="1" res="4.6787625178694725e-03" rms="4.5736300945281982e-01" purity="5.5742639303207397e-01" nType="-99"/>
          </Node>
          <Node pos="r" depth="2" NCoef="0" IVar="1" Cut="4.7567510604858398e-01" cType="1" res="7.5340401381254196e-03" rms="4.4024410843849182e-01" purity="4.2351490259170532e-01" nType="0">
            <Node pos="l" depth="3" NCoef="0" IVar="-1" Cut="0.0000000000000000e+00" cType="1" res="-2.3513689637184143e-02" rms="4.1043207049369812e-01" purity="2.7537837624549866e-01" nType="-99"/>
            <Node pos="r" depth="3" NCoef="0" IVar="-1" Cut="0.0000000000000000e+00" cType="1" res="3.2775774598121643e-02" rms="4.3541362881660461e-01" purity="6.5219867229461670e-01" nType="-99"/>
          </Node>
        </Node>
        <Node pos="r" depth="1" NCoef="0" IVar="5" Cut="8.4536399841308594e+01" cType="1" res="8.8364236056804657e-02" rms="3.7450867891311646e-01" purity="7.7231776714324951e-01" nType="0">
          <Node pos="l" depth="2" NCoef="0" IVar="2" Cut="2.7560577392578125e+02" cType="1" res="1.1293926835060120e-01" rms="3.4712463617324829e-01" purity="8.2449007034301758e-01" nType="0">
            <Node pos="l" depth="3" NCoef="0" IVar="-1" Cut="0.0000000000000000e+00" cType="1" res="1.9416069611907005e-02" rms="3.7673094868659973e-01" purity="7.8549814224243164e-01" nType="-99"/>
            <Node pos="r" depth="3" NCoef="0" IVar="-1" Cut="0.0000000000000000e+00" cType="1" res="3.9321754127740860e-02" rms="2.4706220626831055e-01" purity="9.2388057708740234e-01" nType="-99"/>
          </Node>
          <Node pos="r" depth="2" NCoef="0" IVar="-1" Cut="0.0000000000000000e+00" cType="1" res="3.5968792508356273e-04" rms="4.4751968979835510e-01" purity="5.8843868970870972e-01" nType="-99"/>
        </Node>
      </Node>
    </BinaryTree>
    <BinaryTree type="DecisionTree" boostWeight="1.0000000000000000e+00" itree="19">
      <Node pos="s" depth="0" NCoef="0" IVar="2" Cut="2.0696554565429688e+02" cType="1" res="6.8365442566573620e-03" rms="4.1823554039001465e-01" purity="4.9908795952796936e-01" nType="0">
        <Node pos="l" depth="1" NCoef="0" IVar="7" Cut="6.1497200012207031e+01" cType="1" res="-1.3698955997824669e-02" rms="4.3049511313438416e-01" purity="4.3235954642295837e-01" nType="0">
          <Node pos="l" depth="2" NCoef="0" IVar="7" Cut="1.9881135940551758e+01" cType="1" res="-4.3804764747619629e-02" rms="4.2180064320564270e-01" purity="3.6467030644416809e-01" nType="0">
            <Node pos="l" depth="3" NCoef="0" IVar="-1" Cut="0.0000000000000000e+00" cType="1" res="-4.1023325175046921e-02" rms="3.4709876775741577e-01" purity="1.7806386947631836e-01" nType="-99"/>
            <Node pos="r" depth="3" NCoef="0" IVar="-1" Cut="0.0000000000000000e+00" cType="1" res="-4.8096184618771076e-03" rms="4.3253061175346375e-01" purity="4.0397211909294128e-01" nType="-99"/>
          </Node>
          <Node pos="r" depth="2" NCoef="0" IVar="6" Cut="3.5820545196533203e+01" cType="1" res="5.0671193748712540e-02" rms="4.4168844819068909e-01" purity="5.7708817720413208e-01" nType="0">
            <Node pos="l" depth="3" NCoef="0" IVar="-1" Cut="0.0000000000000000e+00" cType="1" res="-9.7556499531492591e-04" rms="4.5385339856147766e-01" purity="4.6787053346633911e-01" nType="-99"/>
            <Node pos="r" depth="3" NCoef="0" IVar="-1" Cut="0.0000000000000000e+00" cType="1" res="2.2446159273386002e-02" rms="4.1884213685989380e-01" purity="7.0043700933456421e-01" nType="-99"/>
          </Node>
        </Node>
        <Node pos="r" depth="1" NCoef="0" IVar="6" Cut="3.1074827194213867e+01" cType="1" res="1.1209663003683090e-01" rms="3.2915928959846497e-01" purity="8.4112155437469482e-01" nType="0">
          <Node pos="l" depth="2" NCoef="0" IVar="-1" Cut="0.0000000000000000e+00" cType="1" res="1.3050364330410957e-02" rms="3.9631921052932739e-01" purity="7.5658720731735229e-01" nType="-99"/>
          <Node pos="r" depth="2" NCoef="0" IVar="-1" Cut="0.0000000000000000e+00" cType="1" res="3.1867247074842453e-02" rms="2.8826794028282166e-01" purity="8.8161063194274902e-01" nType="-99"/>
        </Node>
      </Node>
    </BinaryTree>
    <BinaryTree type="DecisionTree" boostWeight="1.0000000000000000e+00" itree="20">
      <Node pos="s" depth="0" NCoef="0" IVar="3" Cut="5.6406951904296875e+01" cType="1" res="5.3263506852090359e-03" rms="4.1754278540611267e-01" purity="4.9589392542839050e-01" nType="0">
        <Node pos="l" depth="1" NCoef="0" IVar="4" Cut="1.6384974670410156e+02" cType="1" res="-3.0912283807992935e-02" rms="4.2780512571334839e-01" purity="3.8071298599243164e-01" nType="0">
          <Node pos="l" depth="2" NCoef="0" IVar="4" Cut="1.0142266845703125e+02" cType="1" res="-1.4235345646739006e-02" rms="4.3327540159225464e-01" purity="4.0114533901214600e-01" nType="0">
            <Node pos="l" depth="3" NCoef="0" IVar="-1" Cut="0.0000000000000000e+00" cType="1" res="-1.1930696666240692e-02" rms="4.2911487817764282e-01" purity="3.3345210552215576e-01" nType="-99"/>
            <Node pos="r" depth="3" NCoef="0" IVar="-1" Cut="0.0000000000000000e+00" cType="1" res="9.8569123074412346e-03" rms="4.3341779708862305e-01" purity="5.1361346244812012e-01" nType="-99"/>
          </Node>
          <Node pos="r" depth="2" NCoef="0" IVar="-1" Cut="0.0000000000000000e+00" cType="1" res="-5.2009157836437225e-02" rms="3.2506185770034790e-01" purity="1.7705735564231873e-01" nType="-99"/>
        </Node>
        <Node pos="r" depth="1" NCoef="0" IVar="3" Cut="9.9399658203125000e+01" cType="1" res="7.6306231319904327e-02" rms="3.8696193695068359e-01" purity="7.2149646282196045e-01" nType="0">
          <Node pos="l" depth="2" NCoef="0" IVar="7" Cut="3.3979545593261719e+01" cType="1" res="9.8263263702392578e-02" rms="3.7650546431541443e-01" purity="7.5260359048843384e-01" nType="0">
            <Node pos="l" depth="3" NCoef="0" IVar="-1" Cut="0.0000000000000000e+00" cType="1" res="3.6719008348882198e-03" rms="4.3366390466690063e-01" purity="5.7349300384521484e-01" nType="-99"/>
            <Node pos="r" depth="3" NCoef="0" IVar="-1" Cut="0.0000000000000000e+00" cType="1" res="2.8469324111938477e-02" rms="3.4666708111763000e-01" purity="8.2234722375869751e-01" nType="-99"/>
          </Node>
          <Node pos="r" depth="2" NCoef="0" IVar="-1" Cut="0.0000000000000000e+00" cType="1" res="-1.2031949125230312e-02" rms="4.2099121212959290e-01" purity="5.3761970996856689e-01" nType="-99"/>
        </Node>
      </Node>
    </BinaryTree>
    <BinaryTree type="DecisionTree" boostWeight="1.0000000000000000e+00" itree="21">
      <Node pos="s" depth="0" NCoef="0" IVar="7" Cut="6.9507278442382812e+01" cType="1" res="9.0051200240850449e-03" rms="4.1493445634841919e-01" purity="4.9834892153739929e-01" nType="0">
        <Node pos="l" depth="1" NCoef="0" IVar="3" Cut="6.7069190979003906e+01" cType="1" res="-1.9665202125906944e-02" rms="4.1679909825325012e-01" purity="4.2934480309486389e-01" nType="0">
          <Node pos="l" depth="2" NCoef="0" IVar="0" Cut="4.7574225068092346e-01" cType="1" res="-5.1041774451732635e-02" rms="4.1890731453895569e-01" purity="3.3011770248413086e-01" nType="0">
            <Node pos="l" depth="3" NCoef="0" IVar="-1" Cut="0.0000000000000000e+00" cType="1" res="-2.9062559828162193e-02" rms="3.9528727531433105e-01" purity="2.4557641148567200e-01" nType="-99"/>
            <Node pos="r" depth="3" NCoef="0" IVar="-1" Cut="0.0000000000000000e+00" cType="1" res="-3.5268054343760014e-03" rms="4.2744502425193787e-01" purity="3.7763711810112000e-01" nType="-99"/>
          </Node>
          <Node pos="r" depth="2" NCoef="0" IVar="3" Cut="9.1034408569335938e+01" cType="1" res="6.0802280902862549e-02" rms="4.0025398135185242e-01" purity="6.8381989002227783e-01" nType="0">
            <Node pos="l" depth="3" NCoef="0" IVar="-1" Cut="0.0000000000000000e+00" cType="1" res="2.1288534626364708e-02" rms="3.8676774501800537e-01" purity="7.4345296621322632e-01" nType="-99"/>
            <Node pos="r" depth="3" NCoef="0" IVar="-1" Cut="0.0000000000000000e+00" cType="1" res="-4.6787206083536148e-03" rms="4.1579622030258179e-01" purity="5.5698817968368530e-01" nType="-99"/>
          </Node>
        </Node>
        <Node pos="r" depth="1" NCoef="0" IVar="6" Cut="3.5759315490722656e+01" cType="1" res="8.1726551055908203e-02" rms="4.0107792615890503e-01" purity="6.7337596416473389e-01" nType="0">
          <Node pos="l" depth="2" NCoef="0" IVar="6" Cut="2.4737455368041992e+01" cType="1" res="2.7166042476892471e-02" rms="4.2977640032768250e-01" purity="5.5526250600814819e-01" nType="0">
            <Node pos="l" depth="3" NCoef="0" IVar="-1" Cut="0.0000000000000000e+00" cType="1" res="-7.1933111175894737e-03" rms="4.3452513217926025e-01" purity="4.6370023488998413e-01" nType="-99"/>
            <Node pos="r" depth="3" NCoef="0" IVar="-1" Cut="0.0000000000000000e+00" cType="1" res="2.5147594511508942e-02" rms="4.0417766571044922e-01" purity="7.0105654001235962e-01" nType="-99"/>
          </Node>
          <Node pos="r" depth="2" NCoef="0" IVar="5" Cut="6.7524047851562500e+01" cType="1" res="1.3404794037342072e-01" rms="3.6387577652931213e-01" purity="7.8664213418960571e-01" nType="0">
            <Node pos="l" depth="3" NCoef="0" IVar="-1" Cut="0.0000000000000000e+00" cType="1" res="3.6262419074773788e-02" rms="3.1187045574188232e-01" purity="8.7689024209976196e-01" nType="-99"/>
            <Node pos="r" depth="3" NCoef="0" IVar="-1" Cut="0.0000000000000000e+00" cType="1" res="1.5737449750304222e-02" rms="4.3785056471824646e-01" purity="6.2183237075805664e-01" nType="-99"/>
          </Node>
        </Node>
      </Node>
    </BinaryTree>
    <BinaryTree type="DecisionTree" boostWeight="1.0000000000000000e+00" itree="22">
      <Node pos="s" depth="0" NCoef="0" IVar="2" Cut="2.0346426391601562e+02" cType="1" res="1.0005597956478596e-02" rms="4.1432085633277893e-01" purity="4.9929463863372803e-01" nType="0">
        <Node pos="l" depth="1" NCoef="0" IVar="0" Cut="4.7580581903457642e-01" cType="1" res="-8.2729524001479149e-03" rms="4.2748180031776428e-01" purity="4.2837977409362793e-01" nType="0">
          <Node pos="l" depth="2" NCoef="0" IVar="3" Cut="5.5221500396728516e+01" cType="1" res="-5.7045508176088333e-02" rms="4.2012318968772888e-01" purity="3.5747426748275757e-01" nType="0">
            <Node pos="l" depth="3" NCoef="0" IVar="-1" Cut="0.0000000000000000e+00" cType="1" res="-2.0855527371168137e-02" rms="4.0855127573013306e-01" purity="2.6804527640342712e-01" nType="-99"/>
            <Node pos="r" depth="3" NCoef="0" IVar="-1" Cut="0.0000000000000000e+00" cType="1" res="2.9600574634969234e-03" rms="4.4135969877243042e-01" purity="5.9333199262619019e-01" nType="-99"/>
          </Node>
          <Node pos="r" depth="2" NCoef="0" IVar="1" Cut="4.7566089034080505e-01" cType="1" res="1.9066285341978073e-02" rms="4.2913410067558289e-01" purity="4.6812558174133301e-01" nType="0">
            <Node pos="l" depth="3" NCoef="0" IVar="-1" Cut="0.0000000000000000e+00" cType="1" res="-2.0359897986054420e-02" rms="4.1061073541641235e-01" purity="3.0469265580177307e-01" nType="-99"/>
            <Node pos="r" depth="3" NCoef="0" IVar="-1" Cut="0.0000000000000000e+00" cType="1" res="3.1249750405550003e-02" rms="4.1449236869812012e-01" purity="6.8999552726745605e-01" nType="-99"/>
          </Node>
        </Node>
        <Node pos="r" depth="1" NCoef="0" IVar="4" Cut="1.1642962646484375e+02" cType="1" res="9.6986040472984314e-02" rms="3.3133977651596069e-01" purity="8.3675044775009155e-01" nType="0">
          <Node pos="l" depth="2" NCoef="0" IVar="-1" Cut="0.0000000000000000e+00" cType="1" res="8.0577693879604340e-03" rms="4.0377208590507507e-01" purity="7.3225152492523193e-01" nType="-99"/>
          <Node pos="r" depth="2" NCoef="0" IVar="2" Cut="2.8597286987304688e+02" cType="1" res="1.2131678313016891e-01" rms="2.9390621185302734e-01" purity="8.7862372398376465e-01" nType="0">
            <Node pos="l" depth="3" NCoef="0" IVar="-1" Cut="0.0000000000000000e+00" cType="1" res="2.2970313206315041e-02" rms="3.2601851224899292e-01" purity="8.4102952480316162e-01" nType="-99"/>
            <Node pos="r" depth="3" NCoef="0" IVar="-1" Cut="0.0000000000000000e+00" cType="1" res="3.7533119320869446e-02" rms="2.4827352166175842e-01" purity="9.2219942808151245e-01" nType="-99"/>
          </Node>
        </Node>
      </Node>
    </BinaryTree>
    <BinaryTree type="DecisionTree" boostWeight="1.0000000000000000e+00" itree="23">
      <Node pos="s" depth="0" NCoef="0" IVar="7" Cut="3.5759315490722656e+01" cType="1" res="9.5816031098365784e-03" rms="4.1178470849990845e-01" purity="4.9938240647315979e-01" nType="0">
        <Node pos="l" depth="1" NCoef="0" IVar="7" Cut="1.8617380142211914e+01" cType="1" res="-4.3486732989549637e-02" rms="3.9822268486022949e-01" purity="3.3608505129814148e-01" nType="0">
          <Node pos="l" depth="2" NCoef="0" IVar="5" Cut="7.3573944091796875e+01" cType="1" res="-1.4861939847469330e-01" rms="3.4339988231658936e-01" purity="1.8560674786567688e-01" nType="0">
            <Node pos="l" depth="3" NCoef="0" IVar="-1" Cut="0.0000000000000000e+00" cType="1" res="-3.6083035171031952e-02" rms="4.0289744734764099e-01" purity="2.7232635021209717e-01" nType="-99"/>
            <Node pos="r" depth="3" NCoef="0" IVar="-1" Cut="0.0000000000000000e+00" cType="1" res="-5.0147946923971176e-02" rms="2.7129462361335754e-01" purity="9.9046230316162109e-02" nType="-99"/>
          </Node>
          <Node pos="r" depth="2" NCoef="0" IVar="7" Cut="2.9219669342041016e+01" cType="1" res="-9.4849746674299240e-03" rms="4.0865629911422729e-01" purity="3.8475239276885986e-01" nType="0">
            <Node pos="l" depth="3" NCoef="0" IVar="-1" Cut="0.0000000000000000e+00" cType="1" res="-1.0760418139398098e-02" rms="3.9806991815567017e-01" purity="3.3405640721321106e-01" nType="-99"/>
            <Node pos="r" depth="3" NCoef="0" IVar="-1" Cut="0.0000000000000000e+00" cType="1" res="1.2366890907287598e-02" rms="4.2101117968559265e-01" purity="4.8182761669158936e-01" nType="-99"/>
          </Node>
        </Node>
        <Node pos="r" depth="1" NCoef="0" IVar="6" Cut="3.5740467071533203e+01" cType="1" res="4.1025899350643158e-02" rms="4.1643521189689636e-01" purity="5.9614002704620361e-01" nType="0">
          <Node pos="l" depth="2" NCoef="0" IVar="6" Cut="2.1045507431030273e+01" cType="1" res="-2.5550422724336386e-03" rms="4.3360131978988647e-01" purity="4.8795002698898315e-01" nType="0">
            <Node pos="l" depth="3" NCoef="0" IVar="-1" Cut="0.0000000000000000e+00" cType="1" res="-2.0067026838660240e-02" rms="4.2573219537734985e-01" purity="3.6197686195373535e-01" nType="-99"/>
            <Node pos="r" depth="3" NCoef="0" IVar="-1" Cut="0.0000000000000000e+00" cType="1" res="1.4234865084290504e-02" rms="4.2774468660354614e-01" purity="5.9225803613662720e-01" nType="-99"/>
          </Node>
          <Node pos="r" depth="2" NCoef="0" IVar="5" Cut="8.6910209655761719e+01" cType="1" res="8.9633248746395111e-02" rms="3.9072045683860779e-01" purity="7.1680819988250732e-01" nType="0">
            <Node pos="l" depth="3" NCoef="0" IVar="-1" Cut="0.0000000000000000e+00" cType="1" res="2.6814047247171402e-02" rms="3.6441263556480408e-01" purity="7.8985869884490967e-01" nType="-99"/>
            <Node pos="r" depth="3" NCoef="0" IVar="-1" Cut="0.0000000000000000e+00" cType="1" res="-6.2908148393034935e-03" rms="4.5478010177612305e-01" purity="4.5156249403953552e-01" nType="-99"/>
          </Node>
        </Node>
      </Node>
    </BinaryTree>
    <BinaryTree type="DecisionTree" boostWeight="1.0000000000000000e+00" itree="24">
      <Node pos="s" depth="0" NCoef="0" IVar="5" Cut="8.1197128295898438e+01" cType="1" res="6.6346246749162674e-03" rms="4.1077396273612976e-01" purity="4.9702125787734985e-01" nType="0">
        <Node pos="l" depth="1" NCoef="0" IVar="6" Cut="3.0538204193115234e+01" cType="1" res="3.3373892307281494e-02" rms="4.1001471877098083e-01" purity="5.7579320669174194e-01" nType="0">
          <Node pos="l" depth="2" NCoef="0" IVar="3" Cut="6.8821640014648438e+01" cType="1" res="-3.0526030808687210e-02" rms="4.2013621330261230e-01" purity="4.2660385370254517e-01" nType="0">
            <Node pos="l" depth="3" NCoef="0" IVar="-1" Cut="0.0000000000000000e+00" cType="1" res="-1.5977049246430397e-02" rms="4.2010095715522766e-01" purity="3.2124051451683044e-01" nType="-99"/>
            <Node pos="r" depth="3" NCoef="0" IVar="-1" Cut="0.0000000000000000e+00" cType="1" res="1.1944811791181564e-02" rms="4.0740603208541870e-01" purity="6.7734235525131226e-01" nType="-99"/>
          </Node>
          <Node pos="r" depth="2" NCoef="0" IVar="7" Cut="3.4040775299072266e+01" cType="1" res="7.8878946602344513e-02" rms="3.9642152190208435e-01" purity="6.8203538656234741e-01" nType="0">
            <Node pos="l" depth="3" NCoef="0" IVar="-1" Cut="0.0000000000000000e+00" cType="1" res="9.1424462152644992e-04" rms="4.3326428532600403e-01" purity="4.8115691542625427e-01" nType="-99"/>
            <Node pos="r" depth="3" NCoef="0" IVar="-1" Cut="0.0000000000000000e+00" cType="1" res="2.5670344009995461e-02" rms="3.7086236476898193e-01" purity="7.8312647342681885e-01" nType="-99"/>
          </Node>
        </Node>
        <Node pos="r" depth="1" NCoef="0" IVar="8" Cut="1.4532839059829712e+00" cType="1" res="-5.1131691783666611e-02" rms="4.0644791722297668e-01" purity="3.2684576511383057e-01" nType="0">
          <Node pos="l" depth="2" NCoef="0" IVar="8" Cut="5.8682054281234741e-01" cType="1" res="-7.9764321446418762e-02" rms="3.7822842597961426e-01" purity="2.4848484992980957e-01" nType="0">
            <Node pos="l" depth="3" NCoef="0" IVar="-1" Cut="0.0000000000000000e+00" cType="1" res="-3.8769207894802094e-02" rms="3.2590651512145996e-01" purity="1.5573090314865112e-01" nType="-99"/>
            <Node pos="r" depth="3" NCoef="0" IVar="-1" Cut="0.0000000000000000e+00" cType="1" res="-1.0916327126324177e-02" rms="4.1136220097541809e-01" purity="3.2202830910682678e-01" nType="-99"/>
          </Node>
          <Node pos="r" depth="2" NCoef="0" IVar="2" Cut="9.6506469726562500e+01" cType="1" res="-1.2243027798831463e-02" rms="4.3891778588294983e-01" purity="4.3327510356903076e-01" nType="0">
            <Node pos="l" depth="3" NCoef="0" IVar="-1" Cut="0.0000000000000000e+00" cType="1" res="-1.1466420255601406e-02" rms="4.3239340186119080e-01" purity="2.9214036464691162e-01" nType="-99"/>
            <Node pos="r" depth="3" NCoef="0" IVar="-1" Cut="0.0000000000000000e+00" cType="1" res="4.9706059508025646e-03" rms="4.4259259104728699e-01" purity="5.7703930139541626e-01" nType="-99"/>
          </Node>
        </Node>
      </Node>
    </BinaryTree>
    <BinaryTree type="DecisionTree" boostWeight="1.0000000000000000e+00" itree="25">
      <Node pos="s" depth="0" NCoef="0" IVar="1" Cut="4.7572049498558044e-01" cType="1" res="8.7010562419891357e-03" rms="4.1032215952873230e-01" purity="4.9959781765937805e-01" nType="0">
        <Node pos="l" depth="1" NCoef="0" IVar="1" Cut="-2.3314215242862701e-02" cType="1" res="-3.7354007363319397e-02" rms="4.1445755958557129e-01" purity="3.9359849691390991e-01" nType="0">
          <Node pos="l" depth="2" NCoef="0" IVar="6" Cut="2.9205812454223633e+01" cType="1" res="1.7338087782263756e-02" rms="4.2151692509651184e-01" purity="4.5797792077064514e-01" nType="0">
            <Node pos="l" depth="3" NCoef="0" IVar="-1" Cut="0.0000000000000000e+00" cType="1" res="-9.3132806941866875e-03" rms="4.2353954911231995e-01" purity="3.3954545855522156e-01" nType="-99"/>
            <Node pos="r" depth="3" NCoef="0" IVar="-1" Cut="0.0000000000000000e+00" cType="1" res="1.3253885321319103e-02" rms="4.1548296809196472e-01" purity="5.4432475566864014e-01" nType="-99"/>
          </Node>
          <Node pos="r" depth="2" NCoef="0" IVar="1" Cut="2.1188318729400635e-01" cType="1" res="-8.5048474371433258e-02" rms="4.0217584371566772e-01" purity="3.3745613694190979e-01" nType="0">
            <Node pos="l" depth="3" NCoef="0" IVar="-1" Cut="0.0000000000000000e+00" cType="1" res="-3.8357954472303391e-02" rms="3.7900742888450623e-01" purity="2.5984251499176025e-01" nType="-99"/>
            <Node pos="r" depth="3" NCoef="0" IVar="-1" Cut="0.0000000000000000e+00" cType="1" res="-9.6194009529426694e-04" rms="4.1634029150009155e-01" purity="4.3724927306175232e-01" nType="-99"/>
          </Node>
        </Node>
        <Node pos="r" depth="1" NCoef="0" IVar="0" Cut="4.7573214769363403e-01" cType="1" res="3.6378573626279831e-02" rms="4.0530699491500854e-01" purity="5.6329977512359619e-01" nType="0">
          <Node pos="l" depth="2" NCoef="0" IVar="0" Cut="-2.3218393325805664e-02" cType="1" res="-5.8516059070825577e-02" rms="4.0712165832519531e-01" purity="4.0084642171859741e-01" nType="0">
            <Node pos="l" depth="3" NCoef="0" IVar="-1" Cut="0.0000000000000000e+00" cType="1" res="-2.2665720898658037e-03" rms="4.1700848937034607e-01" purity="4.8015365004539490e-01" nType="-99"/>
            <Node pos="r" depth="3" NCoef="0" IVar="-1" Cut="0.0000000000000000e+00" cType="1" res="-2.5663759559392929e-02" rms="3.9292910695075989e-01" purity="3.2989689707756042e-01" nType="-99"/>
          </Node>
          <Node pos="r" depth="2" NCoef="0" IVar="1" Cut="7.0022648572921753e-01" cType="1" res="1.4445619285106659e-01" rms="3.7504383921623230e-01" purity="7.4832159280776978e-01" nType="0">
            <Node pos="l" depth="3" NCoef="0" IVar="-1" Cut="0.0000000000000000e+00" cType="1" res="-9.7980387508869171e-03" rms="4.2481020092964172e-01" purity="5.2055990695953369e-01" nType="-99"/>
            <Node pos="r" depth="3" NCoef="0" IVar="-1" Cut="0.0000000000000000e+00" cType="1" res="3.9774872362613678e-02" rms="3.4658613801002502e-01" purity="8.0411487817764282e-01" nType="-99"/>
          </Node>
        </Node>
      </Node>
    </BinaryTree>
    <BinaryTree type="DecisionTree" boostWeight="1.0000000000000000e+00" itree="26">
      <Node pos="s" depth="0" NCoef="0" IVar="2" Cut="1.0348277282714844e+02" cType="1" res="1.0196585208177567e-02" rms="4.0501749515533447e-01" purity="5.0177824497222900e-01" nType="0">
        <Node pos="l" depth="1" NCoef="0" IVar="4" Cut="1.5076873779296875e+01" cType="1" res="-2.6503309607505798e-02" rms="4.1641998291015625e-01" purity="3.3963009715080261e-01" nType="0">
          <Node pos="l" depth="2" NCoef="0" IVar="2" Cut="5.4198696136474609e+01" cType="1" res="2.6147237047553062e-02" rms="4.3011289834976196e-01" purity="3.2959100604057312e-01" nType="0">
            <Node pos="l" depth="3" NCoef="0" IVar="-1" Cut="0.0000000000000000e+00" cType="1" res="-6.8001607432961464e-03" rms="4.1446611285209656e-01" purity="2.6819735765457153e-01" nType="-99"/>
            <Node pos="r" depth="3" NCoef="0" IVar="-1" Cut="0.0000000000000000e+00" cType="1" res="2.1626351401209831e-02" rms="4.4034573435783386e-01" purity="4.0377801656723022e-01" nType="-99"/>
          </Node>
          <Node pos="r" depth="2" NCoef="0" IVar="4" Cut="1.1559420776367188e+02" cType="1" res="-4.3782517313957214e-02" rms="4.1035726666450500e-01" purity="3.4292483329772949e-01" nType="0">
            <Node pos="l" depth="3" NCoef="0" IVar="-1" Cut="0.0000000000000000e+00" cType="1" res="-2.0406862720847130e-02" rms="4.0006092190742493e-01" purity="2.7444472908973694e-01" nType="-99"/>
            <Node pos="r" depth="3" NCoef="0" IVar="-1" Cut="0.0000000000000000e+00" cType="1" res="-6.7445583408698440e-04" rms="4.1717198491096497e-01" purity="4.1576895117759705e-01" nType="-99"/>
          </Node>
        </Node>
        <Node pos="r" depth="1" NCoef="0" IVar="7" Cut="3.5759315490722656e+01" cType="1" res="4.8087775707244873e-02" rms="3.8928446173667908e-01" purity="6.6918987035751343e-01" nType="0">
          <Node pos="l" depth="2" NCoef="0" IVar="7" Cut="2.8401035308837891e+01" cType="1" res="-8.5031781345605850e-03" rms="4.1873577237129211e-01" purity="4.8701506853103638e-01" nType="0">
            <Node pos="l" depth="3" NCoef="0" IVar="-1" Cut="0.0000000000000000e+00" cType="1" res="-1.2324022129178047e-02" rms="4.1493493318557739e-01" purity="4.1278231143951416e-01" nType="-99"/>
            <Node pos="r" depth="3" NCoef="0" IVar="-1" Cut="0.0000000000000000e+00" cType="1" res="1.7262434586882591e-02" rms="4.1247001290321350e-01" purity="6.3583815097808838e-01" nType="-99"/>
          </Node>
          <Node pos="r" depth="2" NCoef="0" IVar="6" Cut="3.5740467071533203e+01" cType="1" res="7.4602298438549042e-02" rms="3.7173804640769958e-01" purity="7.5454407930374146e-01" nType="0">
            <Node pos="l" depth="3" NCoef="0" IVar="-1" Cut="0.0000000000000000e+00" cType="1" res="7.6948935166001320e-03" rms="4.1311174631118774e-01" purity="6.5796917676925659e-01" nType="-99"/>
            <Node pos="r" depth="3" NCoef="0" IVar="-1" Cut="0.0000000000000000e+00" cType="1" res="2.6621975004673004e-02" rms="3.2528272271156311e-01" purity="8.4292292594909668e-01" nType="-99"/>
          </Node>
        </Node>
      </Node>
    </BinaryTree>
    <BinaryTree type="DecisionTree" boostWeight="1.0000000000000000e+00" itree="27">
      <Node pos="s" depth="0" NCoef="0" IVar="2" Cut="2.0346426391601562e+02" cType="1" res="6.3492991030216217e-03" rms="4.0487942099571228e-01" purity="4.9974298477172852e-01" nType="0">
        <Node pos="l" depth="1" NCoef="0" IVar="6" Cut="2.5043619155883789e+01" cType="1" res="-8.8122952729463577e-03" rms="4.1713207960128784e-01" purity="4.2963692545890808e-01" nType="0">
          <Node pos="l" depth="2" NCoef="0" IVar="6" Cut="1.5785145759582520e+01" cType="1" res="-6.5873473882675171e-02" rms="4.1451027989387512e-01" purity="3.0976533889770508e-01" nType="0">
            <Node pos="l" depth="3" NCoef="0" IVar="-1" Cut="0.0000000000000000e+00" cType="1" res="-3.1920392066240311e-02" rms="3.8561314344406128e-01" purity="2.3495702445507050e-01" nType="-99"/>
            <Node pos="r" depth="3" NCoef="0" IVar="-1" Cut="0.0000000000000000e+00" cType="1" res="-1.0824980214238167e-02" rms="4.2222067713737488e-01" purity="3.3613944053649902e-01" nType="-99"/>
          </Node>
          <Node pos="r" depth="2" NCoef="0" IVar="7" Cut="3.5759315490722656e+01" cType="1" res="1.8303999677300453e-02" rms="4.1563534736633301e-01" purity="4.8660159111022949e-01" nType="0">
            <Node pos="l" depth="3" NCoef="0" IVar="-1" Cut="0.0000000000000000e+00" cType="1" res="-1.1393164284527302e-02" rms="3.9423424005508423e-01" purity="2.9862555861473083e-01" nType="-99"/>
            <Node pos="r" depth="3" NCoef="0" IVar="-1" Cut="0.0000000000000000e+00" cType="1" res="1.3539870269596577e-02" rms="4.2506104707717896e-01" purity="6.2615954875946045e-01" nType="-99"/>
          </Node>
        </Node>
        <Node pos="r" depth="1" NCoef="0" IVar="1" Cut="4.7565191984176636e-01" cType="1" res="7.8811429440975189e-02" rms="3.3081933856010437e-01" purity="8.3480256795883179e-01" nType="0">
          <Node pos="l" depth="2" NCoef="0" IVar="-1" Cut="0.0000000000000000e+00" cType="1" res="7.5177759863436222e-03" rms="3.7500566244125366e-01" purity="7.6431858539581299e-01" nType="-99"/>
          <Node pos="r" depth="2" NCoef="0" IVar="0" Cut="4.7584721446037292e-01" cType="1" res="9.8693124949932098e-02" rms="3.0866852402687073e-01" purity="8.6374694108963013e-01" nType="0">
            <Node pos="l" depth="3" NCoef="0" IVar="-1" Cut="0.0000000000000000e+00" cType="1" res="8.3276415243744850e-03" rms="3.7555918097496033e-01" purity="7.6918274164199829e-01" nType="-99"/>
            <Node pos="r" depth="3" NCoef="0" IVar="-1" Cut="0.0000000000000000e+00" cType="1" res="3.8557704538106918e-02" rms="2.3363271355628967e-01" purity="9.3606871366500854e-01" nType="-99"/>
          </Node>
        </Node>
      </Node>
    </BinaryTree>
    <BinaryTree type="DecisionTree" boostWeight="1.0000000000000000e+00" itree="28">
      <Node pos="s" depth="0" NCoef="0" IVar="3" Cut="5.5136741638183594e+01" cType="1" res="6.5376386046409607e-03" rms="4.0387710928916931e-01" purity="4.9648866057395935e-01" nType="0">
        <Node pos="l" depth="1" NCoef="0" IVar="4" Cut="1.7208679199218750e+02" cType="1" res="-1.9223138689994812e-02" rms="4.1591131687164307e-01" purity="3.8275364041328430e-01" nType="0">
          <Node pos="l" depth="2" NCoef="0" IVar="3" Cut="2.3601535797119141e+01" cType="1" res="-7.0548444055020809e-03" rms="4.2138475179672241e-01" purity="4.0079113841056824e-01" nType="0">
            <Node pos="l" depth="3" NCoef="0" IVar="-1" Cut="0.0000000000000000e+00" cType="1" res="7.7035144204273820e-04" rms="4.2187291383743286e-01" purity="4.0517598390579224e-01" nType="-99"/>
            <Node pos="r" depth="3" NCoef="0" IVar="-1" Cut="0.0000000000000000e+00" cType="1" res="-3.2720606774091721e-02" rms="3.9338329434394836e-01" purity="3.4628072381019592e-01" nType="-99"/>
          </Node>
          <Node pos="r" depth="2" NCoef="0" IVar="-1" Cut="0.0000000000000000e+00" cType="1" res="-5.3055796772241592e-02" rms="2.9003238677978516e-01" purity="1.4337438344955444e-01" nType="-99"/>
        </Node>
        <Node pos="r" depth="1" NCoef="0" IVar="3" Cut="9.7151336669921875e+01" cType="1" res="5.7404913008213043e-02" rms="3.7381601333618164e-01" purity="7.2107005119323730e-01" nType="0">
          <Node pos="l" depth="2" NCoef="0" IVar="4" Cut="1.4906344604492188e+02" cType="1" res="8.3479419350624084e-02" rms="3.6028972268104553e-01" purity="7.6142686605453491e-01" nType="0">
            <Node pos="l" depth="3" NCoef="0" IVar="-1" Cut="0.0000000000000000e+00" cType="1" res="8.8859600946307182e-03" rms="4.1073283553123474e-01" purity="6.4826703071594238e-01" nType="-99"/>
            <Node pos="r" depth="3" NCoef="0" IVar="-1" Cut="0.0000000000000000e+00" cType="1" res="2.8350044041872025e-02" rms="3.1426531076431274e-01" purity="8.4468460083007812e-01" nType="-99"/>
          </Node>
          <Node pos="r" depth="2" NCoef="0" IVar="-1" Cut="0.0000000000000000e+00" cType="1" res="-1.6270700842142105e-02" rms="4.1056489944458008e-01" purity="5.2600818872451782e-01" nType="-99"/>
        </Node>
      </Node>
    </BinaryTree>
    <BinaryTree type="DecisionTree" boostWeight="1.0000000000000000e+00" itree="29">
      <Node pos="s" depth="0" NCoef="0" IVar="2" Cut="1.0348277282714844e+02" cType="1" res="4.4028484262526035e-03" rms="4.0084606409072876e-01" purity="4.9540826678276062e-01" nType="0">
        <Node pos="l" depth="1" NCoef="0" IVar="7" Cut="6.8763252258300781e+01" cType="1" res="-2.8323100879788399e-02" rms="4.1313606500625610e-01" purity="3.3217054605484009e-01" nType="0">
          <Node pos="l" depth="2" NCoef="0" IVar="7" Cut="2.1264123916625977e+01" cType="1" res="-4.7973260283470154e-02" rms="4.0099987387657166e-01" purity="2.8318473696708679e-01" nType="0">
            <Node pos="l" depth="3" NCoef="0" IVar="-1" Cut="0.0000000000000000e+00" cType="1" res="-3.6700055003166199e-02" rms="3.0828073620796204e-01" purity="1.2896746397018433e-01" nType="-99"/>
            <Node pos="r" depth="3" NCoef="0" IVar="-1" Cut="0.0000000000000000e+00" cType="1" res="-7.6638623140752316e-03" rms="4.2042377591133118e-01" purity="3.2377979159355164e-01" nType="-99"/>
          </Node>
          <Node pos="r" depth="2" NCoef="0" IVar="8" Cut="3.0046691894531250e+00" cType="1" res="3.8063932210206985e-02" rms="4.4536548852920532e-01" purity="4.9766653776168823e-01" nType="0">
            <Node pos="l" depth="3" NCoef="0" IVar="-1" Cut="0.0000000000000000e+00" cType="1" res="1.5736278146505356e-02" rms="4.4441962242126465e-01" purity="6.1997228860855103e-01" nType="-99"/>
            <Node pos="r" depth="3" NCoef="0" IVar="-1" Cut="0.0000000000000000e+00" cType="1" res="-1.1000749655067921e-03" rms="4.4228264689445496e-01" purity="3.7045583128929138e-01" nType="-99"/>
          </Node>
        </Node>
        <Node pos="r" depth="1" NCoef="0" IVar="5" Cut="8.3932937622070312e+01" cType="1" res="3.8650933653116226e-02" rms="3.8459682464599609e-01" purity="6.6623854637145996e-01" nType="0">
          <Node pos="l" depth="2" NCoef="0" IVar="6" Cut="3.5740467071533203e+01" cType="1" res="6.1411965638399124e-02" rms="3.6873820424079895e-01" purity="7.3005586862564087e-01" nType="0">
            <Node pos="l" depth="3" NCoef="0" IVar="-1" Cut="0.0000000000000000e+00" cType="1" res="3.9225504733622074e-03" rms="4.0659183263778687e-01" purity="6.1918950080871582e-01" nType="-99"/>
            <Node pos="r" depth="3" NCoef="0" IVar="-1" Cut="0.0000000000000000e+00" cType="1" res="2.4214148521423340e-02" rms="3.3026352524757385e-01" purity="8.2075244188308716e-01" nType="-99"/>
          </Node>
          <Node pos="r" depth="2" NCoef="0" IVar="8" Cut="1.1330163478851318e+00" cType="1" res="-3.1993828713893890e-02" rms="4.2236971855163574e-01" purity="4.6816480159759521e-01" nType="0">
            <Node pos="l" depth="3" NCoef="0" IVar="-1" Cut="0.0000000000000000e+00" cType="1" res="-2.1679416298866272e-02" rms="4.0220260620117188e-01" purity="3.3960545063018799e-01" nType="-99"/>
            <Node pos="r" depth="3" NCoef="0" IVar="-1" Cut="0.0000000000000000e+00" cType="1" res="3.1820598524063826e-03" rms="4.3313562870025635e-01" purity="5.7639247179031372e-01" nType="-99"/>
          </Node>
        </Node>
      </Node>
    </BinaryTree>
    <BinaryTree type="DecisionTree" boostWeight="1.0000000000000000e+00" itree="30">
      <Node pos="s" depth="0" NCoef="0" IVar="5" Cut="8.1197128295898438e+01" cType="1" res="4.6690572053194046e-03" rms="4.0187191963195801e-01" purity="4.9811846017837524e-01" nType="0">
        <Node pos="l" depth="1" NCoef="0" IVar="6" Cut="3.1012149810791016e+01" cType="1" res="2.5840424001216888e-02" rms="4.0073594450950623e-01" purity="5.7528901100158691e-01" nType="0">
          <Node pos="l" depth="2" NCoef="0" IVar="6" Cut="2.1020870208740234e+01" cType="1" res="-1.6931617632508278e-02" rms="4.1436010599136353e-01" purity="4.3342778086662292e-01" nType="0">
            <Node pos="l" depth="3" NCoef="0" IVar="-1" Cut="0.0000000000000000e+00" cType="1" res="-1.8126443028450012e-02" rms="4.0482732653617859e-01" purity="3.4365108609199524e-01" nType="-99"/>
            <Node pos="r" depth="3" NCoef="0" IVar="-1" Cut="0.0000000000000000e+00" cType="1" res="8.3014611154794693e-03" rms="4.1612970829010010e-01" purity="5.1737749576568604e-01" nType="-99"/>
          </Node>
          <Node pos="r" depth="2" NCoef="0" IVar="7" Cut="3.5759315490722656e+01" cType="1" res="5.7467006146907806e-02" rms="3.8733068108558655e-01" purity="6.8018436431884766e-01" nType="0">
            <Node pos="l" depth="3" NCoef="0" IVar="-1" Cut="0.0000000000000000e+00" cType="1" res="-2.1618149185087532e-04" rms="4.2283955216407776e-01" purity="4.8272177577018738e-01" nType="-99"/>
            <Node pos="r" depth="3" NCoef="0" IVar="-1" Cut="0.0000000000000000e+00" cType="1" res="2.1004999056458473e-02" rms="3.6258849501609802e-01" purity="7.8781795501708984e-01" nType="-99"/>
          </Node>
        </Node>
        <Node pos="r" depth="1" NCoef="0" IVar="4" Cut="2.7604282379150391e+01" cType="1" res="-4.2748957872390747e-02" rms="4.0036320686340332e-01" purity="3.2527780532836914e-01" nType="0">
          <Node pos="l" depth="2" NCoef="0" IVar="-1" Cut="0.0000000000000000e+00" cType="1" res="2.8239802923053503e-03" rms="4.2172861099243164e-01" purity="2.9145628213882446e-01" nType="-99"/>
          <Node pos="r" depth="2" NCoef="0" IVar="2" Cut="1.5386714172363281e+02" cType="1" res="-6.2065832316875458e-02" rms="3.9050382375717163e-01" purity="3.3760210871696472e-01" nType="0">
            <Node pos="l" depth="3" NCoef="0" IVar="-1" Cut="0.0000000000000000e+00" cType="1" res="-2.4069163948297501e-02" rms="3.7580093741416931e-01" purity="2.2828732430934906e-01" nType="-99"/>
            <Node pos="r" depth="3" NCoef="0" IVar="-1" Cut="0.0000000000000000e+00" cType="1" res="1.7575562233105302e-03" rms="4.1890946030616760e-01" purity="6.2637364864349365e-01" nType="-99"/>
          </Node>
        </Node>
      </Node>
    </BinaryTree>
    <BinaryTree type="DecisionTree" boostWeight="1.0000000000000000e+00" itree="31">
      <Node pos="s" depth="0" NCoef="0" IVar="2" Cut="2.5350354003906250e+02" cType="1" res="8.5403257980942726e-03" rms="4.0162685513496399e-01" purity="5.0196963548660278e-01" nType="0">
        <Node pos="l" depth="1" NCoef="0" IVar="2" Cut="7.2421745300292969e+01" cType="1" res="-9.5102284103631973e-04" rms="4.1167551279067993e-01" purity="4.5826646685600281e-01" nType="0">
          <Node pos="l" depth="2" NCoef="0" IVar="4" Cut="1.4305738449096680e+01" cType="1" res="-3.7812933325767517e-02" rms="4.0850043296813965e-01" purity="3.0846083164215088e-01" nType="0">
            <Node pos="l" depth="3" NCoef="0" IVar="-1" Cut="0.0000000000000000e+00" cType="1" res="2.4600450415164232e-03" rms="4.2323657870292664e-01" purity="3.0570304393768311e-01" nType="-99"/>
            <Node pos="r" depth="3" NCoef="0" IVar="-1" Cut="0.0000000000000000e+00" cType="1" res="-1.4597183093428612e-02" rms="4.0016910433769226e-01" purity="3.0966442823410034e-01" nType="-99"/>
          </Node>
          <Node pos="r" depth="2" NCoef="0" IVar="0" Cut="4.7572028636932373e-01" cType="1" res="1.9651936367154121e-02" rms="4.1200521588325500e-01" purity="5.4199630022048950e-01" nType="0">
            <Node pos="l" depth="3" NCoef="0" IVar="-1" Cut="0.0000000000000000e+00" cType="1" res="-5.8897957205772400e-03" rms="4.1946336627006531e-01" purity="4.5690333843231201e-01" nType="-99"/>
            <Node pos="r" depth="3" NCoef="0" IVar="-1" Cut="0.0000000000000000e+00" cType="1" res="1.0387978516519070e-02" rms="4.0539035201072693e-01" purity="5.9149873256683350e-01" nType="-99"/>
          </Node>
        </Node>
        <Node pos="r" depth="1" NCoef="0" IVar="-1" Cut="0.0000000000000000e+00" cType="1" res="2.4481482803821564e-02" rms="2.9079401493072510e-01" purity="8.7345385551452637e-01" nType="-99"/>
      </Node>
    </BinaryTree>
    <BinaryTree type="DecisionTree" boostWeight="1.0000000000000000e+00" itree="32">
      <Node pos="s" depth="0" NCoef="0" IVar="1" Cut="4.7578698396682739e-01" cType="1" res="1.0757441632449627e-02" rms="4.0083774924278259e-01" purity="5.0507223606109619e-01" nType="0">
        <Node pos="l" depth="1" NCoef="0" IVar="1" Cut="-2.3183425888419151e-02" cType="1" res="-2.7655404061079025e-02" rms="4.1091498732566833e-01" purity="4.0184515714645386e-01" nType="0">
          <Node pos="l" depth="2" NCoef="0" IVar="2" Cut="5.0700706481933594e+01" cType="1" res="2.4366812780499458e-02" rms="4.1927352547645569e-01" purity="4.7104170918464661e-01" nType="0">
            <Node pos="l" depth="3" NCoef="0" IVar="-1" Cut="0.0000000000000000e+00" cType="1" res="-1.1490776203572750e-02" rms="4.1558846831321716e-01" purity="2.5442081689834595e-01" nType="-99"/>
            <Node pos="r" depth="3" NCoef="0" IVar="-1" Cut="0.0000000000000000e+00" cType="1" res="1.1271447874605656e-02" rms="4.1805598139762878e-01" purity="5.4736173152923584e-01" nType="-99"/>
          </Node>
          <Node pos="r" depth="2" NCoef="0" IVar="1" Cut="1.9179186224937439e-01" cType="1" res="-7.4112862348556519e-02" rms="3.9759162068367004e-01" purity="3.4005036950111389e-01" nType="0">
            <Node pos="l" depth="3" NCoef="0" IVar="-1" Cut="0.0000000000000000e+00" cType="1" res="-3.8132641464471817e-02" rms="3.7140348553657532e-01" purity="2.4925521016120911e-01" nType="-99"/>
            <Node pos="r" depth="3" NCoef="0" IVar="-1" Cut="0.0000000000000000e+00" cType="1" res="-1.3731836806982756e-03" rms="4.1174963116645813e-01" purity="4.3353784084320068e-01" nType="-99"/>
          </Node>
        </Node>
        <Node pos="r" depth="1" NCoef="0" IVar="0" Cut="4.7584721446037292e-01" cType="1" res="3.3860277384519577e-02" rms="3.9284837245941162e-01" purity="5.6715661287307739e-01" nType="0">
          <Node pos="l" depth="2" NCoef="0" IVar="0" Cut="-2.3434672504663467e-02" cType="1" res="-5.5882934480905533e-02" rms="3.9785292744636536e-01" purity="3.9017030596733093e-01" nType="0">
            <Node pos="l" depth="3" NCoef="0" IVar="-1" Cut="0.0000000000000000e+00" cType="1" res="-4.2299698106944561e-03" rms="4.0990415215492249e-01" purity="4.6437993645668030e-01" nType="-99"/>
            <Node pos="r" depth="3" NCoef="0" IVar="-1" Cut="0.0000000000000000e+00" cType="1" res="-2.3592384532094002e-02" rms="3.8388809561729431e-01" purity="3.2561922073364258e-01" nType="-99"/>
          </Node>
